{"learner":{"attributes":{"scikit_learn":"{\"_estimator_type\": \"classifier\"}"},"feature_names":["grid","driver_form_points","driver_form_position","constructor_form_points","avg_positions_gained"],"feature_types":["int","float","float","float","float"],"gradient_booster":{"model":{"gbtree_model_param":{"num_parallel_tree":"1","num_trees":"100"},"iteration_indptr":[0,1,2,3,4,5,6,7,8,9,10,11,12,13,14,15,16,17,18,19,20,21,22,23,24,25,26,27,28,29,30,31,32,33,34,35,36,37,38,39,40,41,42,43,44,45,46,47,48,49,50,51,52,53,54,55,56,57,58,59,60,61,62,63,64,65,66,67,68,69,70,71,72,73,74,75,76,77,78,79,80,81,82,83,84,85,86,87,88,89,90,91,92,93,94,95,96,97,98,99,100],"tree_info":[0,0,0,0,0,0,0,0,0,0,0,0,0,0,0,0,0,0,0,0,0,0,0,0,0,0,0,0,0,0,0,0,0,0,0,0,0,0,0,0,0,0,0,0,0,0,0,0,0,0,0,0,0,0,0,0,0,0,0,0,0,0,0,0,0,0,0,0,0,0,0,0,0,0,0,0,0,0,0,0,0,0,0,0,0,0,0,0,0,0,0,0,0,0,0,0,0,0,0,0],"trees":[{"base_weights":[-0E0,-1.7475517E0,1.3035715E0,-4.473684E-1,-1.860355E0,1.6194291E0,-4.6709128E-2,1.4705883E-1,-1.9090909E-1,-1.7391305E-2,-1.9029127E-1,1.1079647E-1,1.816156E-1,-6.1904766E-2,1.3381295E-1],"categories":[],"categories_nodes":[],"categories_segments":[],"categories_sizes":[],"default_left":[0,0,0,0,0,0,0,0,0,0,0,0,0,0,0],"id":0,"left_children":[1,3,5,7,9,11,13,-1,-1,-1,-1,-1,-1,-1,-1],"loss_changes":[2.4500518E3,6.656018E1,2.627976E2,1.09341255E2,2.999231E1,4.822168E1,9.41566E1,0E0,0E0,0E0,0E0,0E0,0E0,0E0,0E0],"parents":[2147483647,0,0,1,1,2,2,3,3,4,4,5,5,6,6],"right_children":[2,4,6,8,10,12,14,-1,-1,-1,-1,-1,-1,-1,-1],"split_conditions":[8.4E0,4E0,4E0,7E0,-5.8E0,1.51E1,1.75E1,1.4705883E-1,-1.9090909E-1,-1.7391305E-2,-1.9029127E-1,1.1079647E-1,1.816156E-1,-6.1904766E-2,1.3381295E-1],"split_indices":[1,0,0,2,4,1,1,0,0,0,0,0,0,0,0],"split_type":[0,0,0,0,0,0,0,0,0,0,0,0,0,0,0],"sum_hessian":[1.0735E3,4.585E2,6.15E2,3.7E1,4.215E2,4.9825E2,1.1675E2,1.6E1,2.1E1,1.05E1,4.11E2,1.4025E2,3.58E2,8.3E1,3.375E1],"tree_param":{"num_deleted":"0","num_feature":"5","num_nodes":"15","size_leaf_vector":"1"}},{"base_weights":[6.446333E-5,-1.5876085E0,1.1810224E0,-4.0695333E-1,-1.6901655E0,1.4683588E0,-4.1465443E-2,1.3392189E-1,-1.7424743E-1,-1.5804542E-2,-1.7291759E-1,8.5947394E-2,1.6113625E-1,-4.845158E-2,1.4702465E-1],"categories":[],"categories_nodes":[],"categories_segments":[],"categories_sizes":[],"default_left":[0,0,0,0,0,0,0,0,0,0,0,0,0,0,0],"id":1,"left_children":[1,3,5,7,9,11,13,-1,-1,-1,-1,-1,-1,-1,-1],"loss_changes":[2.0023402E3,5.4469116E1,2.1517725E2,9.030691E1,2.4757812E1,4.179309E1,7.942301E1,0E0,0E0,0E0,0E0,0E0,0E0,0E0,0E0],"parents":[2147483647,0,0,1,1,2,2,3,3,4,4,5,5,6,6],"right_children":[2,4,6,8,10,12,14,-1,-1,-1,-1,-1,-1,-1,-1],"split_conditions":[8.4E0,4E0,4E0,7E0,-5.8E0,1.38E1,1.92E1,1.3392189E-1,-1.7424743E-1,-1.5804542E-2,-1.7291759E-1,8.5947394E-2,1.6113625E-1,-4.845158E-2,1.4702465E-1],"split_indices":[1,0,0,2,4,1,1,0,0,0,0,0,0,0,0],"split_type":[0,0,0,0,0,0,0,0,0,0,0,0,0,0,0],"sum_hessian":[1.065929E3,4.5452454E2,6.114044E2,3.6723618E1,4.178009E2,4.9488452E2,1.16519905E2,1.5913805E1,2.0809813E1,1.0499206E1,4.073017E2,9.545675E1,3.994278E2,9.063595E1,2.5883959E1],"tree_param":{"num_deleted":"0","num_feature":"5","num_nodes":"15","size_leaf_vector":"1"}},{"base_weights":[3.6276986E-5,-1.4641021E0,1.0807879E0,-3.7515712E-1,-1.5589883E0,1.3468204E0,-3.6460154E-2,1.23042144E-1,-1.6146101E-1,-1.4364277E-2,-1.5958883E-1,9.77445E-2,1.5714009E-1,-8.31159E-2,6.660991E-2],"categories":[],"categories_nodes":[],"categories_segments":[],"categories_sizes":[],"default_left":[0,0,0,0,0,0,0,0,0,0,0,0,0,0,0],"id":2,"left_children":[1,3,5,7,9,11,13,-1,-1,-1,-1,-1,-1,-1,-1],"loss_changes":[1.6589897E3,4.541986E1,1.7932971E2,7.562515E1,2.1143555E1,3.887982E1,6.586498E1,0E0,0E0,0E0,0E0,0E0,0E0,0E0,0E0],"parents":[2147483647,0,0,1,1,2,2,3,3,4,4,5,5,6,6],"right_children":[2,4,6,8,10,12,14,-1,-1,-1,-1,-1,-1,-1,-1],"split_conditions":[8.4E0,4E0,4E0,7E0,-5.8E0,1.72E1,1.36E1,1.23042144E-1,-1.6146101E-1,-1.4364277E-2,-1.5958883E-1,9.77445E-2,1.5714009E-1,-8.31159E-2,6.660991E-2],"split_indices":[1,0,0,2,4,1,1,0,0,0,0,0,0,0,0],"split_type":[0,0,0,0,0,0,0,0,0,0,0,0,0,0,0],"sum_hessian":[1.0464209E3,4.4423837E2,6.021826E2,3.6003548E1,4.0823483E2,4.8620486E2,1.15977715E2,1.568831E1,2.0315237E1,1.04971075E1,3.977377E2,1.8586253E2,3.0034235E2,5.43344E1,6.1643314E1],"tree_param":{"num_deleted":"0","num_feature":"5","num_nodes":"15","size_leaf_vector":"1"}},{"base_weights":[-1.6564857E-4,-1.394645E0,9.752982E-1,-4.9883655E-1,-1.4535584E0,1.2438909E0,-9.625134E-2,1.0045137E-1,-1.4985481E-1,-2.651588E-2,-1.4891337E-1,8.9888036E-2,1.463965E-1,-4.759362E-2,1.2983249E-1],"categories":[],"categories_nodes":[],"categories_segments":[],"categories_sizes":[],"default_left":[0,0,0,0,0,0,0,0,0,0,0,0,0,0,0],"id":3,"left_children":[1,3,5,7,9,11,13,-1,-1,-1,-1,-1,-1,-1,-1],"loss_changes":[1.3887145E3,2.1451477E1,1.7300989E2,4.2763947E1,1.6252075E1,3.5158752E1,6.4858284E1,0E0,0E0,0E0,0E0,0E0,0E0,0E0,0E0],"parents":[2147483647,0,0,1,1,2,2,3,3,4,4,5,5,6,6],"right_children":[2,4,6,8,10,12,14,-1,-1,-1,-1,-1,-1,-1,-1],"split_conditions":[8E0,7E0,4E0,4E0,-5.8E0,1.72E1,1.92E1,1.0045137E-1,-1.4985481E-1,-2.651588E-2,-1.4891337E-1,8.9888036E-2,1.463965E-1,-4.759362E-2,1.2983249E-1],"split_indices":[1,2,0,0,4,1,1,0,0,0,0,0,0,0,0],"split_type":[0,0,0,0,0,0,0,0,0,0,0,0,0,0,0],"sum_hessian":[1.01891534E3,4.1920667E2,5.9970874E2,2.6452377E1,3.9275427E2,4.793859E2,1.203228E2,1.0563041E1,1.5889337E1,1.1661253E1,3.8109302E2,1.886786E2,2.907073E2,9.509196E1,2.5230843E1],"tree_param":{"num_deleted":"0","num_feature":"5","num_nodes":"15","size_leaf_vector":"1"}},{"base_weights":[-2.6440623E-4,-1.2844472E0,9.2382836E-1,-3.2924977E-1,-1.3688898E0,1.2552322E0,2.4121207E-1,1.069168E-1,-1.4417265E-1,-1.0644261E-2,-1.40447E-1,1.279368E-1,-1.9293146E-1,-5.014503E-2,7.545437E-2],"categories":[],"categories_nodes":[],"categories_segments":[],"categories_sizes":[],"default_left":[0,0,0,0,0,0,0,0,0,0,0,0,0,0,0],"id":4,"left_children":[1,3,5,7,9,11,13,-1,-1,-1,-1,-1,-1,-1,-1],"loss_changes":[1.1724436E3,3.2897095E1,1.2967157E2,5.5831615E1,1.6898743E1,3.2177734E1,7.243556E1,0E0,0E0,0E0,0E0,0E0,0E0,0E0,0E0],"parents":[2147483647,0,0,1,1,2,2,3,3,4,4,5,5,6,6],"right_children":[2,4,6,8,10,12,14,-1,-1,-1,-1,-1,-1,-1,-1],"split_conditions":[8.4E0,4E0,3E0,7E0,-5.8E0,2.12E1,1.36E1,1.069168E-1,-1.4417265E-1,-1.0644261E-2,-1.40447E-1,1.279368E-1,-1.9293146E-1,-5.014503E-2,7.545437E-2],"split_indices":[1,0,0,2,4,3,1,0,0,0,0,0,0,0,0],"split_type":[0,0,0,0,0,0,0,0,0,0,0,0,0,0,0],"sum_hessian":[9.8598334E2,4.1243933E2,5.73544E2,3.3897423E1,3.785419E2,3.8553262E2,1.8801137E2,1.5035838E1,1.8861586E1,1.0485609E1,3.680563E2,3.832264E2,2.306224E0,7.685073E1,1.1116063E2],"tree_param":{"num_deleted":"0","num_feature":"5","num_nodes":"15","size_leaf_vector":"1"}},{"base_weights":[-7.858179E-4,-1.2160604E0,8.5755986E-1,-3.1069735E-1,-1.2966604E0,6.2484857E-2,1.1199515E0,9.969433E-2,-1.3721725E-1,-9.676437E-3,-1.3321947E-1,3.1992674E-2,-1.6522841E-1,1.1562925E-1,-1.8892613E-1],"categories":[],"categories_nodes":[],"categories_segments":[],"categories_sizes":[],"default_left":[0,0,0,0,0,0,0,0,0,0,0,0,0,0,0],"id":5,"left_children":[1,3,5,7,9,11,13,-1,-1,-1,-1,-1,-1,-1,-1],"loss_changes":[9.9344464E2,2.8364319E1,1.16372314E2,4.792477E1,1.5292114E1,6.213548E1,4.807086E1,0E0,0E0,0E0,0E0,0E0,0E0,0E0,0E0],"parents":[2147483647,0,0,1,1,2,2,3,3,4,4,5,5,6,6],"right_children":[2,4,6,8,10,12,14,-1,-1,-1,-1,-1,-1,-1,-1],"split_conditions":[8.4E0,4E0,1.36E1,7E0,-5.8E0,7E0,2.12E1,9.969433E-2,-1.3721725E-1,-9.676437E-3,-1.3321947E-1,3.1992674E-2,-1.6522841E-1,1.1562925E-1,-1.8892613E-1],"split_indices":[1,0,1,2,4,0,3,0,0,0,0,0,0,0,0],"split_type":[0,0,0,0,0,0,0,0,0,0,0,0,0,0,0],"sum_hessian":[9.5037317E2,3.9322098E2,5.571522E2,3.254168E1,3.606793E2,1.3855467E2,4.1859753E2,1.460744E1,1.793424E1,1.0481181E1,3.5019812E2,1.2117573E2,1.7378939E1,4.1421103E2,4.3865094E0],"tree_param":{"num_deleted":"0","num_feature":"5","num_nodes":"15","size_leaf_vector":"1"}},{"base_weights":[-1.5872814E-3,-1.1829692E0,7.804033E-1,-8.9692914E-1,-1.3893409E-1,1.0263999E0,-1.3288407E-1,-3.9159067E-2,-1.13268696E-1,6.916207E-2,1.253982E-1,-4.4433884E-2,1.0820583E-1],"categories":[],"categories_nodes":[],"categories_segments":[],"categories_sizes":[],"default_left":[0,0,0,0,0,0,0,0,0,0,0,0,0],"id":6,"left_children":[1,3,5,7,-1,9,11,-1,-1,-1,-1,-1,-1],"loss_changes":[8.4556616E2,2.0273315E1,1.2386801E2,1.8094803E1,0E0,3.219812E1,4.503739E1,0E0,0E0,0E0,0E0,0E0,0E0],"parents":[2147483647,0,0,1,1,2,2,3,3,5,5,6,6],"right_children":[2,4,6,8,-1,10,12,-1,-1,-1,-1,-1,-1],"split_conditions":[8E0,1.1E1,4E0,1.25E0,-1.3893409E-1,1.72E1,1.92E1,-3.9159067E-2,-1.13268696E-1,6.916207E-2,1.253982E-1,-4.4433884E-2,1.0820583E-1],"split_indices":[1,0,0,3,0,1,1,0,0,0,0,0,0],"split_type":[0,0,0,0,0,0,0,0,0,0,0,0,0],"sum_hessian":[9.132845E2,3.6354736E2,5.497371E2,1.5460472E2,2.0894263E2,4.3298703E2,1.16750114E2,5.0029427E1,1.045753E2,1.7686028E2,2.5612674E2,9.343261E1,2.3317509E1],"tree_param":{"num_deleted":"0","num_feature":"5","num_nodes":"13","size_leaf_vector":"1"}},{"base_weights":[-1.6972255E-3,-1.1007191E0,7.4594533E-1,-7.928985E-1,-1.338907E-1,1.062683E0,1.3933736E-1,1.3221058E-2,-9.495951E-2,1.0870268E-1,-1.6550355E-1,5.382475E-2,-6.123581E-2],"categories":[],"categories_nodes":[],"categories_segments":[],"categories_sizes":[],"default_left":[0,0,0,0,0,0,0,0,0,0,0,0,0],"id":7,"left_children":[1,3,5,7,-1,9,11,-1,-1,-1,-1,-1,-1],"loss_changes":[7.216695E2,2.5009583E1,1.0028238E2,2.2967216E1,0E0,2.4508392E1,5.4440964E1,0E0,0E0,0E0,0E0,0E0,0E0],"parents":[2147483647,0,0,1,1,2,2,3,3,5,5,6,6],"right_children":[2,4,6,8,-1,10,12,-1,-1,-1,-1,-1,-1],"split_conditions":[8.4E0,1.1E1,3E0,7E0,-1.338907E-1,2.12E1,2E-1,1.3221058E-2,-9.495951E-2,1.0870268E-1,-1.6550355E-1,5.382475E-2,-6.123581E-2],"split_indices":[1,0,0,2,0,3,4,0,0,0,0,0,0],"split_type":[0,0,0,0,0,0,0,0,0,0,0,0,0],"sum_hessian":[8.7629083E2,3.5458487E2,5.21706E2,1.565707E2,1.9801418E2,3.4224988E2,1.7945609E2,2.2701473E1,1.3386922E2,3.398061E2,2.4437807E0,1.17424934E2,6.203116E1],"tree_param":{"num_deleted":"0","num_feature":"5","num_nodes":"13","size_leaf_vector":"1"}},{"base_weights":[-2.2226425E-3,-1.0754328E0,6.795955E-1,-7.88503E-1,-1.2949675E-1,-3.368266E-2,9.5246583E-1,-2.9095978E-2,-1.0283823E-1,2.105487E-2,-1.497362E-1,9.8865025E-2,-1.665104E-1],"categories":[],"categories_nodes":[],"categories_segments":[],"categories_sizes":[],"default_left":[0,0,0,0,0,0,0,0,0,0,0,0,0],"id":8,"left_children":[1,3,5,7,-1,9,11,-1,-1,-1,-1,-1,-1],"loss_changes":[6.1666516E2,1.9602264E1,1.0033507E2,1.6943764E1,0E0,5.163584E1,3.6954315E1,0E0,0E0,0E0,0E0,0E0,0E0],"parents":[2147483647,0,0,1,1,2,2,3,3,5,5,6,6],"right_children":[2,4,6,8,-1,10,12,-1,-1,-1,-1,-1,-1],"split_conditions":[8E0,1.1E1,1.36E1,1.25E0,-1.2949675E-1,7E0,2.12E1,-2.9095978E-2,-1.0283823E-1,2.105487E-2,-1.497362E-1,9.8865025E-2,-1.665104E-1],"split_indices":[1,0,1,3,0,0,3,0,0,0,0,0,0],"split_type":[0,0,0,0,0,0,0,0,0,0,0,0,0],"sum_hessian":[8.4074603E2,3.264006E2,5.1434546E2,1.4347365E2,1.8292694E2,1.4256354E2,3.717819E2,4.7391003E1,9.608264E1,1.2291067E2,1.9652878E1,3.6732642E2,4.455498E0],"tree_param":{"num_deleted":"0","num_feature":"5","num_nodes":"13","size_leaf_vector":"1"}},{"base_weights":[-3.0734295E-3,-1.0279117E0,6.340845E-1,-7.378987E-1,-1.2582181E-1,9.6414495E-1,4.739103E-2,6.2687725E-2,-8.271388E-2,9.871687E-2,-1.3969567E-1,-3.1123359E-2,7.994824E-2],"categories":[],"categories_nodes":[],"categories_segments":[],"categories_sizes":[],"default_left":[0,0,0,0,0,0,0,0,0,0,0,0,0],"id":9,"left_children":[1,3,5,7,-1,9,11,-1,-1,-1,-1,-1,-1],"loss_changes":[5.272901E2,1.9748535E1,9.637714E1,1.7501648E1,0E0,1.869928E1,4.8885826E1,0E0,0E0,0E0,0E0,0E0,0E0],"parents":[2147483647,0,0,1,1,2,2,3,3,5,5,6,6],"right_children":[2,4,6,8,-1,10,12,-1,-1,-1,-1,-1,-1],"split_conditions":[8E0,1.1E1,3E0,-5.8E0,-1.2582181E-1,2.12E1,1.72E1,6.2687725E-2,-8.271388E-2,9.871687E-2,-1.3969567E-1,-3.1123359E-2,7.994824E-2],"split_indices":[1,0,0,4,0,3,1,0,0,0,0,0,0],"split_type":[0,0,0,0,0,0,0,0,0,0,0,0,0],"sum_hessian":[8.055106E2,3.0857278E2,4.9693787E2,1.3844289E2,1.7012988E2,3.176128E2,1.7932509E2,8.127157E0,1.3031573E2,3.1512186E2,2.490935E0,1.2182205E2,5.7503033E1],"tree_param":{"num_deleted":"0","num_feature":"5","num_nodes":"13","size_leaf_vector":"1"}},{"base_weights":[-3.2793116E-3,7.526213E-1,-7.826399E-1,1.0806092E0,3.5927162E-1,-9.735656E-1,3.011997E-1,1.108961E-1,-1.2964527E-1,-1.4702116E-1,4.925232E-2,-6.85676E-2,-1.238926E-1,9.194296E-2,-4.9806308E-2],"categories":[],"categories_nodes":[],"categories_segments":[],"categories_sizes":[],"default_left":[0,0,0,0,0,0,0,0,0,0,0,0,0,0,0],"id":10,"left_children":[1,3,5,7,9,11,13,-1,-1,-1,-1,-1,-1,-1,-1],"loss_changes":[4.552363E2,5.02209E1,7.902376E1,1.5820511E1,4.45716E1,2.3880676E1,2.8992374E1,0E0,0E0,0E0,0E0,0E0,0E0,0E0,0E0],"parents":[2147483647,0,0,1,1,2,2,3,3,4,4,5,5,6,6],"right_children":[2,4,6,8,10,12,14,-1,-1,-1,-1,-1,-1,-1,-1],"split_conditions":[4E0,3.2E0,1.36E1,2.12E1,5.8E0,1.1E1,2E-1,1.108961E-1,-1.2964527E-1,-1.4702116E-1,4.925232E-2,-6.85676E-2,-1.238926E-1,9.194296E-2,-4.9806308E-2],"split_indices":[0,2,1,3,3,0,4,0,0,0,0,0,0,0,0],"split_type":[0,0,0,0,0,0,0,0,0,0,0,0,0,0,0],"sum_hessian":[7.707407E2,3.9127655E2,3.7946417E2,2.1241267E2,1.7886388E2,3.2271713E2,5.6747047E1,2.1043622E2,1.9764544E0,1.1462034E1,1.6740184E2,1.5650682E2,1.6621033E2,3.191243E1,2.4834618E1],"tree_param":{"num_deleted":"0","num_feature":"5","num_nodes":"15","size_leaf_vector":"1"}},{"base_weights":[-3.6503463E-3,-6.5266925E-1,8.1382054E-1,-9.760352E-2,-1.0748564E0,8.494077E-1,-1.4618048E-1,1.0506814E-2,-1.17927246E-1,-7.9882935E-2,-1.2103305E-1,4.5477033E-2,1.0211426E-1],"categories":[],"categories_nodes":[],"categories_segments":[],"categories_sizes":[],"default_left":[0,0,0,0,0,0,0,0,0,0,0,0,0],"id":11,"left_children":[1,3,5,7,9,11,-1,-1,-1,-1,-1,-1,-1],"loss_changes":[3.9169617E2,9.633554E1,2.770195E1,3.9340824E1,7.7702637E0,2.1381577E1,0E0,0E0,0E0,0E0,0E0,0E0,0E0],"parents":[2147483647,0,0,1,1,2,2,3,3,4,4,5,5],"right_children":[2,4,6,8,10,12,-1,-1,-1,-1,-1,-1,-1],"split_conditions":[1.36E1,7E0,2.12E1,1E0,1.1E1,1.72E1,-1.4618048E-1,1.0506814E-2,-1.17927246E-1,-7.9882935E-2,-1.2103305E-1,4.5477033E-2,1.0211426E-1],"split_indices":[1,0,3,4,0,1,0,0,0,0,0,0,0],"split_type":[0,0,0,0,0,0,0,0,0,0,0,0,0],"sum_hessian":[7.362764E2,4.105377E2,3.2573874E2,1.7789001E2,2.3264767E2,3.213402E2,4.3985076E0,1.5057898E2,2.731103E1,7.886255E1,1.5378513E2,9.854269E1,2.2279753E2],"tree_param":{"num_deleted":"0","num_feature":"5","num_nodes":"13","size_leaf_vector":"1"}},{"base_weights":[-4.141844E-3,6.769444E-1,-7.1591616E-1,1.007159E0,3.123207E-1,-9.915884E-1,-5.4805398E-2,1.03540055E-1,-1.151266E-1,-1.4101213E-1,4.33373E-2,3.2072984E-2,-1.0472921E-1,1.6306369E-1,-2.7372306E-2],"categories":[],"categories_nodes":[],"categories_segments":[],"categories_sizes":[],"default_left":[0,0,0,0,0,0,0,0,0,0,0,0,0,0,0],"id":12,"left_children":[1,3,5,7,9,11,13,-1,-1,-1,-1,-1,-1,-1,-1],"loss_changes":[3.4284076E2,4.3199295E1,6.2969696E1,1.2725021E1,3.6724358E1,1.8171722E1,3.8384975E1,0E0,0E0,0E0,0E0,0E0,0E0,0E0,0E0],"parents":[2147483647,0,0,1,1,2,2,3,3,4,4,5,5,6,6],"right_children":[2,4,6,8,10,12,14,-1,-1,-1,-1,-1,-1,-1,-1],"split_conditions":[4E0,3.2E0,8.8E0,2.12E1,5.8E0,-5.8E0,9E0,1.03540055E-1,-1.151266E-1,-1.4101213E-1,4.33373E-2,3.2072984E-2,-1.0472921E-1,1.6306369E-1,-2.7372306E-2],"split_indices":[0,2,1,3,3,4,1,0,0,0,0,0,0,0,0],"split_type":[0,0,0,0,0,0,0,0,0,0,0,0,0,0,0],"sum_hessian":[7.052097E2,3.6039862E2,3.4481113E2,1.8819821E2,1.7220041E2,2.4298889E2,1.0182223E2,1.8628116E2,1.9170603E0,1.0608215E1,1.615922E2,9.700397E0,2.332885E2,1.0963771E1,9.085845E1],"tree_param":{"num_deleted":"0","num_feature":"5","num_nodes":"15","size_leaf_vector":"1"}},{"base_weights":[-4.286548E-3,-5.9120566E-1,7.381092E-1,-9.456143E-2,-1.0113474E0,7.7269286E-1,-1.3415936E-1,2.0908479E-2,-7.227745E-2,-7.054355E-2,-1.1692013E-1,9.467582E-2,3.7846427E-2],"categories":[],"categories_nodes":[],"categories_segments":[],"categories_sizes":[],"default_left":[0,0,0,0,0,0,0,0,0,0,0,0,0],"id":13,"left_children":[1,3,5,7,9,11,-1,-1,-1,-1,-1,-1,-1],"loss_changes":[2.9475186E2,7.873358E1,2.2518372E1,3.3386986E1,9.0529175E0,1.9845428E1,0E0,0E0,0E0,0E0,0E0,0E0,0E0],"parents":[2147483647,0,0,1,1,2,2,3,3,4,4,5,5],"right_children":[2,4,6,8,10,12,-1,-1,-1,-1,-1,-1,-1],"split_conditions":[1.36E1,7E0,2.12E1,7.8E0,1.1E1,3E0,-1.3415936E-1,2.0908479E-2,-7.227745E-2,-7.054355E-2,-1.1692013E-1,9.467582E-2,3.7846427E-2],"split_indices":[1,0,3,2,0,0,0,0,0,0,0,0,0],"split_type":[0,0,0,0,0,0,0,0,0,0,0,0,0],"sum_hessian":[6.744597E2,3.76786E2,2.9767374E2,1.7323372E2,2.0355228E2,2.9342282E2,4.250908E0,1.1723531E2,5.599841E1,7.114537E1,1.324069E2,2.0257675E2,9.084607E1],"tree_param":{"num_deleted":"0","num_feature":"5","num_nodes":"13","size_leaf_vector":"1"}},{"base_weights":[-4.685333E-3,6.05613E-1,-6.4715624E-1,9.420939E-1,2.6249948E-1,-9.250058E-1,-5.7963837E-2,9.70143E-2,-1.0413458E-1,-1.360101E-1,3.7107985E-2,3.7215207E-2,-9.8736145E-2,1.4409311E-1,-2.5870008E-2],"categories":[],"categories_nodes":[],"categories_segments":[],"categories_sizes":[],"default_left":[0,0,0,0,0,0,0,0,0,0,0,0,0,0,0],"id":14,"left_children":[1,3,5,7,9,11,13,-1,-1,-1,-1,-1,-1,-1,-1],"loss_changes":[2.538185E2,3.808046E1,5.1571457E1,1.0313583E1,2.9708294E1,1.7695267E1,3.109984E1,0E0,0E0,0E0,0E0,0E0,0E0,0E0,0E0],"parents":[2147483647,0,0,1,1,2,2,3,3,4,4,5,5,6,6],"right_children":[2,4,6,8,10,12,14,-1,-1,-1,-1,-1,-1,-1,-1],"split_conditions":[4E0,3.2E0,8.8E0,2.12E1,5.8E0,-5.8E0,9E0,9.70143E-2,-1.0413458E-1,-1.360101E-1,3.7107985E-2,3.7215207E-2,-9.8736145E-2,1.4409311E-1,-2.5870008E-2],"split_indices":[0,2,1,3,3,4,1,0,0,0,0,0,0,0,0],"split_type":[0,0,0,0,0,0,0,0,0,0,0,0,0,0,0],"sum_hessian":[6.4533325E2,3.3098248E2,3.1435074E2,1.66225E2,1.6475748E2,2.1322758E2,1.0112317E2,1.6441086E2,1.8141584E0,9.61073E0,1.5514674E2,9.552048E0,2.0367554E2,1.1213544E1,8.990962E1],"tree_param":{"num_deleted":"0","num_feature":"5","num_nodes":"15","size_leaf_vector":"1"}},{"base_weights":[-4.769574E-3,-5.3693044E-1,6.697385E-1,-9.152075E-2,-9.5409095E-1,2.753819E-1,8.652269E-1,8.937851E-3,-1.10001266E-1,-6.369655E-2,-1.1532166E-1,6.378873E-2,-7.881011E-2,8.960325E-2,-1.0941098E-1],"categories":[],"categories_nodes":[],"categories_segments":[],"categories_sizes":[],"default_left":[0,0,0,0,0,0,0,0,0,0,0,0,0,0,0],"id":15,"left_children":[1,3,5,7,9,11,13,-1,-1,-1,-1,-1,-1,-1,-1],"loss_changes":[2.2253807E2,6.430439E1,2.0840462E1,3.0876413E1,1.0559036E1,3.6003345E1,1.1985947E1,0E0,0E0,0E0,0E0,0E0,0E0,0E0,0E0],"parents":[2147483647,0,0,1,1,2,2,3,3,4,4,5,5,6,6],"right_children":[2,4,6,8,10,12,14,-1,-1,-1,-1,-1,-1,-1,-1],"split_conditions":[1.36E1,7E0,1.72E1,1E0,-8E-1,1.44E1,2.12E1,8.937851E-3,-1.10001266E-1,-6.369655E-2,-1.1532166E-1,6.378873E-2,-7.881011E-2,8.960325E-2,-1.0941098E-1],"split_indices":[1,0,1,4,4,3,3,0,0,0,0,0,0,0,0],"split_type":[0,0,0,0,0,0,0,0,0,0,0,0,0,0,0],"sum_hessian":[6.1797327E2,3.455509E2,2.724224E2,1.6770677E2,1.7784412E2,9.108546E1,1.8133693E2,1.4297234E2,2.4734432E1,7.021663E1,1.07627495E2,6.8228775E1,2.2856688E1,1.7906429E2,2.2726467E0],"tree_param":{"num_deleted":"0","num_feature":"5","num_nodes":"15","size_leaf_vector":"1"}},{"base_weights":[-5.1362496E-3,4.7818202E-1,-6.759847E-1,8.698192E-1,1.6131236E-1,-8.1177026E-1,9.24762E-1,8.964944E-2,-9.6024685E-2,-1.2505133E-1,2.6865283E-2,-3.1321038E-2,-1.2430785E-1,4.5646016E-2,1.2207594E-1],"categories":[],"categories_nodes":[],"categories_segments":[],"categories_sizes":[],"default_left":[0,0,0,0,0,0,0,0,0,0,0,0,0,0,0],"id":16,"left_children":[1,3,5,7,9,11,13,-1,-1,-1,-1,-1,-1,-1,-1],"loss_changes":[1.9311095E2,4.2821E1,5.4961334E1,8.408028E0,2.9521963E1,4.9162277E1,2.2108612E0,0E0,0E0,0E0,0E0,0E0,0E0,0E0,0E0],"parents":[2147483647,0,0,1,1,2,2,3,3,4,4,5,5,6,6],"right_children":[2,4,6,8,10,12,14,-1,-1,-1,-1,-1,-1,-1,-1],"split_conditions":[5E0,3.2E0,1.92E1,2.12E1,3.8E0,-6.666667E-1,2E0,8.964944E-2,-9.6024685E-2,-1.2505133E-1,2.6865283E-2,-3.1321038E-2,-1.2430785E-1,4.5646016E-2,1.2207594E-1],"split_indices":[0,2,1,3,2,4,2,0,0,0,0,0,0,0,0],"split_type":[0,0,0,0,0,0,0,0,0,0,0,0,0,0,0],"sum_hessian":[5.935956E2,3.4518875E2,2.4840688E2,1.5360034E2,1.915884E2,2.2943741E2,1.8969463E1,1.5189642E2,1.7039224E0,1.2784657E1,1.7880374E2,1.0722247E2,1.22214935E2,8.330989E0,1.06384735E1],"tree_param":{"num_deleted":"0","num_feature":"5","num_nodes":"15","size_leaf_vector":"1"}},{"base_weights":[-5.1582595E-3,-8.560287E-1,3.405473E-1,-5.562097E-1,-1.1022132E-1,8.7100506E-1,3.412904E-2,2.5729453E-2,-1.1547568E-1,1.1404697E-1,7.852851E-2,-2.1750817E-2,6.692174E-2],"categories":[],"categories_nodes":[],"categories_segments":[],"categories_sizes":[],"default_left":[0,0,0,0,0,0,0,0,0,0,0,0,0],"id":17,"left_children":[1,3,5,7,-1,9,11,-1,-1,-1,-1,-1,-1],"loss_changes":[1.6859938E2,1.160965E1,6.622031E1,3.763564E1,0E0,2.5505981E0,4.1599472E1,0E0,0E0,0E0,0E0,0E0,0E0],"parents":[2147483647,0,0,1,1,2,2,3,3,5,5,6,6],"right_children":[2,4,6,8,-1,10,12,-1,-1,-1,-1,-1,-1],"split_conditions":[6E0,1.1E1,2E0,1.25E0,-1.1022132E-1,9.7E0,1.75E1,2.5729453E-2,-1.1547568E-1,1.1404697E-1,7.852851E-2,-2.1750817E-2,6.692174E-2],"split_indices":[1,0,0,3,0,3,1,0,0,0,0,0,0],"split_type":[0,0,0,0,0,0,0,0,0,0,0,0,0],"sum_hessian":[5.711826E2,1.645952E2,4.0658737E2,7.5683E1,8.89122E1,1.4819543E2,2.5839194E2,3.2322544E1,4.336046E1,3.279578E1,1.1539966E2,1.8553575E2,7.2856186E1],"tree_param":{"num_deleted":"0","num_feature":"5","num_nodes":"13","size_leaf_vector":"1"}},{"base_weights":[-5.072995E-3,-4.629282E-1,5.785863E-1,-1.9198479E-1,-1.1024549E-1,7.710356E-1,2.1783786E-1,-6.7163387E-4,-1.0619648E-1,8.014514E-2,-9.932666E-2,7.123383E-2,-6.728606E-2],"categories":[],"categories_nodes":[],"categories_segments":[],"categories_sizes":[],"default_left":[0,0,0,0,0,0,0,0,0,0,0,0,0],"id":18,"left_children":[1,3,5,7,-1,9,11,-1,-1,-1,-1,-1,-1],"loss_changes":[1.4749074E2,5.3380333E1,1.667691E1,3.5204014E1,0E0,9.265633E0,3.8270706E1,0E0,0E0,0E0,0E0,0E0,0E0],"parents":[2147483647,0,0,1,1,2,2,3,3,5,5,6,6],"right_children":[2,4,6,8,-1,10,12,-1,-1,-1,-1,-1,-1],"split_conditions":[1.36E1,1.1E1,3E0,1E0,-1.1024549E-1,2.12E1,2E-1,-6.7163387E-4,-1.0619648E-1,8.014514E-2,-9.932666E-2,7.123383E-2,-6.728606E-2],"split_indices":[1,0,0,4,0,3,4,0,0,0,0,0,0],"split_type":[0,0,0,0,0,0,0,0,0,0,0,0,0],"sum_hessian":[5.4991907E2,3.0828766E2,2.4163136E2,2.1745877E2,9.08289E1,1.5682971E2,8.480165E1,1.8011064E2,3.734813E1,1.5470834E2,2.1213682E0,5.4657177E1,3.014448E1],"tree_param":{"num_deleted":"0","num_feature":"5","num_nodes":"13","size_leaf_vector":"1"}},{"base_weights":[-5.322562E-3,-8.05749E-1,2.9948938E-1,-5.456563E-1,-1.1150521E-1,8.1148005E-1,2.2923458E-2,2.5085902E-2,-1.07195996E-1,6.396298E-2,9.6128516E-2,-1.6530085E-2,7.45168E-2],"categories":[],"categories_nodes":[],"categories_segments":[],"categories_sizes":[],"default_left":[0,0,0,0,0,0,0,0,0,0,0,0,0],"id":19,"left_children":[1,3,5,7,-1,9,11,-1,-1,-1,-1,-1,-1],"loss_changes":[1.2990485E2,1.120443E1,5.4583893E1,3.4528072E1,0E0,2.8661118E0,3.4299263E1,0E0,0E0,0E0,0E0,0E0,0E0],"parents":[2147483647,0,0,1,1,2,2,3,3,5,5,6,6],"right_children":[2,4,6,8,-1,10,12,-1,-1,-1,-1,-1,-1],"split_conditions":[6E0,1.25E0,2E0,1.1E1,-1.1150521E-1,2E-1,1.92E1,2.5085902E-2,-1.07195996E-1,6.396298E-2,9.6128516E-2,-1.6530085E-2,7.45168E-2],"split_indices":[1,3,0,0,0,4,1,0,0,0,0,0,0],"split_type":[0,0,0,0,0,0,0,0,0,0,0,0,0],"sum_hessian":[5.304525E2,1.4583942E2,3.846131E2,8.0723366E1,6.511605E1,1.342148E2,2.503983E2,3.232524E1,4.839812E1,6.496238E1,6.925241E1,1.9924432E2,5.1153973E1],"tree_param":{"num_deleted":"0","num_feature":"5","num_nodes":"13","size_leaf_vector":"1"}},{"base_weights":[-5.1681953E-3,-7.7873945E-1,2.7799863E-1,-4.8353264E-1,-1.0672084E-1,7.755198E-1,2.1443974E-2,2.233736E-2,-1.1139237E-1,6.0142018E-2,9.320049E-2,-1.485689E-2,7.088117E-2],"categories":[],"categories_nodes":[],"categories_segments":[],"categories_sizes":[],"default_left":[0,0,0,0,0,0,0,0,0,0,0,0,0],"id":20,"left_children":[1,3,5,7,-1,9,11,-1,-1,-1,-1,-1,-1],"loss_changes":[1.1254846E2,1.1208405E1,4.7993935E1,3.1386164E1,0E0,2.9251328E0,2.9226484E1,0E0,0E0,0E0,0E0,0E0,0E0],"parents":[2147483647,0,0,1,1,2,2,3,3,5,5,6,6],"right_children":[2,4,6,8,-1,10,12,-1,-1,-1,-1,-1,-1],"split_conditions":[6E0,1.1E1,2E0,1.25E0,-1.0672084E-1,2E-1,1.92E1,2.233736E-2,-1.1139237E-1,6.0142018E-2,9.320049E-2,-1.485689E-2,7.088117E-2],"split_indices":[1,0,0,3,0,4,1,0,0,0,0,0,0],"split_type":[0,0,0,0,0,0,0,0,0,0,0,0,0],"sum_hessian":[5.1181494E2,1.3667856E2,3.7513638E2,6.887304E1,6.780552E1,1.2694216E2,2.4819423E2,3.277055E1,3.6102493E1,6.2381763E1,6.45604E1,1.9960739E2,4.858684E1],"tree_param":{"num_deleted":"0","num_feature":"5","num_nodes":"13","size_leaf_vector":"1"}},{"base_weights":[-5.041874E-3,-7.520957E-1,2.5774416E-1,-4.555314E-1,-1.0575896E-1,7.4029166E-1,2.0038601E-2,1.9921025E-2,-1.09729566E-1,5.6461968E-2,9.032479E-2,-2.7961785E-3,2.1392827E-1],"categories":[],"categories_nodes":[],"categories_segments":[],"categories_sizes":[],"default_left":[0,0,0,0,0,0,0,0,0,0,0,0,0],"id":21,"left_children":[1,3,5,7,-1,9,11,-1,-1,-1,-1,-1,-1],"loss_changes":[9.7479515E1,1.122467E1,4.2121315E1,2.8506144E1,0E0,2.9598007E0,2.5199865E1,0E0,0E0,0E0,0E0,0E0,0E0],"parents":[2147483647,0,0,1,1,2,2,3,3,5,5,6,6],"right_children":[2,4,6,8,-1,10,12,-1,-1,-1,-1,-1,-1],"split_conditions":[6E0,1.1E1,2E0,1.25E0,-1.0575896E-1,2E-1,1.2E1,1.9921025E-2,-1.09729566E-1,5.6461968E-2,9.032479E-2,-2.7961785E-3,2.1392827E-1],"split_indices":[1,0,0,3,0,4,2,0,0,0,0,0,0],"split_type":[0,0,0,0,0,0,0,0,0,0,0,0,0],"sum_hessian":[4.9455823E2,1.282121E2,3.6634613E2,6.6320885E1,6.1891216E1,1.2020766E2,2.4613849E2,3.316987E1,3.3151016E1,5.999548E1,6.0212173E1,2.4165193E2,4.486554E0],"tree_param":{"num_deleted":"0","num_feature":"5","num_nodes":"13","size_leaf_vector":"1"}},{"base_weights":[-4.7900956E-3,-3.8434303E-1,4.7829035E-1,-1.62936E-1,-1.0668148E-1,5.0903213E-1,-1.6275734E-1,5.406126E-4,-9.880776E-2,3.0209525E-2,7.972809E-2],"categories":[],"categories_nodes":[],"categories_segments":[],"categories_sizes":[],"default_left":[0,0,0,0,0,0,0,0,0,0,0],"id":22,"left_children":[1,3,5,7,-1,9,-1,-1,-1,-1,-1],"loss_changes":[8.853499E1,4.0684574E1,1.4582764E1,2.8528936E1,0E0,1.2295364E1,0E0,0E0,0E0,0E0,0E0],"parents":[2147483647,0,0,1,1,2,2,3,3,5,5],"right_children":[2,4,6,8,-1,10,-1,-1,-1,-1,-1],"split_conditions":[1.36E1,1.1E1,1.5E1,1E0,-1.0668148E-1,1.92E1,-1.6275734E-1,5.406126E-4,-9.880776E-2,3.0209525E-2,7.972809E-2],"split_indices":[1,0,0,4,0,1,0,0,0,0,0],"split_type":[0,0,0,0,0,0,0,0,0,0,0],"sum_hessian":[4.8085953E2,2.6939902E2,2.1146053E2,2.0434447E2,6.505454E1,2.0916536E2,2.2951572E0,1.7054416E2,3.3800297E1,1.2294782E2,8.6217545E1],"tree_param":{"num_deleted":"0","num_feature":"5","num_nodes":"11","size_leaf_vector":"1"}},{"base_weights":[-5.29293E-3,3.1841037E-1,-5.0814956E-1,3.8760674E-1,-1.193481E-1,-6.738196E-2,-8.934528E-1,6.958961E-2,1.8021857E-2,-5.806582E-2,5.745185E-2,-1.2127707E-1,7.519392E-2],"categories":[],"categories_nodes":[],"categories_segments":[],"categories_sizes":[],"default_left":[0,0,0,0,0,0,0,0,0,0,0,0,0],"id":23,"left_children":[1,3,5,7,-1,9,11,-1,-1,-1,-1,-1,-1],"loss_changes":[7.627681E1,3.028828E1,3.110548E1,1.7352695E1,0E0,2.8891214E1,5.231481E1,0E0,0E0,0E0,0E0,0E0,0E0],"parents":[2147483647,0,0,1,1,2,2,3,3,5,5,6,6],"right_children":[2,4,6,8,-1,10,12,-1,-1,-1,-1,-1,-1],"split_conditions":[5E0,9.6E0,-6.666667E-1,3.2E0,-1.193481E-1,-1.8E0,1.92E1,6.958961E-2,1.8021857E-2,-5.806582E-2,5.745185E-2,-1.2127707E-1,7.519392E-2],"split_indices":[0,2,4,2,0,4,1,0,0,0,0,0,0],"split_type":[0,0,0,0,0,0,0,0,0,0,0,0,0],"sum_hessian":[4.6660486E2,2.840929E2,1.8251198E2,2.7237064E2,1.1722258E1,8.567685E1,9.683514E1,1.08591E2,1.6377962E2,4.7661324E1,3.8015526E1,8.131703E1,1.5518102E1],"tree_param":{"num_deleted":"0","num_feature":"5","num_nodes":"13","size_leaf_vector":"1"}},{"base_weights":[-5.768274E-3,-6.812573E-1,2.0926191E-1,-3.9454344E-1,-1.06682025E-1,6.6991603E-1,-7.6047983E-4,-9.1156766E-2,7.3876046E-2,9.9187054E-2,5.489875E-2,-4.817885E-3,1.9588368E-1],"categories":[],"categories_nodes":[],"categories_segments":[],"categories_sizes":[],"default_left":[0,0,0,0,0,0,0,0,0,0,0,0,0],"id":24,"left_children":[1,3,5,7,-1,9,11,-1,-1,-1,-1,-1,-1],"loss_changes":[6.5842545E1,1.167897E1,3.3268787E1,3.838577E1,0E0,3.6479492E0,2.2133678E1,0E0,0E0,0E0,0E0,0E0,0E0],"parents":[2147483647,0,0,1,1,2,2,3,3,5,5,6,6],"right_children":[2,4,6,8,-1,10,12,-1,-1,-1,-1,-1,-1],"split_conditions":[6E0,1.25E0,2E0,6E-1,-1.06682025E-1,9.7E0,1.2E1,-9.1156766E-2,7.3876046E-2,9.9187054E-2,5.489875E-2,-4.817885E-3,1.9588368E-1],"split_indices":[1,3,0,3,0,3,2,0,0,0,0,0,0],"split_type":[0,0,0,0,0,0,0,0,0,0,0,0,0],"sum_hessian":[4.5132184E2,1.0845537E2,3.4286646E2,6.3361515E1,4.5093853E1,1.06682945E2,2.3618352E2,4.364562E1,1.9715897E1,2.7163082E1,7.951986E1,2.3155574E2,4.627776E0],"tree_param":{"num_deleted":"0","num_feature":"5","num_nodes":"13","size_leaf_vector":"1"}},{"base_weights":[-5.3005344E-3,-3.323353E-1,4.0954927E-1,-1.3342431E-1,-1.04941204E-1,4.5772687E-1,-9.748302E-1,-6.375788E-2,1.126871E-2,1.801732E-2,6.4674295E-2,-1.3620576E-1,1.6261404E-2],"categories":[],"categories_nodes":[],"categories_segments":[],"categories_sizes":[],"default_left":[0,0,0,0,0,0,0,0,0,0,0,0,0],"id":25,"left_children":[1,3,5,7,-1,9,11,-1,-1,-1,-1,-1,-1],"loss_changes":[6.0142525E1,3.5215744E1,1.34799E1,2.4291256E1,0E0,9.8264885E0,3.256875E0,0E0,0E0,0E0,0E0,0E0,0E0],"parents":[2147483647,0,0,1,1,2,2,3,3,5,5,6,6],"right_children":[2,4,6,8,-1,10,12,-1,-1,-1,-1,-1,-1],"split_conditions":[1.36E1,1.1E1,2.1E1,-1.8E0,-1.04941204E-1,1.72E1,2.12E1,-6.375788E-2,1.126871E-2,1.801732E-2,6.4674295E-2,-1.3620576E-1,1.6261404E-2],"split_indices":[1,0,3,4,0,1,1,0,0,0,0,0,0],"split_type":[0,0,0,0,0,0,0,0,0,0,0,0,0],"sum_hessian":[4.4129587E2,2.4687671E2,1.9441916E2,1.941948E2,5.2681915E1,1.885276E2,5.891562E0,6.3180386E1,1.310144E2,7.7167305E1,1.113603E2,4.2479377E0,1.6436243E0],"tree_param":{"num_deleted":"0","num_feature":"5","num_nodes":"13","size_leaf_vector":"1"}},{"base_weights":[-5.5548525E-3,2.6799497E-1,-4.4857416E-1,3.289365E-1,-1.14873864E-1,1.8871586E-3,-8.760196E-1,6.312606E-2,1.4285356E-2,-4.9667317E-2,5.6813188E-2,-1.2015321E-1,6.8313815E-2],"categories":[],"categories_nodes":[],"categories_segments":[],"categories_sizes":[],"default_left":[0,0,0,0,0,0,0,0,0,0,0,0,0],"id":26,"left_children":[1,3,5,7,-1,9,11,-1,-1,-1,-1,-1,-1],"loss_changes":[5.2367878E1,2.3444948E1,3.1763828E1,1.4364082E1,0E0,2.323777E1,4.377938E1,0E0,0E0,0E0,0E0,0E0,0E0],"parents":[2147483647,0,0,1,1,2,2,3,3,5,5,6,6],"right_children":[2,4,6,8,-1,10,12,-1,-1,-1,-1,-1,-1],"split_conditions":[5E0,9.6E0,-6.666667E-1,3.2E0,-1.14873864E-1,-1.8E0,1.92E1,6.312606E-2,1.4285356E-2,-4.9667317E-2,5.6813188E-2,-1.2015321E-1,6.8313815E-2],"split_indices":[0,2,4,2,0,4,1,0,0,0,0,0,0],"split_type":[0,0,0,0,0,0,0,0,0,0,0,0,0],"sum_hessian":[4.301296E2,2.6617215E2,1.6395746E2,2.5593095E2,1.0241184E1,8.0314255E1,8.3643196E1,9.659814E1,1.5933282E2,4.2775055E1,3.75392E1,6.9386444E1,1.4256753E1],"tree_param":{"num_deleted":"0","num_feature":"5","num_nodes":"13","size_leaf_vector":"1"}},{"base_weights":[-6.0058357E-3,2.4723795E-1,-4.2273182E-1,3.034201E-1,-1.12303555E-1,1.0586631E-3,-8.5693777E-1,5.980525E-2,1.1718304E-2,-1.0555346E-1,2.6643155E-2,-1.1839496E-1,6.471928E-2],"categories":[],"categories_nodes":[],"categories_segments":[],"categories_sizes":[],"default_left":[0,0,0,0,0,0,0,0,0,0,0,0,0],"id":27,"left_children":[1,3,5,7,-1,9,11,-1,-1,-1,-1,-1,-1],"loss_changes":[4.4268215E1,2.0428368E1,2.917643E1,1.3726786E1,0E0,2.3059397E1,3.928687E1,0E0,0E0,0E0,0E0,0E0,0E0],"parents":[2147483647,0,0,1,1,2,2,3,3,5,5,6,6],"right_children":[2,4,6,8,-1,10,12,-1,-1,-1,-1,-1,-1],"split_conditions":[5E0,9.6E0,-6.666667E-1,2E0,-1.12303555E-1,6E-1,1.92E1,5.980525E-2,1.1718304E-2,-1.0555346E-1,2.6643155E-2,-1.1839496E-1,6.471928E-2],"split_indices":[0,2,4,0,0,3,1,0,0,0,0,0,0],"split_type":[0,0,0,0,0,0,0,0,0,0,0,0,0],"sum_hessian":[4.174813E2,2.5992932E2,1.5755197E2,2.504397E2,9.489628E0,8.023711E1,7.7314865E1,9.613698E1,1.5430272E2,1.5509165E1,6.472794E1,6.3682556E1,1.363231E1],"tree_param":{"num_deleted":"0","num_feature":"5","num_nodes":"13","size_leaf_vector":"1"}},{"base_weights":[-6.686842E-3,-1.8609212E-1,5.2818334E-1,-3.0205628E-2,-8.387098E-1,5.6926453E-1,-1.0084637E-1,4.625488E-3,-1.7470478E-1,1.767354E-2,-1.3086165E-1,6.1013486E-2,-8.672369E-2],"categories":[],"categories_nodes":[],"categories_segments":[],"categories_sizes":[],"default_left":[0,0,0,0,0,0,0,0,0,0,0,0,0],"id":28,"left_children":[1,3,5,7,9,11,-1,-1,-1,-1,-1,-1,-1],"loss_changes":[3.910765E1,3.1019466E1,7.036255E0,3.255145E1,2.8288208E1,6.420185E0,0E0,0E0,0E0,0E0,0E0,0E0,0E0],"parents":[2147483647,0,0,1,1,2,2,3,3,4,4,5,5],"right_children":[2,4,6,8,10,12,-1,-1,-1,-1,-1,-1,-1],"split_conditions":[1.72E1,1E0,2.12E1,1.66E1,3E0,4.25E0,-1.0084637E-1,4.625488E-3,-1.7470478E-1,1.767354E-2,-1.3086165E-1,6.1013486E-2,-8.672369E-2],"split_indices":[1,4,3,3,0,4,0,0,0,0,0,0,0],"split_type":[0,0,0,0,0,0,0,0,0,0,0,0,0],"sum_hessian":[4.055231E2,3.0415576E2,1.0136734E2,2.4635648E2,5.779927E1,9.9341064E1,2.0262713E0,2.3678423E2,9.572258E0,1.8482786E1,3.9316486E1,9.715222E1,2.1888447E0],"tree_param":{"num_deleted":"0","num_feature":"5","num_nodes":"13","size_leaf_vector":"1"}},{"base_weights":[-7.273546E-3,-5.702511E-1,1.518987E-1,-2.3013857E-1,-1.04694E-1,5.611503E-1,-1.581349E-2,-8.2993396E-2,8.090591E-2,9.295046E-2,4.111021E-2,-6.4423084E-3,1.8415578E-1],"categories":[],"categories_nodes":[],"categories_segments":[],"categories_sizes":[],"default_left":[0,0,0,0,0,0,0,0,0,0,0,0,0],"id":29,"left_children":[1,3,5,7,-1,9,11,-1,-1,-1,-1,-1,-1],"loss_changes":[3.5829178E1,1.4046774E1,2.140561E1,3.3527542E1,0E0,4.627861E0,2.0170795E1,0E0,0E0,0E0,0E0,0E0,0E0],"parents":[2147483647,0,0,1,1,2,2,3,3,5,5,6,6],"right_children":[2,4,6,8,-1,10,12,-1,-1,-1,-1,-1,-1],"split_conditions":[6E0,1.25E0,2E0,6E-1,-1.04694E-1,9.7E0,1.2E1,-8.2993396E-2,8.090591E-2,9.295046E-2,4.111021E-2,-6.4423084E-3,1.8415578E-1],"split_indices":[1,3,0,3,0,3,2,0,0,0,0,0,0],"split_type":[0,0,0,0,0,0,0,0,0,0,0,0,0],"sum_hessian":[3.978662E2,8.712621E1,3.1074E2,5.17126E1,3.5413612E1,8.964417E1,2.2109583E2,3.2915867E1,1.8796736E1,2.4443346E1,6.520083E1,2.1639775E2,4.698069E0],"tree_param":{"num_deleted":"0","num_feature":"5","num_nodes":"13","size_leaf_vector":"1"}},{"base_weights":[-6.6024447E-3,7.019065E-2,-1.11244224E-1,-8.730232E-2,5.1904815E-1,5.447425E-3,-7.673404E-2,5.594796E-2,-8.028485E-2],"categories":[],"categories_nodes":[],"categories_segments":[],"categories_sizes":[],"default_left":[0,0,0,0,0,0,0,0,0],"id":30,"left_children":[1,3,-1,5,7,-1,-1,-1,-1],"loss_changes":[3.335966E1,2.6017876E1,0E0,2.634644E1,5.5572147E0,0E0,0E0,0E0,0E0],"parents":[2147483647,0,0,1,1,3,3,4,4],"right_children":[2,4,-1,6,8,-1,-1,-1,-1],"split_conditions":[1.5E1,1.72E1,-1.11244224E-1,1E0,4.25E0,5.447425E-3,-7.673404E-2,5.594796E-2,-8.028485E-2],"split_indices":[0,1,0,4,4,0,0,0,0],"split_type":[0,0,0,0,0,0,0,0,0],"sum_hessian":[3.9091284E2,3.6640503E2,2.4507824E1,2.7183157E2,9.457346E1,2.2569734E2,4.6134228E1,9.232633E1,2.2471287E0],"tree_param":{"num_deleted":"0","num_feature":"5","num_nodes":"9","size_leaf_vector":"1"}},{"base_weights":[-6.648441E-3,-4.3617862E-1,1.7401332E-1,-1.8856065E-1,-1.0117302E-1,7.697112E-2,6.705382E-1,-3.3543076E-2,1.02959566E-1,2.1347173E-2,-5.0852347E-2,1.8372199E-2,8.4135346E-2],"categories":[],"categories_nodes":[],"categories_segments":[],"categories_sizes":[],"default_left":[0,0,0,0,0,0,0,0,0,0,0,0,0],"id":31,"left_children":[1,3,5,7,-1,9,11,-1,-1,-1,-1,-1,-1],"loss_changes":[2.9973639E1,1.6107025E1,1.3050777E1,1.4870451E1,0E0,1.8378157E1,3.5314865E0,0E0,0E0,0E0,0E0,0E0,0E0],"parents":[2147483647,0,0,1,1,2,2,3,3,5,5,6,6],"right_children":[2,4,6,8,-1,10,12,-1,-1,-1,-1,-1,-1],"split_conditions":[8.6E0,1.1E1,2.12E1,1.5333333E1,-1.0117302E-1,1E0,5E-1,-3.3543076E-2,1.02959566E-1,2.1347173E-2,-5.0852347E-2,1.8372199E-2,8.4135346E-2],"split_indices":[1,0,1,2,0,4,4,0,0,0,0,0,0],"split_type":[0,0,0,0,0,0,0,0,0,0,0,0,0],"sum_hessian":[3.8428177E2,1.1335696E2,2.709248E2,8.018626E1,3.3170696E1,2.2759753E2,4.3327267E1,7.2205284E1,7.9809732E0,1.8508316E2,4.2514378E1,1.1793071E1,3.1534197E1],"tree_param":{"num_deleted":"0","num_feature":"5","num_nodes":"13","size_leaf_vector":"1"}},{"base_weights":[-6.1857332E-3,6.062009E-2,-1.1066767E-1,-1.5802369E-1,3.2023838E-1,-3.3098947E-2,5.170389E-2,6.663827E-2,1.6214805E-2],"categories":[],"categories_nodes":[],"categories_segments":[],"categories_sizes":[],"default_left":[0,0,0,0,0,0,0,0,0],"id":32,"left_children":[1,3,-1,5,7,-1,-1,-1,-1],"loss_changes":[2.7879438E1,2.0349266E1,0E0,2.2914988E1,8.856024E0,0E0,0E0,0E0,0E0],"parents":[2147483647,0,0,1,1,3,3,4,4],"right_children":[2,4,-1,6,8,-1,-1,-1,-1],"split_conditions":[1.5E1,1.36E1,-1.1066767E-1,1.5E1,-1.3333334E0,-3.3098947E-2,5.170389E-2,6.663827E-2,1.6214805E-2],"split_indices":[0,1,0,3,4,0,0,0,0],"split_type":[0,0,0,0,0,0,0,0,0],"sum_hessian":[3.7730048E2,3.5659793E2,2.0702532E1,1.9378694E2,1.62811E2,1.5466745E2,3.9119488E1,5.0037327E1,1.12773674E2],"tree_param":{"num_deleted":"0","num_feature":"5","num_nodes":"9","size_leaf_vector":"1"}},{"base_weights":[-5.796956E-3,5.57848E-2,-1.0972214E-1,4.298512E-1,-8.4960304E-2,4.765622E-2,-1.0053269E-1,-1.3513307E-1,2.3177297E-4],"categories":[],"categories_nodes":[],"categories_segments":[],"categories_sizes":[],"default_left":[0,0,0,0,0,0,0,0,0],"id":33,"left_children":[1,3,-1,5,7,-1,-1,-1,-1],"loss_changes":[2.5035294E1,1.8604357E1,0E0,6.953987E0,2.8418823E1,0E0,0E0,0E0,0E0],"parents":[2147483647,0,0,1,1,3,3,4,4],"right_children":[2,4,-1,6,8,-1,-1,-1,-1],"split_conditions":[1.5E1,3.2E0,-1.0972214E-1,2.12E1,3.8E0,4.765622E-2,-1.0053269E-1,-1.3513307E-1,2.3177297E-4],"split_indices":[0,2,0,3,2,0,0,0,0],"split_type":[0,0,0,0,0,0,0,0,0],"sum_hessian":[3.7057278E2,3.5167877E2,1.8893988E1,9.558443E1,2.5609436E2,9.321837E1,2.3660526E0,1.5578166E1,2.4051619E2],"tree_param":{"num_deleted":"0","num_feature":"5","num_nodes":"9","size_leaf_vector":"1"}},{"base_weights":[-6.041371E-3,5.0388943E-2,-1.0874738E-1,-7.147914E-2,4.3265992E-1,4.77167E-3,-6.4830884E-2,4.757783E-2,-8.206504E-2],"categories":[],"categories_nodes":[],"categories_segments":[],"categories_sizes":[],"default_left":[0,0,0,0,0,0,0,0,0],"id":34,"left_children":[1,3,-1,5,7,-1,-1,-1,-1],"loss_changes":[2.2457449E1,1.6329382E1,0E0,1.8329521E1,4.968416E0,0E0,0E0,0E0,0E0],"parents":[2147483647,0,0,1,1,3,3,4,4],"right_children":[2,4,-1,6,8,-1,-1,-1,-1],"split_conditions":[1.5E1,1.72E1,-1.0874738E-1,1E0,4.25E0,4.77167E-3,-6.4830884E-2,4.757783E-2,-8.206504E-2],"split_indices":[0,1,0,4,4,0,0,0,0],"split_type":[0,0,0,0,0,0,0,0,0],"sum_hessian":[3.6610272E2,3.4885263E2,1.7250105E1,2.651392E2,8.371343E1,2.2049374E2,4.4645454E1,8.152893E1,2.1845033E0],"tree_param":{"num_deleted":"0","num_feature":"5","num_nodes":"9","size_leaf_vector":"1"}},{"base_weights":[-6.123231E-3,7.649311E-2,-6.790185E-1,-4.44274E-1,1.7975323E-1,2.1199234E-1,-1.0298721E-1,6.308754E-2,-1.0176206E-1,1.415384E-2,1.5363131E-1,1.3668224E-1,-6.7385875E-2],"categories":[],"categories_nodes":[],"categories_segments":[],"categories_sizes":[],"default_left":[0,0,0,0,0,0,0,0,0,0,0,0,0],"id":35,"left_children":[1,3,5,7,9,11,-1,-1,-1,-1,-1,-1,-1],"loss_changes":[2.0186474E1,1.7474638E1,1.2631151E1,3.3815292E1,1.3813843E1,1.3245466E1,0E0,0E0,0E0,0E0,0E0,0E0,0E0],"parents":[2147483647,0,0,1,1,2,2,3,3,4,4,5,5],"right_children":[2,4,6,8,10,12,-1,-1,-1,-1,-1,-1,-1],"split_conditions":[1.1E1,-2.75E0,5.6E0,-5.5E0,1.5333333E1,-3E0,-1.0298721E-1,6.308754E-2,-1.0176206E-1,1.415384E-2,1.5363131E-1,1.3668224E-1,-6.7385875E-2],"split_indices":[0,4,2,4,2,4,0,0,0,0,0,0,0],"split_type":[0,0,0,0,0,0,0,0,0,0,0,0,0],"sum_hessian":[3.6118304E2,3.2247653E2,3.8706512E1,5.2814922E1,2.6966162E2,1.1047245E1,2.7659267E1,1.833412E1,3.44808E1,2.6334735E2,6.3142633E0,4.559871E0,6.487374E0],"tree_param":{"num_deleted":"0","num_feature":"5","num_nodes":"13","size_leaf_vector":"1"}},{"base_weights":[-5.69524E-3,4.2167902E-1,-1.3465181E-1,-1.4533226E-1,5.1449484E-1,-7.8876756E-2,-1.0701405E-1,9.023421E-2,3.3908393E-2,-4.0020025E-3,-1.20171666E-1],"categories":[],"categories_nodes":[],"categories_segments":[],"categories_sizes":[],"default_left":[0,0,0,0,0,0,0,0,0,0,0],"id":36,"left_children":[1,3,5,-1,7,9,-1,-1,-1,-1,-1],"loss_changes":[1.9846622E1,1.5275055E1,1.4347906E1,0E0,5.155508E0,1.138815E1,0E0,0E0,0E0,0E0,0E0],"parents":[2147483647,0,0,1,1,2,2,4,4,5,5],"right_children":[2,4,6,-1,8,10,-1,-1,-1,-1,-1],"split_conditions":[2E0,1E0,1.5E1,-1.4533226E-1,9.7E0,1.98E1,-1.0701405E-1,9.023421E-2,3.3908393E-2,-4.0020025E-3,-1.20171666E-1],"split_indices":[0,0,0,0,3,3,0,0,0,0,0],"split_type":[0,0,0,0,0,0,0,0,0,0,0],"sum_hessian":[3.5807944E2,8.247606E1,2.756034E2,3.198761E0,7.92773E1,2.6111942E2,1.4483963E1,2.3398102E1,5.5879192E1,2.5338643E2,7.732989E0],"tree_param":{"num_deleted":"0","num_feature":"5","num_nodes":"11","size_leaf_vector":"1"}},{"base_weights":[-5.8871415E-3,2.6110584E-1,-1.8491593E-1,-6.785626E-2,6.178613E-1,7.035452E-2,-8.365138E-1,-1.0100839E-1,6.310267E-3,-1.118084E-1,6.696203E-2,5.2090924E-2,-2.7001956E-2,-1.0561728E-1,1.48051875E-2],"categories":[],"categories_nodes":[],"categories_segments":[],"categories_sizes":[],"default_left":[0,0,0,0,0,0,0,0,0,0,0,0,0,0,0],"id":37,"left_children":[1,3,5,7,9,11,13,-1,-1,-1,-1,-1,-1,-1,-1],"loss_changes":[1.7010887E1,1.680738E1,3.549031E1,9.345889E0,6.915329E0,2.3754015E1,1.314072E1,0E0,0E0,0E0,0E0,0E0,0E0,0E0,0E0],"parents":[2147483647,0,0,1,1,2,2,3,3,4,4,5,5,6,6],"right_children":[2,4,6,8,10,12,14,-1,-1,-1,-1,-1,-1,-1,-1],"split_conditions":[3E0,2E-1,2E-1,9.25E0,1E0,6.2E0,1.96E1,-1.0100839E-1,6.310267E-3,-1.118084E-1,6.696203E-2,5.2090924E-2,-2.7001956E-2,-1.0561728E-1,1.48051875E-2],"split_indices":[0,4,4,1,0,2,1,0,0,0,0,0,0,0,0],"split_type":[0,0,0,0,0,0,0,0,0,0,0,0,0,0,0],"sum_hessian":[3.5387045E2,1.4185614E2,2.1201433E2,7.422422E1,6.763192E1,1.5297626E2,5.9038063E1,8.238269E0,6.598595E1,1.3616571E0,6.627026E1,6.560467E1,8.73716E1,4.820965E1,1.0828418E1],"tree_param":{"num_deleted":"0","num_feature":"5","num_nodes":"15","size_leaf_vector":"1"}},{"base_weights":[-6.084125E-3,3.7151344E-2,-1.0622988E-1,3.8252676E-1,-6.863762E-2,-1.4233162E-1,4.6785932E-2,-3.2105201E-3,-1.1151039E-1],"categories":[],"categories_nodes":[],"categories_segments":[],"categories_sizes":[],"default_left":[0,0,0,0,0,0,0,0,0],"id":38,"left_children":[1,3,-1,5,7,-1,-1,-1,-1],"loss_changes":[1.585491E1,1.2217746E1,0E0,1.2745967E1,9.761908E0,0E0,0E0,0E0,0E0],"parents":[2147483647,0,0,1,1,3,3,4,4],"right_children":[2,4,-1,6,8,-1,-1,-1,-1],"split_conditions":[1.5E1,2E0,-1.0622988E-1,1E0,1.98E1,-1.4233162E-1,4.6785932E-2,-3.2105201E-3,-1.1151039E-1],"split_indices":[0,0,0,0,3,0,0,0,0],"split_type":[0,0,0,0,0,0,0,0,0],"sum_hessian":[3.4532913E2,3.3267606E2,1.2653055E1,7.7392456E1,2.552836E2,2.7845707E0,7.460789E1,2.4766812E2,7.6154814E0],"tree_param":{"num_deleted":"0","num_feature":"5","num_nodes":"9","size_leaf_vector":"1"}},{"base_weights":[-6.481473E-3,3.3231653E-2,-1.0508263E-1,-3.1986248E-2,5.759941E-1,7.4593993E-3,-5.6271363E-2,6.597282E-3,7.629477E-2],"categories":[],"categories_nodes":[],"categories_segments":[],"categories_sizes":[],"default_left":[0,0,0,0,0,0,0,0,0],"id":39,"left_children":[1,3,-1,5,7,-1,-1,-1,-1],"loss_changes":[1.4240273E1,1.1732715E1,0E0,1.6806772E1,3.339528E0,0E0,0E0,0E0,0E0],"parents":[2147483647,0,0,1,1,3,3,4,4],"right_children":[2,4,-1,6,8,-1,-1,-1,-1],"split_conditions":[1.5E1,2.12E1,-1.0508263E-1,1E0,5E-1,7.4593993E-3,-5.6271363E-2,6.597282E-3,7.629477E-2],"split_indices":[0,1,0,4,4,0,0,0,0],"split_type":[0,0,0,0,0,0,0,0,0],"sum_hessian":[3.415106E2,3.299325E2,1.1578109E1,2.9538083E2,3.455166E1,2.4669849E2,4.868234E1,9.630885E0,2.4920774E1],"tree_param":{"num_deleted":"0","num_feature":"5","num_nodes":"9","size_leaf_vector":"1"}},{"base_weights":[-6.0616815E-3,3.0376256E-2,-1.0388451E-1,-1.2872978E-1,2.3057692E-1,-6.184113E-2,1.2140175E-2,5.836555E-2,6.2923315E-3],"categories":[],"categories_nodes":[],"categories_segments":[],"categories_sizes":[],"default_left":[0,0,0,0,0,0,0,0,0],"id":40,"left_children":[1,3,-1,5,7,-1,-1,-1,-1],"loss_changes":[1.2812057E1,1.0509725E1,0E0,2.2607653E1,8.608635E0,0E0,0E0,0E0,0E0],"parents":[2147483647,0,0,1,1,3,3,4,4],"right_children":[2,4,-1,6,8,-1,-1,-1,-1],"split_conditions":[1.5E1,1.36E1,-1.0388451E-1,-1.8E0,-1.3333334E0,-6.184113E-2,1.2140175E-2,5.836555E-2,6.2923315E-3],"split_indices":[0,1,0,4,4,0,0,0,0],"split_type":[0,0,0,0,0,0,0,0,0],"sum_hessian":[3.386134E2,3.2801135E2,1.06020775E1,1.8296223E2,1.450491E2,6.136191E1,1.2160033E2,4.590076E1,9.914834E1],"tree_param":{"num_deleted":"0","num_feature":"5","num_nodes":"9","size_leaf_vector":"1"}},{"base_weights":[-5.8157267E-3,3.4953874E-1,-1.0650044E-1,-1.3856709E-1,4.3049306E-1,-2.262373E-1,1.9926739E-1,8.5112005E-2,2.3596246E-2,-1.4859596E-2,-1.5186656E-1,-1.7953645E-1,3.268847E-2],"categories":[],"categories_nodes":[],"categories_segments":[],"categories_sizes":[],"default_left":[0,0,0,0,0,0,0,0,0,0,0,0,0],"id":41,"left_children":[1,3,5,-1,7,9,11,-1,-1,-1,-1,-1,-1],"loss_changes":[1.2073433E1,1.1062532E1,9.670322E0,0E0,5.686263E0,1.8778732E1,1.9553844E1,0E0,0E0,0E0,0E0,0E0,0E0],"parents":[2147483647,0,0,1,1,2,2,4,4,5,5,6,6],"right_children":[2,4,6,-1,8,10,12,-1,-1,-1,-1,-1,-1],"split_conditions":[2E0,1E0,1.5E1,-1.3856709E-1,9.7E0,1.375E1,-2.75E0,8.5112005E-2,2.3596246E-2,-1.4859596E-2,-1.5186656E-1,-1.7953645E-1,3.268847E-2],"split_indices":[0,0,3,0,3,3,4,0,0,0,0,0,0],"split_type":[0,0,0,0,0,0,0,0,0,0,0,0,0],"sum_hessian":[3.3540646E2,7.350564E1,2.6190085E2,2.5580745E0,7.094756E1,1.8838895E2,7.351189E1,2.1368319E1,4.9579247E1,1.787648E2,9.624144E0,3.6346543E0,6.9877235E1],"tree_param":{"num_deleted":"0","num_feature":"5","num_nodes":"13","size_leaf_vector":"1"}},{"base_weights":[-6.096179E-3,5.3003643E-2,-5.885411E-1,-3.987995E-1,1.4338325E-1,2.4803701E-1,-1.0082779E-1,6.3622825E-2,-9.6531816E-2,1.0345312E-2,1.4352365E-1,1.23978555E-1,-5.637296E-2],"categories":[],"categories_nodes":[],"categories_segments":[],"categories_sizes":[],"default_left":[0,0,0,0,0,0,0,0,0,0,0,0,0],"id":42,"left_children":[1,3,5,7,9,11,-1,-1,-1,-1,-1,-1,-1],"loss_changes":[1.148917E1,1.2434624E1,1.104647E1,3.0397213E1,1.2918992E1,9.615033E0,0E0,0E0,0E0,0E0,0E0,0E0,0E0],"parents":[2147483647,0,0,1,1,2,2,3,3,4,4,5,5],"right_children":[2,4,6,8,10,12,-1,-1,-1,-1,-1,-1,-1],"split_conditions":[1.1E1,-2.75E0,5.6E0,-5.5E0,1.5333333E1,-3E0,-1.0082779E-1,6.3622825E-2,-9.6531816E-2,1.0345312E-2,1.4352365E-1,1.23978555E-1,-5.637296E-2],"split_indices":[0,4,2,4,2,4,0,0,0,0,0,0,0],"split_type":[0,0,0,0,0,0,0,0,0,0,0,0,0],"sum_hessian":[3.3186404E2,3.021176E2,2.9746428E1,4.97929E1,2.523247E2,1.0074997E1,1.967143E1,1.756983E1,3.2223072E1,2.4580708E2,6.517618E0,4.2974563E0,5.7775407E0],"tree_param":{"num_deleted":"0","num_feature":"5","num_nodes":"13","size_leaf_vector":"1"}},{"base_weights":[-5.563589E-3,-6.900596E-1,4.2718954E-2,4.799142E-2,-1.02887586E-1,1.6397781E0,6.215838E-3,-7.1669586E-2,2.6520917E-1,-1.0262948E-1,5.9443577E-3],"categories":[],"categories_nodes":[],"categories_segments":[],"categories_sizes":[],"default_left":[0,0,0,0,0,0,0,0,0,0,0],"id":43,"left_children":[1,3,5,-1,-1,7,9,-1,-1,-1,-1],"loss_changes":[1.09603405E1,9.155633E0,1.8055895E1,0E0,0E0,1.841072E1,1.676682E1,0E0,0E0,0E0,0E0],"parents":[2147483647,0,0,1,1,2,2,5,5,6,6],"right_children":[2,4,6,-1,-1,8,10,-1,-1,-1,-1],"split_conditions":[6E-1,1E0,6.666667E-1,4.799142E-2,-1.02887586E-1,1.525E1,2.4E0,-7.1669586E-2,2.6520917E-1,-1.0262948E-1,5.9443577E-3],"split_indices":[3,2,3,0,0,2,1,0,0,0,0],"split_type":[0,0,0,0,0,0,0,0,0,0,0],"sum_hessian":[3.29745E2,2.0850979E1,3.0889404E2,4.5888104E0,1.6262169E1,5.920999E0,3.0297302E2,1.8669997E0,4.053999E0,1.3956863E1,2.8901617E2],"tree_param":{"num_deleted":"0","num_feature":"5","num_nodes":"11","size_leaf_vector":"1"}},{"base_weights":[-5.5099865E-3,3.2389215E-1,-9.7542286E-2,-1.3630293E-1,3.9993662E-1,-6.256888E-2,-1.0699469E0,8.2202904E-2,2.0831853E-2,-2.0381907E-2,3.400452E-2,-1.7301366E-1,4.5282803E-2],"categories":[],"categories_nodes":[],"categories_segments":[],"categories_sizes":[],"default_left":[0,0,0,0,0,0,0,0,0,0,0,0,0],"id":44,"left_children":[1,3,5,-1,7,9,11,-1,-1,-1,-1,-1,-1],"loss_changes":[9.975932E0,9.764107E0,8.678673E0,0E0,5.453088E0,1.4246569E1,9.696445E0,0E0,0E0,0E0,0E0,0E0,0E0],"parents":[2147483647,0,0,1,1,2,2,4,4,5,5,6,6],"right_children":[2,4,6,-1,8,10,12,-1,-1,-1,-1,-1,-1],"split_conditions":[2E0,1E0,1.98E1,-1.3630293E-1,9.7E0,1.5E1,2.12E1,8.2202904E-2,2.0831853E-2,-2.0381907E-2,3.400452E-2,-1.7301366E-1,4.5282803E-2],"split_indices":[0,0,3,0,3,3,1,0,0,0,0,0,0],"split_type":[0,0,0,0,0,0,0,0,0,0,0,0,0],"sum_hessian":[3.2702673E2,7.08655E1,2.5616125E2,2.3267286E0,6.853877E1,2.4829543E2,7.8658233E0,2.0372564E1,4.816621E1,1.8417468E2,6.412074E1,5.3919873E0,2.4738357E0],"tree_param":{"num_deleted":"0","num_feature":"5","num_nodes":"13","size_leaf_vector":"1"}},{"base_weights":[-5.3628436E-3,2.4155643E-2,-1.0152008E-1,-3.098414E-2,5.1332283E-1,6.8607624E-3,-5.220293E-2,2.137479E-2,9.16194E-2],"categories":[],"categories_nodes":[],"categories_segments":[],"categories_sizes":[],"default_left":[0,0,0,0,0,0,0,0,0],"id":45,"left_children":[1,3,-1,5,7,-1,-1,-1,-1],"loss_changes":[9.687163E0,8.537177E0,0E0,1.3966758E1,3.6735916E0,0E0,0E0,0E0,0E0],"parents":[2147483647,0,0,1,1,3,3,4,4],"right_children":[2,4,-1,6,8,-1,-1,-1,-1],"split_conditions":[1.5E1,2.12E1,-1.0152008E-1,1E0,1.8E0,6.8607624E-3,-5.220293E-2,2.137479E-2,9.16194E-2],"split_indices":[0,1,0,4,2,0,0,0,0],"split_type":[0,0,0,0,0,0,0,0,0],"sum_hessian":[3.2315305E2,3.149236E2,8.229426E0,2.8386276E2,3.1060848E1,2.3671375E2,4.7149025E1,1.8692024E1,1.2368824E1],"tree_param":{"num_deleted":"0","num_feature":"5","num_nodes":"9","size_leaf_vector":"1"}},{"base_weights":[-4.917121E-3,-6.537433E-1,3.741453E-2,4.6693954E-1,-1.01643994E-1,1.016843E0,-2.1602837E-2,-8.548258E-2,9.6540235E-2,1.6929553E-1,-8.855515E-2,-1.01835586E-1,6.7980974E-3],"categories":[],"categories_nodes":[],"categories_segments":[],"categories_sizes":[],"default_left":[0,0,0,0,0,0,0,0,0,0,0,0,0],"id":46,"left_children":[1,3,5,7,-1,9,11,-1,-1,-1,-1,-1,-1],"loss_changes":[8.867915E0,8.512341E0,1.7548218E1,4.462264E0,0E0,2.3690157E1,2.5692053E1,0E0,0E0,0E0,0E0,0E0,0E0],"parents":[2147483647,0,0,1,1,2,2,3,3,5,5,6,6],"right_children":[2,4,6,8,-1,10,12,-1,-1,-1,-1,-1,-1],"split_conditions":[6E-1,4E0,1.25E0,3E0,-1.01643994E-1,-8E-1,6E0,-8.548258E-2,9.6540235E-2,1.6929553E-1,-8.855515E-2,-1.01835586E-1,6.7980974E-3],"split_indices":[3,0,3,0,0,4,1,0,0,0,0,0,0],"split_type":[0,0,0,0,0,0,0,0,0,0,0,0,0],"sum_hessian":[3.2097968E2,1.8774565E1,3.022051E2,4.520237E0,1.4254327E1,1.6252678E1,2.8595242E2,1.0420711E0,3.4781659E0,1.2072273E1,4.180403E0,2.2725859E1,2.6322656E2],"tree_param":{"num_deleted":"0","num_feature":"5","num_nodes":"13","size_leaf_vector":"1"}},{"base_weights":[-5.6233513E-3,2.0673845E-2,-1.0014935E-1,2.8523958E-1,-6.892517E-2,7.616821E-2,1.5978446E-2,-1.1438078E-1,1.2536152E-3],"categories":[],"categories_nodes":[],"categories_segments":[],"categories_sizes":[],"default_left":[0,0,0,0,0,0,0,0,0],"id":47,"left_children":[1,3,-1,5,7,-1,-1,-1,-1],"loss_changes":[8.368518E0,7.4045863E0,0E0,4.600851E0,2.0462318E1,0E0,0E0,0E0,0E0],"parents":[2147483647,0,0,1,1,3,3,4,4],"right_children":[2,4,-1,6,8,-1,-1,-1,-1],"split_conditions":[1.5E1,3.2E0,-1.0014935E-1,1.56E1,3.8E0,7.616821E-2,1.5978446E-2,-1.1438078E-1,1.2536152E-3],"split_indices":[0,2,0,1,2,0,0,0,0],"split_type":[0,0,0,0,0,0,0,0,0],"sum_hessian":[3.1775763E2,3.1053674E2,7.2208714E0,7.800931E1,2.3252745E2,1.5202651E1,6.280666E1,1.5462223E1,2.1706523E2],"tree_param":{"num_deleted":"0","num_feature":"5","num_nodes":"9","size_leaf_vector":"1"}},{"base_weights":[-5.409668E-3,-6.5789825E-1,3.3829853E-2,4.0470343E-2,-1.004287E-1,8.803247E-1,-2.006713E-2,-9.343567E-2,1.4229499E-1,-1.00925244E-1,6.175115E-3],"categories":[],"categories_nodes":[],"categories_segments":[],"categories_sizes":[],"default_left":[0,0,0,0,0,0,0,0,0,0,0],"id":48,"left_children":[1,3,5,-1,-1,7,9,-1,-1,-1,-1],"loss_changes":[8.143963E0,7.047719E0,1.371245E1,0E0,0E0,1.904441E1,2.298098E1,0E0,0E0,0E0,0E0],"parents":[2147483647,0,0,1,1,2,2,5,5,6,6],"right_children":[2,4,6,-1,-1,8,10,-1,-1,-1,-1],"split_conditions":[6E-1,4E0,1.25E0,4.0470343E-2,-1.004287E-1,-1.8E0,6E0,-9.343567E-2,1.4229499E-1,-1.00925244E-1,6.175115E-3],"split_indices":[3,0,3,0,0,4,1,0,0,0,0],"split_type":[0,0,0,0,0,0,0,0,0,0,0],"sum_hessian":[3.1621277E2,1.7043371E1,2.9916937E2,4.1485853E0,1.2894786E1,1.6990269E1,2.821791E2,3.744789E0,1.324548E1,2.0690851E1,2.6148828E2],"tree_param":{"num_deleted":"0","num_feature":"5","num_nodes":"11","size_leaf_vector":"1"}},{"base_weights":[-5.9676617E-3,1.8052998E-1,-1.3259743E-1,-1.5026698E-1,5.600198E-1,1.02381326E-1,-7.852384E-1,7.954063E-4,-8.84315E-2,6.207315E-2,-7.272906E-2,-7.7204145E-3,6.7369305E-2,-1.7312486E-1,-5.103239E-2],"categories":[],"categories_nodes":[],"categories_segments":[],"categories_sizes":[],"default_left":[0,0,0,0,0,0,0,0,0,0,0,0,0,0,0],"id":49,"left_children":[1,3,5,7,9,11,13,-1,-1,-1,-1,-1,-1,-1,-1],"loss_changes":[7.450492E0,1.6101784E1,2.8892048E1,8.016171E0,5.11228E0,1.431562E1,1.2081318E1,0E0,0E0,0E0,0E0,0E0,0E0,0E0,0E0],"parents":[2147483647,0,0,1,1,2,2,3,3,4,4,5,5,6,6],"right_children":[2,4,6,8,10,12,14,-1,-1,-1,-1,-1,-1,-1,-1],"split_conditions":[3E0,2E-1,2E-1,1.62E1,2.1E1,1.5E1,6.666667E-1,7.954063E-4,-8.84315E-2,6.207315E-2,-7.272906E-2,-7.7204145E-3,6.7369305E-2,-1.7312486E-1,-5.103239E-2],"split_indices":[0,4,4,3,3,3,4,0,0,0,0,0,0,0,0],"split_type":[0,0,0,0,0,0,0,0,0,0,0,0,0,0,0],"sum_hessian":[3.1346924E2,1.2659587E2,1.8687338E2,6.795998E1,5.8635902E1,1.3802249E2,4.885089E1,5.6722775E1,1.1237198E1,5.648957E1,2.1463323E0,1.0567088E2,3.23516E1,9.806898E0,3.9043995E1],"tree_param":{"num_deleted":"0","num_feature":"5","num_nodes":"15","size_leaf_vector":"1"}},{"base_weights":[-6.096454E-3,1.7009659E-2,-9.770947E-2,-1.13339335E-1,1.7943165E-1,-5.488008E-2,1.0733937E-2,6.669367E-2,3.3520993E-3],"categories":[],"categories_nodes":[],"categories_segments":[],"categories_sizes":[],"default_left":[0,0,0,0,0,0,0,0,0],"id":50,"left_children":[1,3,-1,5,7,-1,-1,-1,-1],"loss_changes":[6.984013E0,6.4630527E0,0E0,1.634126E1,9.642633E0,0E0,0E0,0E0,0E0],"parents":[2147483647,0,0,1,1,3,3,4,4],"right_children":[2,4,-1,6,8,-1,-1,-1,-1],"split_conditions":[1.5E1,1.36E1,-9.770947E-2,-1.8E0,1.44E1,-5.488008E-2,1.0733937E-2,6.669367E-2,3.3520993E-3],"split_indices":[0,1,0,4,1,0,0,0,0],"split_type":[0,0,0,0,0,0,0,0,0],"sum_hessian":[3.0954535E2,3.0331018E2,6.235162E0,1.6843652E2,1.3487366E2,5.614994E1,1.12286575E2,3.0246294E1,1.04627365E2],"tree_param":{"num_deleted":"0","num_feature":"5","num_nodes":"9","size_leaf_vector":"1"}},{"base_weights":[-5.75392E-3,2.7376255E-1,-8.301718E-2,-1.3413611E-1,3.4696048E-1,-4.9657546E-2,-1.0296521E0,7.855178E-2,1.4939226E-2,-1.6546357E-2,2.7668644E-2,-1.6187283E-1,4.221611E-2],"categories":[],"categories_nodes":[],"categories_segments":[],"categories_sizes":[],"default_left":[0,0,0,0,0,0,0,0,0,0,0,0,0],"id":51,"left_children":[1,3,5,-1,7,9,11,-1,-1,-1,-1,-1,-1],"loss_changes":[6.688158E0,8.394696E0,7.608977E0,0E0,5.510839E0,8.940655E0,7.7017555E0,0E0,0E0,0E0,0E0,0E0,0E0],"parents":[2147483647,0,0,1,1,2,2,4,4,5,5,6,6],"right_children":[2,4,6,-1,8,10,12,-1,-1,-1,-1,-1,-1],"split_conditions":[2E0,1E0,1.98E1,-1.3413611E-1,9.7E0,1.5E1,2.12E1,7.855178E-2,1.4939226E-2,-1.6546357E-2,2.7668644E-2,-1.6187283E-1,4.221611E-2],"split_indices":[0,0,3,0,3,3,1,0,0,0,0,0,0],"split_type":[0,0,0,0,0,0,0,0,0,0,0,0,0],"sum_hessian":[3.076369E2,6.607027E1,2.4156665E2,2.1133678E0,6.3956898E1,2.343602E2,7.20645E0,1.8939503E1,4.501739E1,1.7334145E2,6.101875E1,5.044616E0,2.1618335E0],"tree_param":{"num_deleted":"0","num_feature":"5","num_nodes":"13","size_leaf_vector":"1"}},{"base_weights":[-5.636552E-3,5.730014E-1,-4.2473037E-2,-3.5929495E-1,1.0199729E0,-1.5762678E0,2.0004136E-3,5.0623264E-2,-1.0707652E-1,4.4846077E-2,1.5390651E-1,-8.024484E-2,-1.8326508E-1,-3.3926122E-2,1.000602E-2],"categories":[],"categories_nodes":[],"categories_segments":[],"categories_sizes":[],"default_left":[0,0,0,0,0,0,0,0,0,0,0,0,0,0,0],"id":52,"left_children":[1,3,5,7,9,11,13,-1,-1,-1,-1,-1,-1,-1,-1],"loss_changes":[6.537677E0,8.016382E0,1.9663393E1,4.6608996E0,3.0683413E0,1.4091682E-1,9.440517E0,0E0,0E0,0E0,0E0,0E0,0E0,0E0,0E0],"parents":[2147483647,0,0,1,1,2,2,3,3,4,4,5,5,6,6],"right_children":[2,4,6,8,10,12,14,-1,-1,-1,-1,-1,-1,-1,-1],"split_conditions":[-5.5E0,-6E0,-4.2E0,2E0,1.15E1,8.1E0,8.6E0,5.0623264E-2,-1.0707652E-1,4.4846077E-2,1.5390651E-1,-8.024484E-2,-1.8326508E-1,-3.3926122E-2,1.000602E-2],"split_indices":[4,4,4,0,2,1,1,0,0,0,0,0,0,0,0],"split_type":[0,0,0,0,0,0,0,0,0,0,0,0,0,0,0],"sum_hessian":[3.0457562E2,1.7357878E1,2.8721774E2,5.6886373E0,1.1669241E1,7.1228504E0,2.8009488E2,2.696601E0,2.9920366E0,6.4413495E0,5.2278914E0,2.800429E0,4.3224216E0,6.197022E1,2.1812466E2],"tree_param":{"num_deleted":"0","num_feature":"5","num_nodes":"15","size_leaf_vector":"1"}},{"base_weights":[-5.729947E-3,1.5255316E-2,-9.589257E-2,-4.0176734E-2,3.6164746E-1,5.791768E-3,-5.433392E-2,4.247197E-3,7.765381E-2],"categories":[],"categories_nodes":[],"categories_segments":[],"categories_sizes":[],"default_left":[0,0,0,0,0,0,0,0,0],"id":53,"left_children":[1,3,-1,5,7,-1,-1,-1,-1],"loss_changes":[6.0730586E0,5.723728E0,0E0,1.2727058E1,5.41194E0,0E0,0E0,0E0,0E0],"parents":[2147483647,0,0,1,1,3,3,4,4],"right_children":[2,4,-1,6,8,-1,-1,-1,-1],"split_conditions":[1.5E1,1.92E1,-9.589257E-2,1E0,1.5E0,5.791768E-3,-5.433392E-2,4.247197E-3,7.765381E-2],"split_indices":[0,1,0,4,4,0,0,0,0],"split_type":[0,0,0,0,0,0,0,0,0],"sum_hessian":[3.0187512E2,2.9633508E2,5.540026E0,2.5621744E2,4.011766E1,2.1515636E2,4.1061077E1,2.3297361E1,1.6820297E1],"tree_param":{"num_deleted":"0","num_feature":"5","num_nodes":"9","size_leaf_vector":"1"}},{"base_weights":[-5.321904E-3,-5.8981925E-1,2.6798284E-2,4.2779442E-2,-9.804618E-2,8.770703E-1,-2.9442346E-2,1.4268717E-1,-8.739001E-2,-9.915315E-2,4.03537E-3],"categories":[],"categories_nodes":[],"categories_segments":[],"categories_sizes":[],"default_left":[0,0,0,0,0,0,0,0,0,0,0],"id":54,"left_children":[1,3,5,-1,-1,7,9,-1,-1,-1,-1],"loss_changes":[5.6668267E0,6.669624E0,1.3715542E1,0E0,0E0,1.8376291E1,1.8135847E1,0E0,0E0,0E0,0E0],"parents":[2147483647,0,0,1,1,2,2,5,5,6,6],"right_children":[2,4,6,-1,-1,8,10,-1,-1,-1,-1],"split_conditions":[6E-1,4E0,1.25E0,4.2779442E-2,-9.804618E-2,-8E-1,6E0,1.4268717E-1,-8.739001E-2,-9.915315E-2,4.03537E-3],"split_indices":[3,0,3,0,0,4,1,0,0,0,0],"split_type":[0,0,0,0,0,0,0,0,0,0,0],"sum_hessian":[2.9999985E2,1.4722824E1,2.85277E2,4.057649E0,1.06651745E1,1.679329E1,2.6848373E2,1.2921165E1,3.8721242E0,1.726681E1,2.5121692E2],"tree_param":{"num_deleted":"0","num_feature":"5","num_nodes":"11","size_leaf_vector":"1"}},{"base_weights":[-5.7761455E-3,5.313818E-1,-3.9944507E-2,-3.4700963E-1,9.341719E-1,-1.5072435E-1,2.1140429E-3,4.760464E-2,-1.03916824E-1,4.1227095E-2,1.3887392E-1,-3.0518904E-2,8.673024E-3],"categories":[],"categories_nodes":[],"categories_segments":[],"categories_sizes":[],"default_left":[0,0,0,0,0,0,0,0,0,0,0,0,0],"id":55,"left_children":[1,3,5,7,9,-1,11,-1,-1,-1,-1,-1,-1],"loss_changes":[5.50477E0,6.6707206E0,1.7395666E1,4.1228085E0,2.409381E0,0E0,7.1766253E0,0E0,0E0,0E0,0E0,0E0,0E0],"parents":[2147483647,0,0,1,1,2,2,3,3,4,4,6,6],"right_children":[2,4,6,8,10,-1,12,-1,-1,-1,-1,-1,-1],"split_conditions":[-5.5E0,-6E0,-4.2E0,2E0,1.15E1,-1.5072435E-1,8.6E0,4.760464E-2,-1.03916824E-1,4.1227095E-2,1.3887392E-1,-3.0518904E-2,8.673024E-3],"split_indices":[4,4,4,0,2,0,1,0,0,0,0,0,0],"split_type":[0,0,0,0,0,0,0,0,0,0,0,0,0],"sum_hessian":[2.9776877E2,1.6937883E1,2.8083087E2,5.368632E0,1.1569251E1,6.8546743E0,2.7397623E2,2.5950496E0,2.7735822E0,6.273466E0,5.2957845E0,5.8589237E1,2.1538698E2],"tree_param":{"num_deleted":"0","num_feature":"5","num_nodes":"13","size_leaf_vector":"1"}},{"base_weights":[-5.5684545E-3,1.3136558E-2,-9.401735E-2,-1.3020958E-1,2.642895E-2,3.0700443E-2,-4.98392E-3],"categories":[],"categories_nodes":[],"categories_segments":[],"categories_sizes":[],"default_left":[0,0,0,0,0,0,0],"id":56,"left_children":[1,3,-1,-1,5,-1,-1],"loss_changes":[5.1915092E0,5.1294193E0,0E0,0E0,6.210249E0,0E0,0E0],"parents":[2147483647,0,0,1,1,4,4],"right_children":[2,4,-1,-1,6,-1,-1],"split_conditions":[1.5E1,1E0,-9.401735E-2,-1.3020958E-1,2E0,3.0700443E-2,-4.98392E-3],"split_indices":[0,0,0,0,0,0,0],"split_type":[0,0,0,0,0,0,0],"sum_hessian":[2.9526E2,2.904333E2,4.8267336E0,1.9357935E0,2.8849747E2,6.101394E1,2.2748355E2],"tree_param":{"num_deleted":"0","num_feature":"5","num_nodes":"7","size_leaf_vector":"1"}},{"base_weights":[-5.7188733E-3,1.1314216E-2,-9.481507E-2,-2.439822E-2,1.6120464E-1,2.1480676E-3,-9.891053E-2],"categories":[],"categories_nodes":[],"categories_segments":[],"categories_sizes":[],"default_left":[0,0,0,0,0,0,0],"id":57,"left_children":[1,3,-1,5,-1,-1,-1],"loss_changes":[4.7371655E0,1.6628746E1,0E0,1.2628579E1,0E0,0E0,0E0],"parents":[2147483647,0,0,1,1,3,3],"right_children":[2,4,-1,6,-1,-1,-1],"split_conditions":[1.55E1,1.54E1,-9.481507E-2,1.22E1,1.6120464E-1,2.1480676E-3,-9.891053E-2],"split_indices":[2,2,0,2,0,0,0],"split_type":[0,0,0,0,0,0,0],"sum_hessian":[2.9343582E2,2.89197E2,4.2388225E0,2.8384906E2,5.347933E0,2.7189615E2,1.1952922E1],"tree_param":{"num_deleted":"0","num_feature":"5","num_nodes":"7","size_leaf_vector":"1"}},{"base_weights":[-5.545482E-3,5.0531805E-1,-3.7738957E-2,-3.3450335E-1,8.697245E-1,-1.4598987E-1,1.1434845E-3,4.435393E-2,-9.955269E-2,3.8361702E-2,1.2856832E-1,1.7265966E-2,-1.1957546E-2],"categories":[],"categories_nodes":[],"categories_segments":[],"categories_sizes":[],"default_left":[0,0,0,0,0,0,0,0,0,0,0,0,0],"id":58,"left_children":[1,3,5,7,9,-1,11,-1,-1,-1,-1,-1,-1],"loss_changes":[4.840673E0,5.630999E0,1.5303482E1,3.5286381E0,2.0235214E0,0E0,5.6184173E0,0E0,0E0,0E0,0E0,0E0,0E0],"parents":[2147483647,0,0,1,1,2,2,3,3,4,4,6,6],"right_children":[2,4,6,8,10,-1,12,-1,-1,-1,-1,-1,-1],"split_conditions":[-5.5E0,-6E0,-4.2E0,2E0,1.15E1,-1.4598987E-1,3E0,4.435393E-2,-9.955269E-2,3.8361702E-2,1.2856832E-1,1.7265966E-2,-1.1957546E-2],"split_indices":[4,4,4,0,2,0,0,0,0,0,0,0,0],"split_type":[0,0,0,0,0,0,0,0,0,0,0,0,0],"sum_hessian":[2.921694E2,1.6449148E1,2.7572028E2,5.0024414E0,1.1446706E1,6.365088E0,2.693552E2,2.4489603E0,2.553481E0,6.1646605E0,5.282046E0,1.11089775E2,1.5826541E2],"tree_param":{"num_deleted":"0","num_feature":"5","num_nodes":"13","size_leaf_vector":"1"}},{"base_weights":[-5.1950347E-3,1.2080669E-2,-9.426345E-1,2.4909899E-1,-6.385767E-2,-6.6234893E-3,-1.1397991E-1,7.650899E-2,1.0729065E-2,-2.101541E-1,-2.614344E-3],"categories":[],"categories_nodes":[],"categories_segments":[],"categories_sizes":[],"default_left":[0,0,0,0,0,0,0,0,0,0,0],"id":59,"left_children":[1,3,5,7,9,-1,-1,-1,-1,-1,-1],"loss_changes":[4.7250843E0,5.1776085E0,8.367648E-1,5.0246353E0,1.6697502E1,0E0,0E0,0E0,0E0,0E0,0E0],"parents":[2147483647,0,0,1,1,2,2,3,3,4,4],"right_children":[2,4,6,8,10,-1,-1,-1,-1,-1,-1],"split_conditions":[2.1E1,3.2E0,1.6E0,1.56E1,3.4E0,-6.6234893E-3,-1.1397991E-1,7.650899E-2,1.0729065E-2,-2.101541E-1,-2.614344E-3],"split_indices":[3,2,2,1,2,0,0,0,0,0,0],"split_type":[0,0,0,0,0,0,0,0,0,0,0],"sum_hessian":[2.9006012E2,2.8578067E2,4.2794266E0,6.879083E1,2.1698985E2,1.0312853E0,3.2481413E0,1.38824E1,5.4908432E1,2.948726E0,2.1404112E2],"tree_param":{"num_deleted":"0","num_feature":"5","num_nodes":"11","size_leaf_vector":"1"}},{"base_weights":[-5.507876E-3,-1.2766774E-1,6.815292E-3,2.6971993E-1,-6.1202455E-2,7.246505E-2,7.015039E-3,-2.9760047E-3,-9.798893E-2],"categories":[],"categories_nodes":[],"categories_segments":[],"categories_sizes":[],"default_left":[0,0,0,0,0,0,0,0,0],"id":60,"left_children":[1,-1,3,5,7,-1,-1,-1,-1],"loss_changes":[4.5496836E0,0E0,5.1682796E0,5.3421087E0,6.605754E0,0E0,0E0,0E0,0E0],"parents":[2147483647,0,0,2,2,3,3,4,4],"right_children":[2,-1,4,6,8,-1,-1,-1,-1],"split_conditions":[1E0,-1.2766774E-1,2E0,9.7E0,1.98E1,7.246505E-2,7.015039E-3,-2.9760047E-3,-9.798893E-2],"split_indices":[0,0,0,3,3,0,0,0,0],"split_type":[0,0,0,0,0,0,0,0,0],"sum_hessian":[2.8888385E2,1.788565E0,2.870953E2,5.8400017E1,2.2869528E2,1.7005014E1,4.1395E1,2.2212535E2,6.56993E0],"tree_param":{"num_deleted":"0","num_feature":"5","num_nodes":"9","size_leaf_vector":"1"}},{"base_weights":[-5.401575E-3,-4.5038253E-2,3.848345E-1,4.1544743E-2,-4.7601765E-1,4.9382076E-2,8.715168E-1,-2.0856883E-3,1.2356424E-1,3.839818E-2,-1.2666455E-1,-9.5571525E-2,3.855489E-2,9.587459E-3,9.5532954E-2],"categories":[],"categories_nodes":[],"categories_segments":[],"categories_sizes":[],"default_left":[0,0,0,0,0,0,0,0,0,0,0,0,0,0,0],"id":61,"left_children":[1,3,5,7,9,11,13,-1,-1,-1,-1,-1,-1,-1,-1],"loss_changes":[4.4831967E0,9.833602E0,4.320318E0,1.6412748E1,3.045597E1,6.0724115E0,6.134329E-1,0E0,0E0,0E0,0E0,0E0,0E0,0E0,0E0],"parents":[2147483647,0,0,1,1,2,2,3,3,4,4,5,5,6,6],"right_children":[2,4,6,8,10,12,14,-1,-1,-1,-1,-1,-1,-1,-1],"split_conditions":[2.12E1,1E0,1.8E0,8E-1,3E0,2.34E1,3.3333334E-1,-2.0856883E-3,1.2356424E-1,3.839818E-2,-1.2666455E-1,-9.5571525E-2,3.855489E-2,9.587459E-3,9.5532954E-2],"split_indices":[1,4,2,4,0,1,4,0,0,0,0,0,0,0,0],"split_type":[0,0,0,0,0,0,0,0,0,0,0,0,0,0,0],"sum_hessian":[2.877227E2,2.6199606E2,2.572662E1,2.1891919E2,4.307687E1,1.5881528E1,9.845093E0,2.0898073E2,9.938463E0,2.0879587E1,2.2197283E1,3.518542E0,1.2362986E1,1.1691495E0,8.675943E0],"tree_param":{"num_deleted":"0","num_feature":"5","num_nodes":"15","size_leaf_vector":"1"}},{"base_weights":[-4.6906723E-3,-2.7236754E-1,5.2191764E-2,-3.098068E-2,-1.8956583E0,8.0376273E-1,-1.3256426E-2,-5.200077E-2,7.533054E-2,-2.3448353E-1,1.0509296E-2,-1.0225455E-1,1.04950786E-1,-1.21836856E-1,6.840476E-3],"categories":[],"categories_nodes":[],"categories_segments":[],"categories_sizes":[],"default_left":[0,0,0,0,0,0,0,0,0,0,0,0,0,0,0],"id":62,"left_children":[1,3,5,7,9,11,13,-1,-1,-1,-1,-1,-1,-1,-1],"loss_changes":[4.3745255E0,1.9670572E1,1.1669436E1,1.7592945E1,6.0891266E0,9.60183E0,2.1637032E1,0E0,0E0,0E0,0E0,0E0,0E0,0E0,0E0],"parents":[2147483647,0,0,1,1,2,2,3,3,4,4,5,5,6,6],"right_children":[2,4,6,8,10,12,14,-1,-1,-1,-1,-1,-1,-1,-1],"split_conditions":[-2.6E0,-3E0,-2.5E0,1.26E1,1.75E1,1.08E1,-1.8E0,-5.200077E-2,7.533054E-2,-2.3448353E-1,1.0509296E-2,-1.0225455E-1,1.04950786E-1,-1.21836856E-1,6.840476E-3],"split_indices":[4,4,4,1,1,3,4,0,0,0,0,0,0,0,0],"split_type":[0,0,0,0,0,0,0,0,0,0,0,0,0,0,0],"sum_hessian":[2.8537057E2,4.9350266E1,2.360203E2,4.384892E1,5.5013447E0,1.8002989E1,2.180173E2,2.721591E1,1.6633009E1,4.352266E0,1.1490792E0,1.7602564E0,1.6242731E1,1.2952432E1,2.0506488E2],"tree_param":{"num_deleted":"0","num_feature":"5","num_nodes":"15","size_leaf_vector":"1"}},{"base_weights":[-5.1823165E-3,4.9423814E-1,-3.6376562E-2,-8.543486E-2,7.0149577E-1,-6.19962E-1,4.68932E-2,1.428061E-1,2.253004E-2,5.489562E-3,-1.3472806E-1,9.96283E-3,-8.260681E-2],"categories":[],"categories_nodes":[],"categories_segments":[],"categories_sizes":[],"default_left":[0,0,0,0,0,0,0,0,0,0,0,0,0],"id":63,"left_children":[1,3,5,-1,7,9,11,-1,-1,-1,-1,-1,-1],"loss_changes":[4.444112E0,5.2868867E0,1.3068923E1,0E0,4.897809E0,1.6554977E1,1.0935665E1,0E0,0E0,0E0,0E0,0E0,0E0],"parents":[2147483647,0,0,1,1,2,2,4,4,5,5,6,6],"right_children":[2,4,6,-1,8,10,12,-1,-1,-1,-1,-1,-1],"split_conditions":[-5.5E0,5E0,-2.6E0,-8.543486E-2,5.2E0,9.7E0,1.1E1,1.428061E-1,2.253004E-2,5.489562E-3,-1.3472806E-1,9.96283E-3,-8.260681E-2],"split_indices":[4,3,4,0,3,3,0,0,0,0,0,0,0],"split_type":[0,0,0,0,0,0,0,0,0,0,0,0,0],"sum_hessian":[2.8310815E2,1.5770957E1,2.673372E2,1.6849756E0,1.4085981E1,3.2577408E1,2.347598E2,4.7855024E0,9.300479E0,1.7377686E1,1.5199722E1,2.2222139E2,1.2538397E1],"tree_param":{"num_deleted":"0","num_feature":"5","num_nodes":"13","size_leaf_vector":"1"}},{"base_weights":[-5.1314067E-3,4.7142487E-2,-2.9258597E-1,-5.6669053E-2,5.042153E-1,-5.308749E-2,-1.7601126E-1,-2.4557482E-2,2.4894077E-2,7.598035E-2,1.35577535E-2,-1.3116795E-1,1.6372839E-2],"categories":[],"categories_nodes":[],"categories_segments":[],"categories_sizes":[],"default_left":[0,0,0,0,0,0,0,0,0,0,0,0,0],"id":64,"left_children":[1,3,5,7,9,11,-1,-1,-1,-1,-1,-1,-1],"loss_changes":[4.2637496E0,1.142474E1,1.5251127E1,1.14123535E1,4.094836E0,1.0738206E1,0E0,0E0,0E0,0E0,0E0,0E0,0E0],"parents":[2147483647,0,0,1,1,2,2,3,3,4,4,5,5],"right_children":[2,4,6,8,10,12,-1,-1,-1,-1,-1,-1,-1],"split_conditions":[1.68E1,1.5E1,5E0,1.36E1,1.32E1,1.76E1,-1.7601126E-1,-2.4557482E-2,2.4894077E-2,7.598035E-2,1.35577535E-2,-1.3116795E-1,1.6372839E-2],"split_indices":[3,3,2,1,1,3,0,0,0,0,0,0,0],"split_type":[0,0,0,0,0,0,0,0,0,0,0,0,0],"sum_hessian":[2.8183322E2,2.39175E2,4.2658207E1,1.9562106E2,4.3553936E1,3.7563988E1,5.09422E0,1.210149E2,7.460617E1,2.5094213E1,1.845972E1,4.778072E0,3.2785915E1],"tree_param":{"num_deleted":"0","num_feature":"5","num_nodes":"13","size_leaf_vector":"1"}},{"base_weights":[-5.1868437E-3,-1.2264403E-1,6.640421E-3,2.431208E-1,-5.4687824E-2,6.9799334E-2,4.7918945E-3,3.7702706E-2,-1.1656925E-2],"categories":[],"categories_nodes":[],"categories_segments":[],"categories_sizes":[],"default_left":[0,0,0,0,0,0,0,0,0],"id":65,"left_children":[1,-1,3,5,7,-1,-1,-1,-1],"loss_changes":[4.056751E0,0E0,4.053829E0,5.0771036E0,5.975904E0,0E0,0E0,0E0,0E0],"parents":[2147483647,0,0,2,2,3,3,4,4],"right_children":[2,-1,4,6,8,-1,-1,-1,-1],"split_conditions":[1E0,-1.2264403E-1,2E0,9.7E0,1.25E0,6.9799334E-2,4.7918945E-3,3.7702706E-2,-1.1656925E-2],"split_indices":[0,0,0,3,3,0,0,0,0],"split_type":[0,0,0,0,0,0,0,0,0],"sum_hessian":[2.7929507E2,1.6938745E0,2.776012E2,5.655646E1,2.2104474E2,1.6209122E1,4.034734E1,2.7073578E1,1.9397116E2],"tree_param":{"num_deleted":"0","num_feature":"5","num_nodes":"9","size_leaf_vector":"1"}},{"base_weights":[-4.688609E-3,1.0811262E-2,-8.955193E-2,-1.1473109E-2,7.527314E-1,2.011571E-3,-1.074528E-1,-5.9411414E-2,1.1164025E-1],"categories":[],"categories_nodes":[],"categories_segments":[],"categories_sizes":[],"default_left":[0,0,0,0,0,0,0,0,0],"id":66,"left_children":[1,3,-1,5,7,-1,-1,-1,-1],"loss_changes":[3.8776128E0,4.577175E0,0E0,9.063273E0,4.617352E0,0E0,0E0,0E0,0E0],"parents":[2147483647,0,0,1,1,3,3,4,4],"right_children":[2,4,-1,6,8,-1,-1,-1,-1],"split_conditions":[1.5E1,1.4E1,-8.955193E-2,1.1E1,1.36E1,2.011571E-3,-1.074528E-1,-5.9411414E-2,1.1164025E-1],"split_indices":[0,0,0,0,1,0,0,0,0],"split_type":[0,0,0,0,0,0,0,0,0],"sum_hessian":[2.7912735E2,2.7532474E2,3.8026063E0,2.6825204E2,7.0727034E0,2.6146368E2,6.7883515E0,1.3689986E0,5.7037044E0],"tree_param":{"num_deleted":"0","num_feature":"5","num_nodes":"9","size_leaf_vector":"1"}},{"base_weights":[-4.844206E-3,4.6964222E-1,-3.42733E-2,-8.214476E-2,6.618278E-1,-1.3316183E-1,-9.128395E-4,1.3538526E-1,2.0254666E-2,3.832751E-2,-4.6001645E-3],"categories":[],"categories_nodes":[],"categories_segments":[],"categories_sizes":[],"default_left":[0,0,0,0,0,0,0,0,0,0,0],"id":67,"left_children":[1,3,5,-1,7,-1,9,-1,-1,-1,-1],"loss_changes":[3.908361E0,4.599758E0,1.1398516E1,0E0,4.4241753E0,0E0,4.4832563E0,0E0,0E0,0E0,0E0],"parents":[2147483647,0,0,1,1,2,2,4,4,6,6],"right_children":[2,4,6,-1,8,-1,10,-1,-1,-1,-1],"split_conditions":[-5.5E0,5E0,-4.2E0,-8.214476E-2,5.2E0,-1.3316183E-1,1.25E0,1.3538526E-1,2.0254666E-2,3.832751E-2,-4.6001645E-3],"split_indices":[4,3,4,0,3,0,3,0,0,0,0],"split_type":[0,0,0,0,0,0,0,0,0,0,0],"sum_hessian":[2.7774152E2,1.5346755E1,2.6239478E2,1.5642158E0,1.3782539E1,5.602557E0,2.567922E2,4.721151E0,9.061389E0,2.6184196E1,2.3060802E2],"tree_param":{"num_deleted":"0","num_feature":"5","num_nodes":"11","size_leaf_vector":"1"}},{"base_weights":[-4.5420905E-3,-5.385038E-1,2.130659E-2,4.270646E-2,-9.511752E-2,8.4523886E-1,-3.556682E-2,-9.493192E-2,1.3349144E-1,-9.6721806E-2,2.021708E-3],"categories":[],"categories_nodes":[],"categories_segments":[],"categories_sizes":[],"default_left":[0,0,0,0,0,0,0,0,0,0,0],"id":68,"left_children":[1,3,5,-1,-1,7,9,-1,-1,-1,-1],"loss_changes":[3.8617291E0,5.5538406E0,1.2543547E1,0E0,0E0,1.6454836E1,1.3051711E1,0E0,0E0,0E0,0E0],"parents":[2147483647,0,0,1,1,2,2,5,5,6,6],"right_children":[2,4,6,-1,-1,8,10,-1,-1,-1,-1],"split_conditions":[6E-1,4E0,1.25E0,4.270646E-2,-9.511752E-2,8E0,6E0,-9.493192E-2,1.3349144E-1,-9.6721806E-2,2.021708E-3],"split_indices":[3,0,3,0,0,0,1,0,0,0,0],"split_type":[0,0,0,0,0,0,0,0,0,0,0],"sum_hessian":[2.7795944E2,1.1918729E1,2.660407E2,3.558252E0,8.360477E0,1.6283134E1,2.4975757E2,3.2894223E0,1.2993711E1,1.3186707E1,2.3657086E2],"tree_param":{"num_deleted":"0","num_feature":"5","num_nodes":"11","size_leaf_vector":"1"}},{"base_weights":[-5.0211907E-3,-1.1821443E-1,6.281219E-3,2.180812E-2,-8.650826E-1,3.5790415E-3,-8.973258E-2,-1.9547015E-3,-1.0852074E-1],"categories":[],"categories_nodes":[],"categories_segments":[],"categories_sizes":[],"default_left":[0,0,0,0,0,0,0,0,0],"id":69,"left_children":[1,-1,3,5,7,-1,-1,-1,-1],"loss_changes":[3.6985462E0,0E0,3.7502398E0,3.5269914E0,8.820336E-1,0E0,0E0,0E0,0E0],"parents":[2147483647,0,0,2,2,3,3,4,4],"right_children":[2,-1,4,6,8,-1,-1,-1,-1],"split_conditions":[1E0,-1.1821443E-1,2.1E1,1.55E1,1.6E0,3.5790415E-3,-8.973258E-2,-1.9547015E-3,-1.0852074E-1],"split_indices":[0,0,3,2,2,0,0,0,0],"split_type":[0,0,0,0,0,0,0,0,0],"sum_hessian":[2.7643762E2,1.6438301E0,2.747938E2,2.7094086E2,3.852944E0,2.678276E2,3.1132581E0,1.0207754E0,2.8321683E0],"tree_param":{"num_deleted":"0","num_feature":"5","num_nodes":"9","size_leaf_vector":"1"}},{"base_weights":[-5.742309E-3,-4.176305E-2,3.5050786E-1,3.992502E-2,-4.593559E-1,3.3538483E-2,8.470513E-1,-2.012709E-3,1.1441777E-1,3.445662E-2,-1.2255161E-1,-8.521769E-2,3.5854366E-2,7.652998E-3,9.372472E-2],"categories":[],"categories_nodes":[],"categories_segments":[],"categories_sizes":[],"default_left":[0,0,0,0,0,0,0,0,0,0,0,0,0,0,0],"id":70,"left_children":[1,3,5,7,9,11,13,-1,-1,-1,-1,-1,-1,-1,-1],"loss_changes":[3.5663273E0,8.623302E0,3.9884253E0,1.4074825E1,2.5892056E1,5.089489E0,6.1649466E-1,0E0,0E0,0E0,0E0,0E0,0E0,0E0,0E0],"parents":[2147483647,0,0,1,1,2,2,3,3,4,4,5,5,6,6],"right_children":[2,4,6,8,10,12,14,-1,-1,-1,-1,-1,-1,-1,-1],"split_conditions":[2.12E1,1E0,1.8E0,8E-1,3E0,2.34E1,3.3333334E-1,-2.012709E-3,1.1441777E-1,3.445662E-2,-1.2255161E-1,-8.521769E-2,3.5854366E-2,7.652998E-3,9.372472E-2],"split_indices":[1,4,2,4,0,1,4,0,0,0,0,0,0,0,0],"split_type":[0,0,0,0,0,0,0,0,0,0,0,0,0,0,0],"sum_hessian":[2.7577527E2,2.5125357E2,2.452168E1,2.1090204E2,4.0351536E1,1.5618883E1,8.902797E0,2.0095534E2,9.946696E0,1.9959038E1,2.0392496E1,3.7573044E0,1.1861579E1,1.1266434E0,7.776153E0],"tree_param":{"num_deleted":"0","num_feature":"5","num_nodes":"15","size_leaf_vector":"1"}},{"base_weights":[-4.9835634E-3,4.1041214E-2,-2.7475026E-1,-5.6317836E-2,4.397566E-1,-1.889884E0,-6.048883E-2,-2.34808E-2,2.2886032E-2,-1.8729715E-2,5.9097048E-2,-2.911434E-1,5.6726336E-2,1.569897E-2,-1.604998E-1],"categories":[],"categories_nodes":[],"categories_segments":[],"categories_sizes":[],"default_left":[0,0,0,0,0,0,0,0,0,0,0,0,0,0,0],"id":71,"left_children":[1,3,5,7,9,11,13,-1,-1,-1,-1,-1,-1,-1,-1],"loss_changes":[3.4223442E0,9.168943E0,1.3787175E1,9.736087E0,4.5050545E0,1.3378185E1,1.2511854E1,0E0,0E0,0E0,0E0,0E0,0E0,0E0,0E0],"parents":[2147483647,0,0,1,1,2,2,3,3,4,4,5,5,6,6],"right_children":[2,4,6,8,10,12,14,-1,-1,-1,-1,-1,-1,-1,-1],"split_conditions":[1.7E1,1.5E1,1.76E1,1.36E1,-1.5E0,2.34E1,5E0,-2.34808E-2,2.2886032E-2,-1.8729715E-2,5.9097048E-2,-2.911434E-1,5.6726336E-2,1.569897E-2,-1.604998E-1],"split_indices":[3,3,3,1,4,1,2,0,0,0,0,0,0,0,0],"split_type":[0,0,0,0,0,0,0,0,0,0,0,0,0,0,0],"sum_hessian":[2.7373273E2,2.3456206E2,3.9170662E1,1.8921736E2,4.534469E1,3.6717818E0,3.5498882E1,1.1648634E2,7.273102E1,8.763902E0,3.6580784E1,2.4629397E0,1.208842E0,3.19048E1,3.59408E0],"tree_param":{"num_deleted":"0","num_feature":"5","num_nodes":"15","size_leaf_vector":"1"}},{"base_weights":[-5.511704E-3,1.4400122E-1,-9.414342E-2,-1.79746E-2,1.3409673E0,-1.8759938E-1,3.5986647E-3,9.67262E-3,-1.0259867E-1,7.082664E-2,1.9159107E-1,9.155794E-3,-4.7954064E-2],"categories":[],"categories_nodes":[],"categories_segments":[],"categories_sizes":[],"default_left":[0,0,0,0,0,0,0,0,0,0,0,0,0],"id":72,"left_children":[1,3,5,7,9,-1,11,-1,-1,-1,-1,-1,-1],"loss_changes":[3.6154106E0,1.9713503E1,2.9832073E1,1.0555547E1,3.0510845E0,0E0,6.985443E0,0E0,0E0,0E0,0E0,0E0,0E0],"parents":[2147483647,0,0,1,1,2,2,3,3,4,4,6,6],"right_children":[2,4,6,8,10,-1,12,-1,-1,-1,-1,-1,-1],"split_conditions":[1.02E1,1E1,1.12E1,6.666667E-1,5E-1,-1.8759938E-1,5E0,9.67262E-3,-1.0259867E-1,7.082664E-2,1.9159107E-1,9.155794E-3,-4.7954064E-2],"split_indices":[1,1,1,4,4,0,0,0,0,0,0,0,0],"split_type":[0,0,0,0,0,0,0,0,0,0,0,0,0],"sum_hessian":[2.7080548E2,1.005548E2,1.7025069E2,8.9437E1,1.1117807E1,7.907249E0,1.6234344E2,8.1111435E1,8.325556E0,6.3556123E0,4.7621946E0,1.3802534E2,2.4318096E1],"tree_param":{"num_deleted":"0","num_feature":"5","num_nodes":"13","size_leaf_vector":"1"}},{"base_weights":[-5.433362E-3,4.5059702E-1,-3.378008E-2,-3.0612287E-1,7.673804E-1,-1.2481417E-1,-4.3092365E-3,4.0650185E-2,-9.296409E-2,3.104994E-2,1.13801144E-1,-2.85957E-3,6.5932535E-2],"categories":[],"categories_nodes":[],"categories_segments":[],"categories_sizes":[],"default_left":[0,0,0,0,0,0,0,0,0,0,0,0,0],"id":73,"left_children":[1,3,5,7,9,-1,11,-1,-1,-1,-1,-1,-1],"loss_changes":[3.5097017E0,4.043932E0,9.136203E0,2.7789845E0,1.591608E0,0E0,4.054418E0,0E0,0E0,0E0,0E0,0E0,0E0],"parents":[2147483647,0,0,1,1,2,2,3,3,4,4,6,6],"right_children":[2,4,6,8,10,-1,12,-1,-1,-1,-1,-1,-1],"split_conditions":[-5.5E0,-6E0,-4.2E0,2E0,1.15E1,-1.2481417E-1,1.5333333E1,4.0650185E-2,-9.296409E-2,3.104994E-2,1.13801144E-1,-2.85957E-3,6.5932535E-2],"split_indices":[4,4,4,0,2,0,2,0,0,0,0,0,0],"split_type":[0,0,0,0,0,0,0,0,0,0,0,0,0],"sum_hessian":[2.6932492E2,1.4889695E1,2.5443524E2,4.4037766E0,1.0485918E1,5.048711E0,2.4938652E2,2.2174654E0,2.1863112E0,5.5196023E0,4.966316E0,2.4150528E2,7.88125E0],"tree_param":{"num_deleted":"0","num_feature":"5","num_nodes":"13","size_leaf_vector":"1"}},{"base_weights":[-4.86709E-3,9.161026E-3,-8.885547E-2,-2.2422727E-2,1.2805726E-1,1.5508541E-3,-9.615498E-2],"categories":[],"categories_nodes":[],"categories_segments":[],"categories_sizes":[],"default_left":[0,0,0,0,0,0,0],"id":74,"left_children":[1,3,-1,5,-1,-1,-1],"loss_changes":[3.35539E0,1.0741787E1,0E0,9.323113E0,0E0,0E0,0E0],"parents":[2147483647,0,0,1,1,3,3],"right_children":[2,4,-1,6,-1,-1,-1],"split_conditions":[1.55E1,1.54E1,-8.885547E-2,1.22E1,1.2805726E-1,1.5508541E-3,-9.615498E-2],"split_indices":[2,2,0,2,0,0,0],"split_type":[0,0,0,0,0,0,0],"sum_hessian":[2.6901633E2,2.657867E2,3.2296035E0,2.6030276E2,5.4839444E0,2.5114264E2,9.160145E0],"tree_param":{"num_deleted":"0","num_feature":"5","num_nodes":"7","size_leaf_vector":"1"}},{"base_weights":[-4.783632E-3,-4.4658337E-2,2.9566306E-1,-5.8193606E-1,3.3421665E-2,1.9149832E-1,-9.535956E-2,2.9810236E-3,-1.0267655E-1,5.3669345E-2,-8.43969E-3,4.1380044E-2,-9.832662E-2],"categories":[],"categories_nodes":[],"categories_segments":[],"categories_sizes":[],"default_left":[0,0,0,0,0,0,0,0,0,0,0,0,0],"id":75,"left_children":[1,3,5,7,9,-1,11,-1,-1,-1,-1,-1,-1],"loss_changes":[3.235503E0,1.0017234E1,2.0220335E1,8.274294E0,1.2439592E1,0E0,1.2361378E1,0E0,0E0,0E0,0E0,0E0,0E0],"parents":[2147483647,0,0,1,1,2,2,3,3,4,4,6,6],"right_children":[2,4,6,8,10,-1,12,-1,-1,-1,-1,-1,-1],"split_conditions":[1.1E1,8.6E0,1.12E1,4E0,1.02E1,1.9149832E-1,-1.6666666E0,2.9810236E-3,-1.0267655E-1,5.3669345E-2,-8.43969E-3,4.1380044E-2,-9.832662E-2],"split_indices":[2,1,2,0,1,0,4,0,0,0,0,0,0],"split_type":[0,0,0,0,0,0,0,0,0,0,0,0,0],"sum_hessian":[2.6796817E2,2.3732254E2,3.064563E1,2.9293999E1,2.0802853E2,5.202682E0,2.544295E1,1.2725876E1,1.6568123E1,3.8787834E1,1.692407E2,1.6509642E1,8.933307E0],"tree_param":{"num_deleted":"0","num_feature":"5","num_nodes":"13","size_leaf_vector":"1"}},{"base_weights":[-4.5688627E-3,-1.11667626E-1,5.8808457E-3,2.0321036E-2,-8.1194526E-1,2.079755E-2,-4.084918E-3,-5.046221E-4,-1.0502779E-1],"categories":[],"categories_nodes":[],"categories_segments":[],"categories_sizes":[],"default_left":[0,0,0,0,0,0,0,0,0],"id":76,"left_children":[1,-1,3,5,7,-1,-1,-1,-1],"loss_changes":[3.1201372E0,0E0,3.1628323E0,3.024859E0,8.8835883E-1,0E0,0E0,0E0,0E0],"parents":[2147483647,0,0,2,2,3,3,4,4],"right_children":[2,-1,4,6,8,-1,-1,-1,-1],"split_conditions":[1E0,-1.11667626E-1,2.1E1,3.2E0,1.6E0,2.079755E-2,-4.084918E-3,-5.046221E-4,-1.0502779E-1],"split_indices":[0,0,3,2,2,0,0,0,0],"split_type":[0,0,0,0,0,0,0,0,0],"sum_hessian":[2.6692166E2,1.4992796E0,2.654224E2,2.6177542E2,3.6469634E0,6.376399E1,1.9801144E2,1.0644232E0,2.58254E0],"tree_param":{"num_deleted":"0","num_feature":"5","num_nodes":"9","size_leaf_vector":"1"}},{"base_weights":[-4.8793894E-3,8.335795E-3,-8.574306E-2,-1.3605136E-2,7.7266943E-1,1.3203014E-3,-1.0490004E-1,-5.376934E-2,1.0881239E-1],"categories":[],"categories_nodes":[],"categories_segments":[],"categories_sizes":[],"default_left":[0,0,0,0,0,0,0,0,0],"id":77,"left_children":[1,3,-1,5,7,-1,-1,-1,-1],"loss_changes":[3.0135515E0,4.4338E0,0E0,7.1579947E0,3.6346297E0,0E0,0E0,0E0,0E0],"parents":[2147483647,0,0,1,1,3,3,4,4],"right_children":[2,4,-1,6,8,-1,-1,-1,-1],"split_conditions":[1.5E1,1.4E1,-8.574306E-2,1.1E1,1.36E1,1.3203014E-3,-1.0490004E-1,-5.376934E-2,1.0881239E-1],"split_indices":[0,0,0,0,1,0,0,0,0],"split_type":[0,0,0,0,0,0,0,0,0],"sum_hessian":[2.6584167E2,2.6275894E2,3.0827382E0,2.5638144E2,6.377476E0,2.5087317E2,5.5082865E0,1.1007167E0,5.276759E0],"tree_param":{"num_deleted":"0","num_feature":"5","num_nodes":"9","size_leaf_vector":"1"}},{"base_weights":[-4.976831E-3,-4.355466E-2,2.866727E-1,1.4385183E-2,-6.8637276E-1,1.638082E-1,-7.6008E-2,6.120173E-3,-3.7807334E-2,4.371069E-2,-1.1344569E-1,3.8466115E-2,-9.671496E-2],"categories":[],"categories_nodes":[],"categories_segments":[],"categories_sizes":[],"default_left":[0,0,0,0,0,0,0,0,0,0,0,0,0],"id":78,"left_children":[1,3,5,7,9,-1,11,-1,-1,-1,-1,-1,-1],"loss_changes":[3.002169E0,8.782776E0,1.5403806E1,4.0111403E0,1.0310407E1,0E0,1.0854112E1,0E0,0E0,0E0,0E0,0E0,0E0],"parents":[2147483647,0,0,1,1,2,2,3,3,4,4,6,6],"right_children":[2,4,6,8,10,-1,12,-1,-1,-1,-1,-1,-1],"split_conditions":[1.1E1,8.333333E0,1.12E1,7E0,2E0,1.638082E-1,-1.6666666E0,6.120173E-3,-3.7807334E-2,4.371069E-2,-1.1344569E-1,3.8466115E-2,-9.671496E-2],"split_indices":[2,2,2,0,0,0,4,0,0,0,0,0,0],"split_type":[0,0,0,0,0,0,0,0,0,0,0,0,0],"sum_hessian":[2.6472113E2,2.3454716E2,3.0173973E1,2.1605121E2,1.8495964E1,5.6403794E0,2.4533594E1,1.9377925E2,2.2271954E1,5.280552E0,1.3215411E1,1.6547722E1,7.9858737E0],"tree_param":{"num_deleted":"0","num_feature":"5","num_nodes":"13","size_leaf_vector":"1"}},{"base_weights":[-4.9544075E-3,-1.9525498E-2,7.526802E-2,-6.0477755E-3,-1.04045965E-1,-4.5062187E-3,3.454138E-2],"categories":[],"categories_nodes":[],"categories_segments":[],"categories_sizes":[],"default_left":[0,0,0,0,0,0,0],"id":79,"left_children":[1,3,-1,5,-1,-1,-1],"loss_changes":[2.927897E0,3.5696578E0,0E0,3.5464547E0,0E0,0E0,0E0],"parents":[2147483647,0,0,1,1,3,3],"right_children":[2,4,-1,6,-1,-1,-1],"split_conditions":[6E0,4.25E0,7.526802E-2,2.1E1,-1.04045965E-1,-4.5062187E-3,3.454138E-2],"split_indices":[4,4,0,1,0,0,0],"split_type":[0,0,0,0,0,0,0],"sum_hessian":[2.6288733E2,2.5888263E2,4.004692E0,2.5650238E2,2.3802576E0,2.3165863E2,2.4843754E1],"tree_param":{"num_deleted":"0","num_feature":"5","num_nodes":"7","size_leaf_vector":"1"}},{"base_weights":[-4.4056927E-3,4.175251E-2,-2.519081E-1,-4.9968563E-2,4.3986765E-1,-5.9637055E-2,-1.5599021E-1,-2.168854E-2,2.0793622E-2,6.9629915E-2,6.6902153E-3,-1.0902981E-1,1.4216738E-2],"categories":[],"categories_nodes":[],"categories_segments":[],"categories_sizes":[],"default_left":[0,0,0,0,0,0,0,0,0,0,0,0,0],"id":80,"left_children":[1,3,5,7,9,11,-1,-1,-1,-1,-1,-1,-1],"loss_changes":[3.017497E0,8.153837E0,1.0347319E1,7.875403E0,3.951312E0,7.899264E0,0E0,0E0,0E0,0E0,0E0,0E0,0E0],"parents":[2147483647,0,0,1,1,2,2,3,3,4,4,5,5],"right_children":[2,4,6,8,10,12,-1,-1,-1,-1,-1,-1,-1],"split_conditions":[1.68E1,1.5E1,5E0,1.36E1,1.32E1,1.76E1,-1.5599021E-1,-2.168854E-2,2.0793622E-2,6.9629915E-2,6.6902153E-3,-1.0902981E-1,1.4216738E-2],"split_indices":[3,3,2,1,1,3,0,0,0,0,0,0,0],"split_type":[0,0,0,0,0,0,0,0,0,0,0,0,0],"sum_hessian":[2.6220984E2,2.2169577E2,4.0514065E1,1.8089432E2,4.080145E1,3.6233456E1,4.28061E0,1.0991561E2,7.097871E1,2.3664234E1,1.7137215E1,5.2119746E0,3.1021482E1],"tree_param":{"num_deleted":"0","num_feature":"5","num_nodes":"13","size_leaf_vector":"1"}},{"base_weights":[-4.51693E-3,1.5174632E-1,-9.3436114E-2,-1.2970882E-3,1.2128525E0,-1.7503206E-1,-5.953521E-3,-4.6463232E-2,2.1572325E-2,1.4477532E-1,-6.832716E-2,3.9471958E-2,-1.078994E-2],"categories":[],"categories_nodes":[],"categories_segments":[],"categories_sizes":[],"default_left":[0,0,0,0,0,0,0,0,0,0,0,0,0],"id":81,"left_children":[1,3,5,7,9,-1,11,-1,-1,-1,-1,-1,-1],"loss_changes":[3.6442559E0,1.5450075E1,2.4214159E1,8.560469E0,6.3304844E0,0E0,6.5677786E0,0E0,0E0,0E0,0E0,0E0,0E0],"parents":[2147483647,0,0,1,1,2,2,3,3,4,4,6,6],"right_children":[2,4,6,8,10,-1,12,-1,-1,-1,-1,-1,-1],"split_conditions":[1.02E1,1E1,1.12E1,-1.8E0,5E0,-1.7503206E-1,-2.5E0,-4.6463232E-2,2.1572325E-2,1.4477532E-1,-6.832716E-2,3.9471958E-2,-1.078994E-2],"split_indices":[1,1,1,4,0,0,4,0,0,0,0,0,0],"split_type":[0,0,0,0,0,0,0,0,0,0,0,0,0],"sum_hessian":[2.6025436E2,9.412901E1,1.6612537E2,8.313695E1,1.0992068E1,7.378172E0,1.587472E2,2.615514E1,5.6981804E1,9.990826E0,1.0012426E0,3.1616093E1,1.27131096E2],"tree_param":{"num_deleted":"0","num_feature":"5","num_nodes":"13","size_leaf_vector":"1"}},{"base_weights":[-4.4110892E-3,4.5034686E-1,-3.2461293E-2,-7.057136E-2,6.0930645E-1,-4.944785E-1,3.2250617E-2,-6.253613E-2,7.688274E-2,1.1685278E-2,-1.1116918E-1,7.0841394E-2,-2.4660628E-3],"categories":[],"categories_nodes":[],"categories_segments":[],"categories_sizes":[],"default_left":[0,0,0,0,0,0,0,0,0,0,0,0,0],"id":82,"left_children":[1,3,5,-1,7,9,11,-1,-1,-1,-1,-1,-1],"loss_changes":[3.337858E0,3.2238188E0,7.3804097E0,0E0,3.2188663E0,1.1571468E1,8.36777E0,0E0,0E0,0E0,0E0,0E0,0E0],"parents":[2147483647,0,0,1,1,2,2,4,4,5,5,6,6],"right_children":[2,4,6,-1,8,10,12,-1,-1,-1,-1,-1,-1],"split_conditions":[-5.5E0,5E0,-2.6E0,-7.057136E-2,-6.6E0,9.7E0,-2.5E0,-6.253613E-2,7.688274E-2,1.1685278E-2,-1.1116918E-1,7.0841394E-2,-2.4660628E-3],"split_indices":[4,3,4,0,4,3,4,0,0,0,0,0,0],"split_type":[0,0,0,0,0,0,0,0,0,0,0,0,0],"sum_hessian":[2.5952252E2,1.420308E1,2.4531944E2,1.3010917E0,1.2901988E1,2.9323086E1,2.1599635E2,1.142096E0,1.1759892E1,1.5139019E1,1.4184066E1,1.5879857E1,2.0011649E2],"tree_param":{"num_deleted":"0","num_feature":"5","num_nodes":"13","size_leaf_vector":"1"}},{"base_weights":[-4.178362E-3,1.3624997E-1,-8.339081E-2,-1.7007107E-3,1.1343876E0,-1.6493592E-1,-4.4766073E-3,9.956006E-3,-1.0050726E-1,5.605484E-2,1.5713415E-1,7.4078403E-3,-4.4021685E-2],"categories":[],"categories_nodes":[],"categories_segments":[],"categories_sizes":[],"default_left":[0,0,0,0,0,0,0,0,0,0,0,0,0],"id":83,"left_children":[1,3,5,7,9,-1,11,-1,-1,-1,-1,-1,-1],"loss_changes":[2.900609E0,1.2952469E1,2.0591118E1,8.597179E0,1.9831533E0,0E0,5.4987755E0,0E0,0E0,0E0,0E0,0E0,0E0],"parents":[2147483647,0,0,1,1,2,2,3,3,4,4,6,6],"right_children":[2,4,6,8,10,-1,12,-1,-1,-1,-1,-1,-1],"split_conditions":[1.02E1,1E1,1.12E1,6.666667E-1,5E-1,-1.6493592E-1,5E0,9.956006E-3,-1.0050726E-1,5.605484E-2,1.5713415E-1,7.4078403E-3,-4.4021685E-2],"split_indices":[1,1,1,4,4,0,0,0,0,0,0,0,0],"split_type":[0,0,0,0,0,0,0,0,0,0,0,0,0],"sum_hessian":[2.587386E2,9.30532E1,1.6568538E2,8.2631195E1,1.0422004E1,6.994107E0,1.5869127E2,7.5874664E1,6.756533E0,5.49216E0,4.9298434E0,1.351555E2,2.3535765E1],"tree_param":{"num_deleted":"0","num_feature":"5","num_nodes":"13","size_leaf_vector":"1"}},{"base_weights":[-4.2631584E-3,-4.2280316E-2,2.8051388E-1,-5.644359E-1,1.7034192E-2,1.4217385E0,-5.5518374E-2,4.1527166E-3,-1.0273856E-1,3.9094925E-2,-7.677396E-3,-6.357192E-2,1.9109833E-1,3.787295E-2,-9.48366E-2],"categories":[],"categories_nodes":[],"categories_segments":[],"categories_sizes":[],"default_left":[0,0,0,0,0,0,0,0,0,0,0,0,0,0,0],"id":84,"left_children":[1,3,5,7,9,11,13,-1,-1,-1,-1,-1,-1,-1,-1],"loss_changes":[2.8089237E0,7.095766E0,1.1797896E1,6.598196E0,7.270751E0,8.249797E0,9.8854E0,0E0,0E0,0E0,0E0,0E0,0E0,0E0,0E0],"parents":[2147483647,0,0,1,1,2,2,3,3,4,4,5,5,6,6],"right_children":[2,4,6,8,10,12,14,-1,-1,-1,-1,-1,-1,-1,-1],"split_conditions":[1.1E1,8.4E0,1.12E1,7E0,1.02E1,1E1,9E0,4.1527166E-3,-1.0273856E-1,3.9094925E-2,-7.677396E-3,-6.357192E-2,1.9109833E-1,3.787295E-2,-9.48366E-2],"split_indices":[2,1,2,2,1,0,0,0,0,0,0,0,0,0,0],"split_type":[0,0,0,0,0,0,0,0,0,0,0,0,0,0,0],"sum_hessian":[2.5735547E2,2.2779663E2,2.9558855E1,2.2368345E1,2.0542828E2,5.988818E0,2.3570038E1,1.0082058E1,1.2286286E1,4.0566097E1,1.6486218E2,1.0929914E0,4.895827E0,1.6244926E1,7.32511E0],"tree_param":{"num_deleted":"0","num_feature":"5","num_nodes":"15","size_leaf_vector":"1"}},{"base_weights":[-4.229419E-3,9.240401E-3,-7.806205E-1,-3.1505067E-2,2.6603115E-1,-1.6400643E-3,-1.010971E-1,3.3432324E-3,-4.0424865E-2,-4.0088603E-3,7.0649005E-2],"categories":[],"categories_nodes":[],"categories_segments":[],"categories_sizes":[],"default_left":[0,0,0,0,0,0,0,0,0,0,0],"id":85,"left_children":[1,3,5,7,9,-1,-1,-1,-1,-1,-1],"loss_changes":[2.6995206E0,2.6664352E0,7.583389E-1,5.342163E0,4.7333384E0,0E0,0E0,0E0,0E0,0E0,0E0],"parents":[2147483647,0,0,1,1,2,2,3,3,4,4],"right_children":[2,4,6,8,10,-1,-1,-1,-1,-1,-1],"split_conditions":[2.1E1,1.92E1,1.6E0,1E0,1.5E0,-1.6400643E-3,-1.010971E-1,3.3432324E-3,-4.0424865E-2,-4.0088603E-3,7.0649005E-2],"split_indices":[3,1,2,4,4,0,0,0,0,0,0],"split_type":[0,0,0,0,0,0,0,0,0,0,0],"sum_hessian":[2.5644373E2,2.5304173E2,3.4019918E0,2.1914664E2,3.3895096E1,1.0360266E0,2.3659651E0,1.8740776E2,3.1738873E1,2.053336E1,1.3361737E1],"tree_param":{"num_deleted":"0","num_feature":"5","num_nodes":"11","size_leaf_vector":"1"}},{"base_weights":[-4.008133E-3,-1.8495627E-2,7.418831E-2,1.4692359E-1,-9.535517E-2,2.3414388E-2,-9.787049E-2,-8.7630644E-2,-3.8714785E-4],"categories":[],"categories_nodes":[],"categories_segments":[],"categories_sizes":[],"default_left":[0,0,0,0,0,0,0,0,0],"id":86,"left_children":[1,3,-1,5,7,-1,-1,-1,-1],"loss_changes":[2.7856307E0,3.2256005E0,0E0,8.135204E0,1.2361748E1,0E0,0E0,0E0,0E0],"parents":[2147483647,0,0,1,1,3,3,4,4],"right_children":[2,4,-1,6,8,-1,-1,-1,-1],"split_conditions":[6E0,8.4E0,7.418831E-2,1E0,1.08E1,2.3414388E-2,-9.787049E-2,-8.7630644E-2,-3.8714785E-4],"split_indices":[4,3,0,4,3,0,0,0,0],"split_type":[0,0,0,0,0,0,0,0,0],"sum_hessian":[2.555135E2,2.5160182E2,3.9116757E0,7.952797E1,1.7207385E2,7.454386E1,4.984107E0,1.714412E1,1.5492973E2],"tree_param":{"num_deleted":"0","num_feature":"5","num_nodes":"9","size_leaf_vector":"1"}},{"base_weights":[-3.988149E-3,4.1052455E-1,-2.88744E-2,-6.415636E-2,5.664205E-1,-1.1426669E-1,-4.6411646E-3,1.5066914E-2,1.1893916E-1,3.147424E-2,-4.151202E-3],"categories":[],"categories_nodes":[],"categories_segments":[],"categories_sizes":[],"default_left":[0,0,0,0,0,0,0,0,0,0,0],"id":87,"left_children":[1,3,5,-1,7,-1,9,-1,-1,-1,-1],"loss_changes":[2.6559548E0,2.7552216E0,6.546338E0,0E0,3.247892E0,0E0,2.8224685E0,0E0,0E0,0E0,0E0],"parents":[2147483647,0,0,1,1,2,2,4,4,6,6],"right_children":[2,4,6,-1,8,-1,10,-1,-1,-1,-1],"split_conditions":[-5.5E0,6E0,-4.2E0,-6.415636E-2,1.2E1,-1.1426669E-1,1.25E0,1.5066914E-2,1.1893916E-1,3.147424E-2,-4.151202E-3],"split_indices":[4,1,4,0,2,0,3,0,0,0,0],"split_type":[0,0,0,0,0,0,0,0,0,0,0],"sum_hessian":[2.5531898E2,1.3582859E1,2.4173613E2,1.3508831E0,1.2231976E1,4.1647687E0,2.3757135E2,8.080895E0,4.15108E0,2.3807669E1,2.1376369E2],"tree_param":{"num_deleted":"0","num_feature":"5","num_nodes":"11","size_leaf_vector":"1"}},{"base_weights":[-3.693708E-3,8.4070675E-3,-8.3335504E-2,-1.8893465E-2,1.0733383E-1,1.3124844E-3,-9.344715E-2],"categories":[],"categories_nodes":[],"categories_segments":[],"categories_sizes":[],"default_left":[0,0,0,0,0,0,0],"id":88,"left_children":[1,3,-1,5,-1,-1,-1],"loss_changes":[2.5802512E0,7.393715E0,0E0,7.2900667E0,0E0,0E0,0E0],"parents":[2147483647,0,0,1,1,3,3],"right_children":[2,4,-1,6,-1,-1,-1],"split_conditions":[1.55E1,1.54E1,-8.3335504E-2,1.22E1,1.0733383E-1,1.3124844E-3,-9.344715E-2],"split_indices":[2,2,0,2,0,0,0],"split_type":[0,0,0,0,0,0,0],"sum_hessian":[2.5531091E2,2.5261632E2,2.6945925E0,2.4725984E2,5.356485E0,2.3985754E2,7.4022965E0],"tree_param":{"num_deleted":"0","num_feature":"5","num_nodes":"7","size_leaf_vector":"1"}},{"base_weights":[-3.7329975E-3,-1.7171817E-2,7.00466E-2,-5.1404196E-3,-9.646582E-2,-6.6670305E-3,2.0113785E-2],"categories":[],"categories_nodes":[],"categories_segments":[],"categories_sizes":[],"default_left":[0,0,0,0,0,0,0],"id":89,"left_children":[1,3,-1,5,-1,-1,-1],"loss_changes":[2.4290104E0,2.8630745E0,0E0,3.179393E0,0E0,0E0,0E0],"parents":[2147483647,0,0,1,1,3,3],"right_children":[2,4,-1,6,-1,-1,-1],"split_conditions":[6E0,4.25E0,7.00466E-2,1.72E1,-9.646582E-2,-6.6670305E-3,2.0113785E-2],"split_indices":[4,4,0,1,0,0,0],"split_type":[0,0,0,0,0,0,0],"sum_hessian":[2.5439764E2,2.5059102E2,3.806623E0,2.4844167E2,2.1493437E0,1.918826E2,5.6559074E1],"tree_param":{"num_deleted":"0","num_feature":"5","num_nodes":"7","size_leaf_vector":"1"}},{"base_weights":[-3.3727235E-3,9.381384E-3,-7.5207156E-1,-1.0106756E-1,1.8824112E-2,-2.270026E-3,-9.7629294E-2,2.275735E-2,-3.6802187E-3],"categories":[],"categories_nodes":[],"categories_segments":[],"categories_sizes":[],"default_left":[0,0,0,0,0,0,0,0,0],"id":90,"left_children":[1,3,5,-1,7,-1,-1,-1,-1],"loss_changes":[2.437592E0,2.4391701E0,6.770849E-1,0E0,2.9106085E0,0E0,0E0,0E0,0E0],"parents":[2147483647,0,0,1,1,2,2,4,4],"right_children":[2,4,6,-1,8,-1,-1,-1,-1],"split_conditions":[2.1E1,1E0,1.6E0,-1.0106756E-1,2E0,-2.270026E-3,-9.7629294E-2,2.275735E-2,-3.6802187E-3],"split_indices":[3,0,2,0,0,0,0,0,0],"split_type":[0,0,0,0,0,0,0,0,0],"sum_hessian":[2.5353345E2,2.5025778E2,3.2756789E0,1.3228593E0,2.4893492E2,1.0291593E0,2.2465196E0,5.1727074E1,1.9720784E2],"tree_param":{"num_deleted":"0","num_feature":"5","num_nodes":"9","size_leaf_vector":"1"}},{"base_weights":[-3.7536537E-3,3.9458868E-1,-2.7290896E-2,-6.2987775E-2,5.38204E-1,-1.11230314E-1,-4.939043E-3,6.818092E-2,-5.802674E-2,3.0123223E-2,-3.9952584E-3],"categories":[],"categories_nodes":[],"categories_segments":[],"categories_sizes":[],"default_left":[0,0,0,0,0,0,0,0,0,0,0],"id":91,"left_children":[1,3,5,-1,7,-1,9,-1,-1,-1,-1],"loss_changes":[2.3879633E0,2.4297426E0,5.8230796E0,0E0,2.4840426E0,0E0,2.5472069E0,0E0,0E0,0E0,0E0],"parents":[2147483647,0,0,1,1,2,2,4,4,6,6],"right_children":[2,4,6,-1,8,-1,10,-1,-1,-1,-1],"split_conditions":[-5.5E0,-6.6E0,-4.2E0,-6.2987775E-2,7E0,-1.11230314E-1,1.25E0,6.818092E-2,-5.802674E-2,3.0123223E-2,-3.9952584E-3],"split_indices":[4,4,4,0,0,0,3,0,0,0,0],"split_type":[0,0,0,0,0,0,0,0,0,0,0],"sum_hessian":[2.5254364E2,1.3210237E1,2.393334E2,1.2079039E0,1.2002333E1,3.8466063E0,2.3548679E2,1.0982637E1,1.019696E0,2.3386175E1,2.1210062E2],"tree_param":{"num_deleted":"0","num_feature":"5","num_nodes":"11","size_leaf_vector":"1"}},{"base_weights":[-3.9507314E-3,7.322826E-3,-8.109186E-2,-1.7604887E-2,9.7906336E-2,1.1953464E-3,-9.209052E-2],"categories":[],"categories_nodes":[],"categories_segments":[],"categories_sizes":[],"default_left":[0,0,0,0,0,0,0],"id":92,"left_children":[1,3,-1,5,-1,-1,-1],"loss_changes":[2.3106215E0,6.09328E0,0E0,6.5670414E0,0E0,0E0,0E0],"parents":[2147483647,0,0,1,1,3,3],"right_children":[2,4,-1,6,-1,-1,-1],"split_conditions":[1.55E1,1.54E1,-8.109186E-2,1.22E1,9.7906336E-2,1.1953464E-3,-9.209052E-2],"split_indices":[2,2,0,2,0,0,0],"split_type":[0,0,0,0,0,0,0],"sum_hessian":[2.5233435E2,2.4983502E2,2.4993365E0,2.445437E2,5.2913094E0,2.3775066E2,6.7930565E0],"tree_param":{"num_deleted":"0","num_feature":"5","num_nodes":"7","size_leaf_vector":"1"}},{"base_weights":[-3.9754007E-3,7.007878E-3,-8.0353804E-2,-1.5436732E-2,8.010854E-1,6.6139625E-4,-1.01384975E-1,1.0062788E-1,2.5061062E-2],"categories":[],"categories_nodes":[],"categories_segments":[],"categories_sizes":[],"default_left":[0,0,0,0,0,0,0,0,0],"id":93,"left_children":[1,3,-1,5,7,-1,-1,-1,-1],"loss_changes":[2.2228909E0,4.4690022E0,0E0,5.382074E0,5.263362E-1,0E0,0E0,0E0,0E0],"parents":[2147483647,0,0,1,1,3,3,4,4],"right_children":[2,4,-1,6,8,-1,-1,-1,-1],"split_conditions":[1.5E1,1.4E1,-8.0353804E-2,1.1E1,-3E0,6.6139625E-4,-1.01384975E-1,1.0062788E-1,2.5061062E-2],"split_indices":[0,0,0,0,4,0,0,0,0],"split_type":[0,0,0,0,0,0,0,0,0],"sum_hessian":[2.5148297E2,2.4905307E2,2.429909E0,2.4316069E2,5.8923793E0,2.3887827E2,4.2824287E0,3.6891885E0,2.2031906E0],"tree_param":{"num_deleted":"0","num_feature":"5","num_nodes":"9","size_leaf_vector":"1"}},{"base_weights":[-3.8655146E-3,8.0475435E-3,-7.174954E-1,-1.493522E-1,6.7423366E-2,-1.59926E-3,-9.424492E-2,6.31923E-3,-1.0933603E-1,2.9625228E-2,-5.1054247E-3],"categories":[],"categories_nodes":[],"categories_segments":[],"categories_sizes":[],"default_left":[0,0,0,0,0,0,0,0,0,0,0],"id":94,"left_children":[1,3,5,7,9,-1,-1,-1,-1,-1,-1],"loss_changes":[2.14617E0,2.3336213E0,6.390281E-1,1.3795047E1,4.9279795E0,0E0,0E0,0E0,0E0,0E0,0E0],"parents":[2147483647,0,0,1,1,2,2,3,3,4,4],"right_children":[2,4,6,8,10,-1,-1,-1,-1,-1,-1],"split_conditions":[2.1E1,-1.8E0,1.6E0,-2.5E0,1.02E1,-1.59926E-3,-9.424492E-2,6.31923E-3,-1.0933603E-1,2.9625228E-2,-5.1054247E-3],"split_indices":[3,4,2,4,1,0,0,0,0,0,0],"split_type":[0,0,0,0,0,0,0,0,0,0,0],"sum_hessian":[2.5076645E2,2.4762148E2,3.1449733E0,6.740959E1,1.8021188E2,1.0237069E0,2.1212661E0,5.5783035E1,1.16265545E1,6.0964294E1,1.1924758E2],"tree_param":{"num_deleted":"0","num_feature":"5","num_nodes":"11","size_leaf_vector":"1"}},{"base_weights":[-4.1859373E-3,-1.6887672E-2,6.647671E-2,-5.589352E-3,-9.0444215E-2,-6.4422907E-3,1.9239588E-2],"categories":[],"categories_nodes":[],"categories_segments":[],"categories_sizes":[],"default_left":[0,0,0,0,0,0,0],"id":95,"left_children":[1,3,-1,5,-1,-1,-1],"loss_changes":[2.1534443E0,2.4858284E0,0E0,2.8811061E0,0E0,0E0,0E0],"parents":[2147483647,0,0,1,1,3,3],"right_children":[2,4,-1,6,-1,-1,-1],"split_conditions":[6E0,4.25E0,6.647671E-2,1.72E1,-9.0444215E-2,-6.4422907E-3,1.9239588E-2],"split_indices":[4,4,0,1,0,0,0],"split_type":[0,0,0,0,0,0,0],"sum_hessian":[2.5111864E2,2.4739597E2,3.722672E0,2.4527992E2,2.1160476E0,1.8960982E2,5.5670097E1],"tree_param":{"num_deleted":"0","num_feature":"5","num_nodes":"7","size_leaf_vector":"1"}},{"base_weights":[-3.77757E-3,6.7385263E-3,-7.907944E-2,-1.5972184E-2,9.02208E-2,1.0880909E-3,-9.0522885E-2],"categories":[],"categories_nodes":[],"categories_segments":[],"categories_sizes":[],"default_left":[0,0,0,0,0,0,0],"id":96,"left_children":[1,3,-1,5,-1,-1,-1],"loss_changes":[2.0853264E0,5.078181E0,0E0,5.832096E0,0E0,0E0,0E0],"parents":[2147483647,0,0,1,1,3,3],"right_children":[2,4,-1,6,-1,-1,-1],"split_conditions":[1.55E1,1.54E1,-7.907944E-2,1.22E1,9.02208E-2,1.0880909E-3,-9.0522885E-2],"split_indices":[2,2,0,2,0,0,0],"split_type":[0,0,0,0,0,0,0],"sum_hessian":[2.5031837E2,2.479961E2,2.3222785E0,2.428199E2,5.176185E0,2.3666116E2,6.1587486E0],"tree_param":{"num_deleted":"0","num_feature":"5","num_nodes":"7","size_leaf_vector":"1"}},{"base_weights":[-3.8222787E-3,3.7590697E-1,-2.5503257E-2,-2.3809727E-1,6.196712E-1,-1.0833148E-1,-4.86099E-3,3.5768203E-2,-8.251374E-2,1.9688303E-2,9.743819E-2,-2.2540214E-2,4.393541E-3],"categories":[],"categories_nodes":[],"categories_segments":[],"categories_sizes":[],"default_left":[0,0,0,0,0,0,0,0,0,0,0,0,0],"id":97,"left_children":[1,3,5,7,9,-1,11,-1,-1,-1,-1,-1,-1],"loss_changes":[2.0721977E0,2.182383E0,5.1902456E0,1.8990719E0,1.3092325E0,0E0,2.5322917E0,0E0,0E0,0E0,0E0,0E0,0E0],"parents":[2147483647,0,0,1,1,2,2,3,3,4,4,6,6],"right_children":[2,4,6,8,10,-1,