{"learner":{"attributes":{"scikit_learn":"{\"_estimator_type\": \"classifier\"}"},"feature_names":["grid","driver_form_points","driver_form_position","constructor_form_points","avg_positions_gained"],"feature_types":["int","float","float","float","float"],"gradient_booster":{"model":{"cats":{"enc":[],"feature_segments":[],"sorted_idx":[]},"gbtree_model_param":{"num_parallel_tree":"1","num_trees":"100"},"iteration_indptr":[0,1,2,3,4,5,6,7,8,9,10,11,12,13,14,15,16,17,18,19,20,21,22,23,24,25,26,27,28,29,30,31,32,33,34,35,36,37,38,39,40,41,42,43,44,45,46,47,48,49,50,51,52,53,54,55,56,57,58,59,60,61,62,63,64,65,66,67,68,69,70,71,72,73,74,75,76,77,78,79,80,81,82,83,84,85,86,87,88,89,90,91,92,93,94,95,96,97,98,99,100],"tree_info":[0,0,0,0,0,0,0,0,0,0,0,0,0,0,0,0,0,0,0,0,0,0,0,0,0,0,0,0,0,0,0,0,0,0,0,0,0,0,0,0,0,0,0,0,0,0,0,0,0,0,0,0,0,0,0,0,0,0,0,0,0,0,0,0,0,0,0,0,0,0,0,0,0,0,0,0,0,0,0,0,0,0,0,0,0,0,0,0,0,0,0,0,0,0,0,0,0,0,0,0],"trees":[{"base_weights":[-0E0,-1.7479631E0,1.3075986E0,-5.521472E-1,-1.8596908E0,1.6394763E0,-7.933194E-2,6.818182E-2,-1.8987343E-1,-1.6329704E-1,-1.9923298E-1,1.1630171E-1,1.7593414E-1,-1.0042194E-1,8.130082E-2],"categories":[],"categories_nodes":[],"categories_segments":[],"categories_sizes":[],"default_left":[0,0,0,0,0,0,0,0,0,0,0,0,0,0,0],"id":0,"left_children":[1,3,5,7,9,11,13,-1,-1,-1,-1,-1,-1,-1,-1],"loss_changes":[2.4581992E3,6.046521E1,2.8332434E2,6.9006485E1,9.391968E0,2.6309326E1,9.9647804E1,0E0,0E0,0E0,0E0,0E0,0E0,0E0,0E0],"parents":[2147483647,0,0,1,1,2,2,3,3,4,4,5,5,6,6],"right_children":[2,4,6,8,10,12,14,-1,-1,-1,-1,-1,-1,-1,-1],"split_conditions":[2.5E1,4E0,4E0,9.333333E0,1.1E1,4.2E1,4.3E1,6.818182E-2,-1.8987343E-1,-1.6329704E-1,-1.9923298E-1,1.1630171E-1,1.7593414E-1,-1.0042194E-1,8.130082E-2],"split_indices":[1,0,0,2,0,1,1,0,0,0,0,0,0,0,0],"split_type":[0,0,0,0,0,0,0,0,0,0,0,0,0,0,0],"sum_hessian":[1.0735E3,4.5925E2,6.1425E2,3.975E1,4.195E2,4.955E2,1.1875E2,2.1E1,1.875E1,1.5975E2,2.5975E2,1.0175E2,3.9375E2,5.825E1,6.05E1],"tree_param":{"num_deleted":"0","num_feature":"5","num_nodes":"15","size_leaf_vector":"1"}},{"base_weights":[-2.4396308E-4,-1.587893E0,1.184562E0,-5.025392E-1,-1.6896768E0,1.486607E0,-7.1724474E-2,6.1744507E-2,-1.7337608E-1,-1.03790164E-1,-1.7286983E-1,1.1394562E-1,1.6269808E-1,-9.0782166E-2,7.342656E-2],"categories":[],"categories_nodes":[],"categories_segments":[],"categories_sizes":[],"default_left":[0,0,0,0,0,0,0,0,0,0,0,0,0,0,0],"id":1,"left_children":[1,3,5,7,9,11,13,-1,-1,-1,-1,-1,-1,-1,-1],"loss_changes":[2.0090912E3,4.9574097E1,2.321922E2,5.69974E1,8.808472E0,2.2176636E1,8.119833E1,0E0,0E0,0E0,0E0,0E0,0E0,0E0,0E0],"parents":[2147483647,0,0,1,1,2,2,3,3,4,4,5,5,6,6],"right_children":[2,4,6,8,10,12,14,-1,-1,-1,-1,-1,-1,-1,-1],"split_conditions":[2.5E1,4E0,4E0,9.333333E0,-5.6666665E0,4.6E1,4.3E1,6.1744507E-2,-1.7337608E-1,-1.03790164E-1,-1.7286983E-1,1.1394562E-1,1.6269808E-1,-9.0782166E-2,7.342656E-2],"split_indices":[1,0,0,2,4,1,1,0,0,0,0,0,0,0,0],"split_type":[0,0,0,0,0,0,0,0,0,0,0,0,0,0,0],"sum_hessian":[1.0660657E3,4.5543674E2,6.1062897E2,3.955763E1,4.158791E2,4.9212543E2,1.18503525E2,2.0975613E1,1.8582016E1,2.505101E1,3.908281E2,1.4432375E2,3.478017E2,5.8103386E1,6.0400135E1],"tree_param":{"num_deleted":"0","num_feature":"5","num_nodes":"15","size_leaf_vector":"1"}},{"base_weights":[-4.918324E-4,-1.4631106E0,1.084097E0,-4.6153882E-1,-1.5579613E0,1.3638412E0,-6.5106176E-2,5.6022227E-2,-1.6068558E-1,-1.3442491E-1,-1.6844456E-1,9.4835006E-2,1.470021E-1,-8.241736E-2,6.649995E-2],"categories":[],"categories_nodes":[],"categories_segments":[],"categories_sizes":[],"default_left":[0,0,0,0,0,0,0,0,0,0,0,0,0,0,0],"id":2,"left_children":[1,3,5,7,9,11,13,-1,-1,-1,-1,-1,-1,-1,-1],"loss_changes":[1.6638696E3,4.1708374E1,1.9370782E2,4.777588E1,8.752258E0,1.997638E1,6.642031E1,0E0,0E0,0E0,0E0,0E0,0E0,0E0,0E0],"parents":[2147483647,0,0,1,1,2,2,3,3,4,4,5,5,6,6],"right_children":[2,4,6,8,10,12,14,-1,-1,-1,-1,-1,-1,-1,-1],"split_conditions":[2.5E1,4E0,4E0,9.333333E0,1.1E1,4.2E1,4.3E1,5.6022227E-2,-1.6068558E-1,-1.3442491E-1,-1.6844456E-1,9.4835006E-2,1.470021E-1,-8.241736E-2,6.649995E-2],"split_indices":[1,0,0,2,0,1,1,0,0,0,0,0,0,0,0],"split_type":[0,0,0,0,0,0,0,0,0,0,0,0,0,0,0],"sum_hessian":[1.0468734E3,4.4560513E2,6.012683E2,3.905646E1,4.0654868E2,4.8340814E2,1.1786017E2,2.0911623E1,1.8144836E1,1.5547702E2,2.5107164E2,1.0041329E2,3.8299487E2,5.7720833E1,6.0139336E1],"tree_param":{"num_deleted":"0","num_feature":"5","num_nodes":"15","size_leaf_vector":"1"}},{"base_weights":[-8.455147E-4,-1.3627757E0,9.995859E-1,-5.0724838E-2,-1.4264472E0,1.2620567E0,-5.9269555E-2,-1.4881064E-1,1.0339152E-1,-3.300935E-2,-1.4610152E-1,1.4509615E-1,1.0151785E-1,-7.50522E-2,6.03466E-2],"categories":[],"categories_nodes":[],"categories_segments":[],"categories_sizes":[],"default_left":[0,0,0,0,0,0,0,0,0,0,0,0,0,0,0],"id":3,"left_children":[1,3,5,7,9,11,13,-1,-1,-1,-1,-1,-1,-1,-1],"loss_changes":[1.3918364E3,3.606714E1,1.637461E2,3.436976E1,1.5152527E1,2.0538452E1,5.448281E1,0E0,0E0,0E0,0E0,0E0,0E0,0E0,0E0],"parents":[2147483647,0,0,1,1,2,2,3,3,4,4,5,5,6,6],"right_children":[2,4,6,8,10,12,14,-1,-1,-1,-1,-1,-1,-1,-1],"split_conditions":[2.5E1,2E0,4E0,3.1E1,1E0,2E0,4.3E1,-1.4881064E-1,1.0339152E-1,-3.300935E-2,-1.4610152E-1,1.4509615E-1,1.0151785E-1,-7.50522E-2,6.03466E-2],"split_indices":[1,0,0,3,2,0,1,0,0,0,0,0,0,0,0],"split_type":[0,0,0,0,0,0,0,0,0,0,0,0,0,0,0],"sum_hessian":[1.0195182E3,4.316002E2,5.87918E2,2.0058567E1,4.1154163E2,4.7097906E2,1.1693894E2,8.466565E0,1.1592003E1,1.2901713E1,3.9863992E2,2.6405432E2,2.0692474E2,5.7173183E1,5.9765755E1],"tree_param":{"num_deleted":"0","num_feature":"5","num_nodes":"15","size_leaf_vector":"1"}},{"base_weights":[-1.0174579E-3,-1.2781554E0,9.26314E-1,-3.7976816E-1,-1.3663658E0,1.1747293E0,-5.4065946E-2,5.0312538E-2,-1.4342147E-1,-1.1457167E-1,-1.4996661E-1,8.453908E-2,1.312665E-1,-4.7463913E-2,9.015014E-2],"categories":[],"categories_nodes":[],"categories_segments":[],"categories_sizes":[],"default_left":[0,0,0,0,0,0,0,0,0,0,0,0,0,0,0],"id":4,"left_children":[1,3,5,7,9,11,13,-1,-1,-1,-1,-1,-1,-1,-1],"loss_changes":[1.171739E3,3.2462646E1,1.3965692E2,3.6652737E1,9.417114E0,1.9666626E1,4.7380768E1,0E0,0E0,0E0,0E0,0E0,0E0,0E0,0E0],"parents":[2147483647,0,0,1,1,2,2,3,3,4,4,5,5,6,6],"right_children":[2,4,6,8,10,12,14,-1,-1,-1,-1,-1,-1,-1,-1],"split_conditions":[2.5E1,4E0,4E0,9.333333E0,1.1E1,4.6E1,5.2E1,5.0312538E-2,-1.4342147E-1,-1.1457167E-1,-1.4996661E-1,8.453908E-2,1.312665E-1,-4.7463913E-2,9.015014E-2],"split_indices":[1,0,0,2,0,1,1,0,0,0,0,0,0,0,0],"split_type":[0,0,0,0,0,0,0,0,0,0,0,0,0,0,0],"sum_hessian":[9.8736865E2,4.1518704E2,5.721816E2,3.7595634E1,3.7759143E2,4.5635025E2,1.1583136E2,2.0746956E1,1.6848679E1,1.4581764E2,2.3177379E2,1.3681544E2,3.195348E2,8.07807E1,3.505066E1],"tree_param":{"num_deleted":"0","num_feature":"5","num_nodes":"15","size_leaf_vector":"1"}},{"base_weights":[-1.318057E-3,-1.2076049E0,8.6170006E-1,-3.5420454E-1,-1.2932616E0,1.0991195E0,-4.852717E-2,4.5762897E-2,-1.3648973E-1,-6.1891165E-2,-1.3359496E-1,1.2902547E-1,8.538007E-2,-1.0123497E-1,3.040714E-2],"categories":[],"categories_nodes":[],"categories_segments":[],"categories_sizes":[],"default_left":[0,0,0,0,0,0,0,0,0,0,0,0,0,0,0],"id":5,"left_children":[1,3,5,7,9,11,13,-1,-1,-1,-1,-1,-1,-1,-1],"loss_changes":[9.929289E2,2.8619446E1,1.2020798E2,3.1525957E1,9.5685425E0,1.9577393E1,3.9722794E1,0E0,0E0,0E0,0E0,0E0,0E0,0E0,0E0],"parents":[2147483647,0,0,1,1,2,2,3,3,4,4,5,5,6,6],"right_children":[2,4,6,8,10,12,14,-1,-1,-1,-1,-1,-1,-1,-1],"split_conditions":[2.5E1,4E0,4E0,9.333333E0,-5.6666665E0,2E0,3.4E1,4.5762897E-2,-1.3648973E-1,-6.1891165E-2,-1.3359496E-1,1.2902547E-1,8.538007E-2,-1.0123497E-1,3.040714E-2],"split_indices":[1,0,0,2,4,0,1,0,0,0,0,0,0,0,0],"split_type":[0,0,0,0,0,0,0,0,0,0,0,0,0,0,0],"sum_hessian":[9.517791E2,3.9677963E2,5.549995E2,3.6660942E1,3.6011868E2,4.4001938E2,1.1498012E2,2.0634005E1,1.602694E1,2.236184E1,3.3775684E2,2.4492859E2,1.9509079E2,3.0295834E1,8.468429E1],"tree_param":{"num_deleted":"0","num_feature":"5","num_nodes":"15","size_leaf_vector":"1"}},{"base_weights":[-1.7369024E-3,-1.1462597E0,8.030937E-1,2.04529E-3,-1.2058487E0,1.0314838E0,-4.48618E-2,-1.3106528E-1,9.047368E-2,-9.645051E-2,-1.3757987E-1,6.071152E-2,1.1471172E-1,-3.628831E-2,9.405554E-2],"categories":[],"categories_nodes":[],"categories_segments":[],"categories_sizes":[],"default_left":[0,0,0,0,0,0,0,0,0,0,0,0,0,0,0],"id":6,"left_children":[1,3,5,7,9,11,13,-1,-1,-1,-1,-1,-1,-1,-1],"loss_changes":[8.444555E2,2.590155E1,1.0428592E2,2.4494755E1,1.3431763E1,2.0113586E1,3.6433517E1,0E0,0E0,0E0,0E0,0E0,0E0,0E0,0E0],"parents":[2147483647,0,0,1,1,2,2,3,3,4,4,5,5,6,6],"right_children":[2,4,6,8,10,12,14,-1,-1,-1,-1,-1,-1,-1,-1],"split_conditions":[2.5E1,2E0,4E0,3.1E1,1.1E1,4.2E1,5.55E1,-1.3106528E-1,9.047368E-2,-9.645051E-2,-1.3757987E-1,6.071152E-2,1.1471172E-1,-3.628831E-2,9.405554E-2],"split_indices":[1,0,0,3,0,1,1,0,0,0,0,0,0,0,0],"split_type":[0,0,0,0,0,0,0,0,0,0,0,0,0,0,0],"sum_hessian":[9.1474414E2,3.774958E2,5.3724835E2,1.8670649E1,3.5882513E2,4.2307898E2,1.1416941E2,7.4234686E0,1.124718E1,1.5102786E2,2.0779729E2,9.1934456E1,3.3114453E2,8.679123E1,2.7378176E1],"tree_param":{"num_deleted":"0","num_feature":"5","num_nodes":"15","size_leaf_vector":"1"}},{"base_weights":[-1.9261644E-3,-1.0910087E0,7.5046843E-1,-2.9538813E-1,-1.1755545E0,1.0600836E0,1.5598466E-1,4.2311117E-2,-1.2701067E-1,-9.388028E-2,-1.326472E-1,7.953236E-2,1.1676174E-1,-4.8422508E-2,6.340178E-2],"categories":[],"categories_nodes":[],"categories_segments":[],"categories_sizes":[],"default_left":[0,0,0,0,0,0,0,0,0,0,0,0,0,0,0],"id":7,"left_children":[1,3,5,7,9,11,13,-1,-1,-1,-1,-1,-1,-1,-1],"loss_changes":[7.2044464E2,2.3816895E1,9.554346E1,2.5638844E1,1.0345062E1,8.800934E0,5.516333E1,0E0,0E0,0E0,0E0,0E0,0E0,0E0,0E0],"parents":[2147483647,0,0,1,1,2,2,3,3,4,4,5,5,6,6],"right_children":[2,4,6,8,10,12,14,-1,-1,-1,-1,-1,-1,-1,-1],"split_conditions":[2.5E1,4E0,3E0,9.333333E0,1.1E1,4.6E1,4.3E1,4.2311117E-2,-1.2701067E-1,-9.388028E-2,-1.326472E-1,7.953236E-2,1.1676174E-1,-4.8422508E-2,6.340178E-2],"split_indices":[1,0,0,2,0,1,1,0,0,0,0,0,0,0,0],"split_type":[0,0,0,0,0,0,0,0,0,0,0,0,0,0,0],"sum_hessian":[8.772139E2,3.5823004E2,5.189839E2,3.4842075E1,3.2338797E2,3.4073914E2,1.7824474E2,2.038298E1,1.4459096E1,1.2870404E2,1.9468394E2,1.0084456E2,2.3989458E2,7.619159E1,1.02053154E2],"tree_param":{"num_deleted":"0","num_feature":"5","num_nodes":"15","size_leaf_vector":"1"}},{"base_weights":[-2.2257718E-3,-1.0427055E0,7.022043E-1,-7.564807E-1,-1.2848237E-1,1.0041134E0,1.4255223E-1,-4.995742E-2,-1.3679944E-1,8.245844E-2,1.1709415E-1,-3.8700633E-2,6.405601E-2],"categories":[],"categories_nodes":[],"categories_segments":[],"categories_sizes":[],"default_left":[0,0,0,0,0,0,0,0,0,0,0,0,0],"id":8,"left_children":[1,3,5,7,-1,9,11,-1,-1,-1,-1,-1,-1],"loss_changes":[6.1675195E2,2.2569702E1,8.463733E1,2.4155182E1,0E0,8.791443E0,4.6925743E1,0E0,0E0,0E0,0E0,0E0,0E0],"parents":[2147483647,0,0,1,1,2,2,3,3,5,5,6,6],"right_children":[2,4,6,8,-1,10,12,-1,-1,-1,-1,-1,-1],"split_conditions":[2.5E1,1.1E1,3E0,5E-1,-1.2848237E-1,5.6E1,8.3E1,-4.995742E-2,-1.3679944E-1,8.245844E-2,1.1709415E-1,-3.8700633E-2,6.405601E-2],"split_indices":[1,0,0,4,0,1,3,0,0,0,0,0,0],"split_type":[0,0,0,0,0,0,0,0,0,0,0,0,0],"sum_hessian":[8.394718E2,3.387057E2,5.007661E2,1.5710513E2,1.8160056E2,3.2477124E2,1.7599484E2,1.11907845E2,4.5197296E1,1.5929333E2,1.6547792E2,8.540355E1,9.059129E1],"tree_param":{"num_deleted":"0","num_feature":"5","num_nodes":"13","size_leaf_vector":"1"}},{"base_weights":[-2.4661229E-3,-1.0250142E0,6.371934E-1,-7.545352E-1,-1.24926604E-1,9.620477E-1,7.3524185E-2,-2.0439863E-2,-1.02370195E-1,1.0888281E-1,7.0968665E-2,-5.0629694E-2,5.5949938E-2],"categories":[],"categories_nodes":[],"categories_segments":[],"categories_sizes":[],"default_left":[0,0,0,0,0,0,0,0,0,0,0,0,0],"id":9,"left_children":[1,3,5,7,-1,9,11,-1,-1,-1,-1,-1,-1],"loss_changes":[5.275233E2,1.788263E1,9.077878E1,2.099665E1,0E0,9.294861E0,5.170209E1,0E0,0E0,0E0,0E0,0E0,0E0],"parents":[2147483647,0,0,1,1,2,2,3,3,5,5,6,6],"right_children":[2,4,6,8,-1,10,12,-1,-1,-1,-1,-1,-1],"split_conditions":[2.3E1,1.1E1,3E0,8E0,-1.24926604E-1,2E0,4.3E1,-2.0439863E-2,-1.02370195E-1,1.0888281E-1,7.0968665E-2,-5.0629694E-2,5.5949938E-2],"split_indices":[1,0,0,3,0,0,1,0,0,0,0,0,0],"split_type":[0,0,0,0,0,0,0,0,0,0,0,0,0],"sum_hessian":[8.0451025E2,3.0936407E2,4.951462E2,1.4220712E2,1.6715694E2,3.1366675E2,1.8147945E2,4.7297497E1,9.490963E1,2.0657411E2,1.07092636E2,8.273081E1,9.874864E1],"tree_param":{"num_deleted":"0","num_feature":"5","num_nodes":"13","size_leaf_vector":"1"}},{"base_weights":[-2.6582358E-3,-9.5144725E-1,6.15794E-1,-6.6062856E-1,-1.2189593E-1,9.035851E-1,1.22013055E-1,-4.0821448E-2,-1.2939991E-1,6.1615545E-2,1.0279514E-1,-3.407418E-2,5.6861706E-2],"categories":[],"categories_nodes":[],"categories_segments":[],"categories_sizes":[],"default_left":[0,0,0,0,0,0,0,0,0,0,0,0,0],"id":10,"left_children":[1,3,5,7,-1,9,11,-1,-1,-1,-1,-1,-1],"loss_changes":[4.5282422E2,2.2885986E1,6.62796E1,2.3147102E1,0E0,9.911926E0,3.598533E1,0E0,0E0,0E0,0E0,0E0,0E0],"parents":[2147483647,0,0,1,1,2,2,3,3,5,5,6,6],"right_children":[2,4,6,8,-1,10,12,-1,-1,-1,-1,-1,-1],"split_conditions":[2.5E1,1.1E1,3E0,5E-1,-1.2189593E-1,4.6E1,8.3E1,-4.0821448E-2,-1.2939991E-1,6.1615545E-2,1.0279514E-1,-3.407418E-2,5.6861706E-2],"split_indices":[1,0,0,4,0,1,3,0,0,0,0,0,0],"split_type":[0,0,0,0,0,0,0,0,0,0,0,0,0],"sum_hessian":[7.6971094E2,3.0352472E2,4.6618625E2,1.4708963E2,1.5643507E2,2.9400244E2,1.7218382E2,1.06350716E2,4.073892E1,9.0589806E1,2.0341263E2,8.467927E1,8.750455E1],"tree_param":{"num_deleted":"0","num_feature":"5","num_nodes":"13","size_leaf_vector":"1"}},{"base_weights":[-2.9241291E-3,-9.403798E-1,5.5929524E-1,-6.6248363E-1,-1.1922709E-1,7.8884214E-1,-1.2788658E-1,-4.2390846E-2,-1.3356078E-1,1.0065776E-1,5.323844E-2,-8.810881E-2,1.9683717E-2],"categories":[],"categories_nodes":[],"categories_segments":[],"categories_sizes":[],"default_left":[0,0,0,0,0,0,0,0,0,0,0,0,0],"id":11,"left_children":[1,3,5,7,-1,9,11,-1,-1,-1,-1,-1,-1],"loss_changes":[3.8956088E2,1.8606522E1,7.2982574E1,2.0952389E1,0E0,1.8811691E1,2.86803E1,0E0,0E0,0E0,0E0,0E0,0E0],"parents":[2147483647,0,0,1,1,2,2,3,3,5,5,6,6],"right_children":[2,4,6,8,-1,10,12,-1,-1,-1,-1,-1,-1],"split_conditions":[2.3E1,1.1E1,4E0,1.3E1,-1.1922709E-1,2E0,3.4E1,-4.2390846E-2,-1.3356078E-1,1.0065776E-1,5.323844E-2,-8.810881E-2,1.9683717E-2],"split_indices":[1,0,0,1,0,0,1,0,0,0,0,0,0],"split_type":[0,0,0,0,0,0,0,0,0,0,0,0,0],"sum_hessian":[7.3712866E2,2.7609305E2,4.610356E2,1.3299634E2,1.4309673E2,3.454824E2,1.1555322E2,9.939689E1,3.359945E1,1.8526523E2,1.6021716E2,3.4294132E1,8.125909E1],"tree_param":{"num_deleted":"0","num_feature":"5","num_nodes":"13","size_leaf_vector":"1"}},{"base_weights":[-3.4115482E-3,-9.0074784E-1,5.2332574E-1,-6.1872584E-1,-1.1692003E-1,8.274949E-1,4.9986884E-2,-3.903723E-2,-1.2931465E-1,6.384715E-2,1.02020256E-1,-4.4059347E-2,4.6785116E-2],"categories":[],"categories_nodes":[],"categories_segments":[],"categories_sizes":[],"default_left":[0,0,0,0,0,0,0,0,0,0,0,0,0],"id":12,"left_children":[1,3,5,7,-1,9,11,-1,-1,-1,-1,-1,-1],"loss_changes":[3.3434518E2,1.908525E1,6.4132744E1,1.9472813E1,0E0,9.230789E0,3.617037E1,0E0,0E0,0E0,0E0,0E0,0E0],"parents":[2147483647,0,0,1,1,2,2,3,3,5,5,6,6],"right_children":[2,4,6,8,-1,10,12,-1,-1,-1,-1,-1,-1],"split_conditions":[2.3E1,1.1E1,3E0,1.3E1,-1.1692003E-1,5.6E1,4.3E1,-3.903723E-2,-1.2931465E-1,6.384715E-2,1.02020256E-1,-4.4059347E-2,4.6785116E-2],"split_indices":[1,0,0,1,0,1,1,0,0,0,0,0,0],"split_type":[0,0,0,0,0,0,0,0,0,0,0,0,0],"sum_hessian":[7.053712E2,2.6064053E2,4.4473065E2,1.2871945E2,1.319211E2,2.7029193E2,1.7443874E2,9.733978E1,3.1379662E1,1.3862766E2,1.3166428E2,8.0212906E1,9.422582E1],"tree_param":{"num_deleted":"0","num_feature":"5","num_nodes":"13","size_leaf_vector":"1"}},{"base_weights":[-3.654373E-3,-8.629878E-1,4.8983452E-1,-5.7760996E-1,-1.1489546E-1,7.063491E-1,-1.1937107E-1,-3.3418607E-2,-1.216836E-1,9.319796E-2,4.541051E-2,-7.96034E-2,1.616218E-2],"categories":[],"categories_nodes":[],"categories_segments":[],"categories_sizes":[],"default_left":[0,0,0,0,0,0,0,0,0,0,0,0,0],"id":13,"left_children":[1,3,5,7,-1,9,11,-1,-1,-1,-1,-1,-1],"loss_changes":[2.8718567E2,1.9496475E1,5.6825768E1,1.9145714E1,0E0,1.7648376E1,2.173854E1,0E0,0E0,0E0,0E0,0E0,0E0],"parents":[2147483647,0,0,1,1,2,2,3,3,5,5,6,6],"right_children":[2,4,6,8,-1,10,12,-1,-1,-1,-1,-1,-1],"split_conditions":[2.3E1,1.1E1,4E0,5E-1,-1.1489546E-1,2E0,3.4E1,-3.3418607E-2,-1.216836E-1,9.319796E-2,4.541051E-2,-7.96034E-2,1.616218E-2],"split_indices":[1,0,0,4,0,0,1,0,0,0,0,0,0],"split_type":[0,0,0,0,0,0,0,0,0,0,0,0,0],"sum_hessian":[6.752136E2,2.4603447E2,4.2917917E2,1.2465552E2,1.2137895E2,3.1652515E2,1.1265401E2,9.13799E1,3.327562E1,1.6565405E2,1.5087111E2,3.251683E1,8.013718E1],"tree_param":{"num_deleted":"0","num_feature":"5","num_nodes":"13","size_leaf_vector":"1"}},{"base_weights":[-4.129099E-3,-8.271706E-1,4.5768964E-1,-5.394582E-1,-1.13108456E-1,7.4715406E-1,3.804422E-2,-2.8706081E-5,-8.2673125E-2,5.475858E-2,9.5885E-2,-3.6036488E-2,4.5933705E-2],"categories":[],"categories_nodes":[],"categories_segments":[],"categories_sizes":[],"default_left":[0,0,0,0,0,0,0,0,0,0,0,0,0],"id":14,"left_children":[1,3,5,7,-1,9,11,-1,-1,-1,-1,-1,-1],"loss_changes":[2.4659651E2,1.9779724E1,5.0454346E1,1.8849586E1,0E0,9.86322E0,2.881717E1,0E0,0E0,0E0,0E0,0E0,0E0],"parents":[2147483647,0,0,1,1,2,2,3,3,5,5,6,6],"right_children":[2,4,6,8,-1,10,12,-1,-1,-1,-1,-1,-1],"split_conditions":[2.3E1,1.1E1,3E0,8E0,-1.13108456E-1,5.6E1,8.3E1,-2.8706081E-5,-8.2673125E-2,5.475858E-2,9.5885E-2,-3.6036488E-2,4.5933705E-2],"split_indices":[1,0,0,3,0,1,3,0,0,0,0,0,0],"split_type":[0,0,0,0,0,0,0,0,0,0,0,0,0],"sum_hessian":[6.4677826E2,2.3218788E2,4.1459036E2,1.20698654E2,1.1148923E2,2.4488936E2,1.6970102E2,4.2302948E1,7.8395706E1,1.2790164E2,1.1698772E2,8.7293625E1,8.2407394E1],"tree_param":{"num_deleted":"0","num_feature":"5","num_nodes":"13","size_leaf_vector":"1"}},{"base_weights":[-4.2054243E-3,5.0460666E-1,-6.842743E-1,6.198316E-2,7.395255E-1,-8.356297E-1,6.43162E-1,5.3917553E-2,-2.5893314E-2,6.210649E-2,9.894543E-2,-4.6689216E-2,-1.1262248E-1,-1.6876364E-1,8.9225516E-2],"categories":[],"categories_nodes":[],"categories_segments":[],"categories_sizes":[],"default_left":[0,0,0,0,0,0,0,0,0,0,0,0,0,0,0],"id":15,"left_children":[1,3,5,7,9,11,13,-1,-1,-1,-1,-1,-1,-1,-1],"loss_changes":[2.1549254E2,3.6996155E1,5.4086044E1,1.9221869E1,6.272957E0,2.5156693E1,1.7671646E1,0E0,0E0,0E0,0E0,0E0,0E0,0E0,0E0],"parents":[2147483647,0,0,1,1,2,2,3,3,4,4,5,5,6,6],"right_children":[2,4,6,8,10,12,14,-1,-1,-1,-1,-1,-1,-1,-1],"split_conditions":[5E0,4.2E1,9.6E1,2E0,6.6E1,-6.666667E-1,3.3333334E-1,5.3917553E-2,-2.5893314E-2,6.210649E-2,9.894543E-2,-4.6689216E-2,-1.1262248E-1,-1.6876364E-1,8.9225516E-2],"split_indices":[0,1,3,0,1,4,4,0,0,0,0,0,0,0,0],"split_type":[0,0,0,0,0,0,0,0,0,0,0,0,0,0,0],"sum_hessian":[6.2076385E2,3.5523962E2,2.655242E2,1.23607605E2,2.3163203E2,2.3868019E2,2.6844015E1,4.9428654E1,7.417895E1,1.5951195E2,7.2120094E1,1.0634508E2,1.3233513E2,2.0342393E0,2.4809776E1],"tree_param":{"num_deleted":"0","num_feature":"5","num_nodes":"15","size_leaf_vector":"1"}},{"base_weights":[-4.1960627E-3,-7.6208866E-1,4.036768E-1,-4.6578687E-1,-1.10416435E-1,8.3568025E-1,1.5451655E-1,-2.3335425E-2,-1.21301614E-1,7.5815613E-3,8.5444145E-2,-2.6068151E-2,5.038762E-2],"categories":[],"categories_nodes":[],"categories_segments":[],"categories_sizes":[],"default_left":[0,0,0,0,0,0,0,0,0,0,0,0,0],"id":16,"left_children":[1,3,5,7,-1,9,11,-1,-1,-1,-1,-1,-1],"loss_changes":[1.8502448E2,2.0711433E1,4.1756657E1,1.9506897E1,0E0,1.9611893E0,3.610778E1,0E0,0E0,0E0,0E0,0E0,0E0],"parents":[2147483647,0,0,1,1,2,2,3,3,5,5,6,6],"right_children":[2,4,6,8,-1,10,12,-1,-1,-1,-1,-1,-1],"split_conditions":[2.3E1,1.1E1,2E0,1.3E1,-1.10416435E-1,-5E0,8.4E1,-2.3335425E-2,-1.21301614E-1,7.5815613E-3,8.5444145E-2,-2.6068151E-2,5.038762E-2],"split_indices":[1,0,0,1,0,4,3,0,0,0,0,0,0],"split_type":[0,0,0,0,0,0,0,0,0,0,0,0,0],"sum_hessian":[5.965497E2,2.084143E2,3.8813535E2,1.1294467E2,9.546964E1,1.411135E2,2.4702187E2,8.714858E1,2.5796087E1,3.521627E0,1.3759186E2,1.1299101E2,1.3403085E2],"tree_param":{"num_deleted":"0","num_feature":"5","num_nodes":"13","size_leaf_vector":"1"}},{"base_weights":[-4.4214274E-3,4.4876143E-1,-6.264401E-1,4.8157323E-2,6.740724E-1,-7.606344E-1,6.834956E-1,1.3150142E-1,-5.549635E-3,5.552223E-2,9.3759775E-2,9.349795E-3,-8.689781E-2,-1.5331434E-1,8.665471E-2],"categories":[],"categories_nodes":[],"categories_segments":[],"categories_sizes":[],"default_left":[0,0,0,0,0,0,0,0,0,0,0,0,0,0,0],"id":17,"left_children":[1,3,5,7,9,11,13,-1,-1,-1,-1,-1,-1,-1,-1],"loss_changes":[1.6245201E2,3.0060646E1,4.32182E1,1.5974106E1,6.1603165E0,2.0514206E1,1.0700721E1,0E0,0E0,0E0,0E0,0E0,0E0,0E0,0E0],"parents":[2147483647,0,0,1,1,2,2,3,3,4,4,5,5,6,6],"right_children":[2,4,6,8,10,12,14,-1,-1,-1,-1,-1,-1,-1,-1],"split_conditions":[5E0,4.2E1,5.55E1,1.3333334E0,6.6E1,-4.6666665E0,6E0,1.3150142E-1,-5.549635E-3,5.552223E-2,9.3759775E-2,9.349795E-3,-8.689781E-2,-1.5331434E-1,8.665471E-2],"split_indices":[0,1,1,2,1,4,0,0,0,0,0,0,0,0,0],"split_type":[0,0,0,0,0,0,0,0,0,0,0,0,0,0,0],"sum_hessian":[5.743022E2,3.3240274E2,2.4189944E2,1.2009208E2,2.1231064E2,2.1980154E2,2.2097897E1,8.198861E0,1.1189322E2,1.4846135E2,6.384929E1,2.4757973E1,1.9504356E2,1.123045E0,2.0974852E1],"tree_param":{"num_deleted":"0","num_feature":"5","num_nodes":"15","size_leaf_vector":"1"}},{"base_weights":[-4.0155174E-3,3.5099325E-1,-7.314631E-1,4.0298644E-1,-1.179536E-1,-8.857267E-1,8.062636E-1,7.627068E-2,1.8284211E-2,-6.724633E-2,-1.2035276E-1,1.6275374E-2,1.0601666E-1],"categories":[],"categories_nodes":[],"categories_segments":[],"categories_sizes":[],"default_left":[0,0,0,0,0,0,0,0,0,0,0,0,0],"id":18,"left_children":[1,3,5,7,-1,9,11,-1,-1,-1,-1,-1,-1],"loss_changes":[1.4343707E2,3.0178936E1,4.392447E1,2.8507668E1,0E0,1.0443085E1,2.6265078E0,0E0,0E0,0E0,0E0,0E0,0E0],"parents":[2147483647,0,0,1,1,2,2,3,3,5,5,6,6],"right_children":[2,4,6,8,-1,10,12,-1,-1,-1,-1,-1,-1],"split_conditions":[7E0,1.3E1,5.5E1,2E0,-1.179536E-1,5E-1,1E0,7.627068E-2,1.8284211E-2,-6.724633E-2,-1.2035276E-1,1.6275374E-2,1.0601666E-1],"split_indices":[0,2,1,0,0,4,4,0,0,0,0,0,0],"split_type":[0,0,0,0,0,0,0,0,0,0,0,0,0],"sum_hessian":[5.5342474E2,3.722681E2,1.8115666E2,3.6074985E2,1.1518237E1,1.6502544E2,1.6131227E1,1.360222E2,2.2472765E2,1.0061964E2,6.44058E1,5.0282574E0,1.1102971E1],"tree_param":{"num_deleted":"0","num_feature":"5","num_nodes":"13","size_leaf_vector":"1"}},{"base_weights":[-4.3098275E-3,3.2397795E-1,-7.008193E-1,7.229306E-1,1.2949362E-1,-8.508247E-1,7.6258385E-1,1.2986696E-1,6.420541E-2,-1.1440908E-1,2.3490906E-2,-6.348847E-2,-1.185869E-1,1.17804185E-1,3.1726453E-2],"categories":[],"categories_nodes":[],"categories_segments":[],"categories_sizes":[],"default_left":[0,0,0,0,0,0,0,0,0,0,0,0,0,0,0],"id":19,"left_children":[1,3,5,7,9,11,13,-1,-1,-1,-1,-1,-1,-1,-1],"loss_changes":[1.2264957E2,2.8193588E1,3.8368423E1,4.7194443E0,3.3337368E1,1.0557198E1,2.679493E0,0E0,0E0,0E0,0E0,0E0,0E0,0E0,0E0],"parents":[2147483647,0,0,1,1,2,2,3,3,4,4,5,5,6,6],"right_children":[2,4,6,8,10,12,14,-1,-1,-1,-1,-1,-1,-1,-1],"split_conditions":[7E0,2.5E0,5.5E1,4.5E1,1.1E1,5E-1,5.7E1,1.2986696E-1,6.420541E-2,-1.1440908E-1,2.3490906E-2,-6.348847E-2,-1.185869E-1,1.17804185E-1,3.1726453E-2],"split_indices":[0,2,1,1,1,4,1,0,0,0,0,0,0,0,0],"split_type":[0,0,0,0,0,0,0,0,0,0,0,0,0,0,0],"sum_hessian":[5.344014E2,3.635726E2,1.7082886E2,1.18261475E2,2.4531113E2,1.5532585E2,1.5502998E1,1.2711827E1,1.0554965E2,1.7999207E1,2.2731192E2,9.621139E1,5.9114464E1,7.1691747E0,8.333823E0],"tree_param":{"num_deleted":"0","num_feature":"5","num_nodes":"15","size_leaf_vector":"1"}},{"base_weights":[-4.4103623E-3,-4.9591896E-1,4.1288957E-1,-2.1905327E-1,-1.0782403E-1,4.4277436E-1,-1.6634375E-1,-6.6096376E-4,-9.606107E-2,2.2577912E-2,7.2471716E-2],"categories":[],"categories_nodes":[],"categories_segments":[],"categories_sizes":[],"default_left":[0,0,0,0,0,0,0,0,0,0,0],"id":20,"left_children":[1,3,5,7,-1,9,-1,-1,-1,-1,-1],"loss_changes":[1.0640591E2,3.8168716E1,1.8146584E1,2.5625566E1,0E0,1.6806973E1,0E0,0E0,0E0,0E0,0E0],"parents":[2147483647,0,0,1,1,2,2,3,3,5,5],"right_children":[2,4,6,8,-1,10,-1,-1,-1,-1,-1],"split_conditions":[3.4E1,1.1E1,1.5E1,1E0,-1.0782403E-1,5.6E1,-1.6634375E-1,-6.6096376E-4,-9.606107E-2,2.2577912E-2,7.2471716E-2],"split_indices":[1,0,0,4,0,1,0,0,0,0,0],"split_type":[0,0,0,0,0,0,0,0,0,0,0],"sum_hessian":[5.167854E2,2.3720715E2,2.7957822E2,1.6170187E2,7.550527E1,2.763869E2,3.1913161E0,1.2647721E2,3.5224663E1,1.5719992E2,1.19187E2],"tree_param":{"num_deleted":"0","num_feature":"5","num_nodes":"11","size_leaf_vector":"1"}},{"base_weights":[-5.0170394E-3,2.8114516E-1,-6.519602E-1,6.407033E-1,7.747805E-2,-7.949286E-1,6.866219E-1,-1.3841863E-1,7.3881425E-2,2.9363846E-2,-3.174469E-2,-5.7287373E-2,-1.1653699E-1,4.2078453E-3,9.617953E-2],"categories":[],"categories_nodes":[],"categories_segments":[],"categories_sizes":[],"default_left":[0,0,0,0,0,0,0,0,0,0,0,0,0,0,0],"id":21,"left_children":[1,3,5,7,9,11,13,-1,-1,-1,-1,-1,-1,-1,-1],"loss_changes":[9.313505E1,2.5493574E1,3.007116E1,2.6053143E1,1.91995E1,1.083667E1,2.695229E0,0E0,0E0,0E0,0E0,0E0,0E0,0E0,0E0],"parents":[2147483647,0,0,1,1,2,2,3,3,4,4,5,5,6,6],"right_children":[2,4,6,8,10,12,14,-1,-1,-1,-1,-1,-1,-1,-1],"split_conditions":[7E0,2E0,5.5E1,1E0,5.3333335E0,5E-1,1E0,-1.3841863E-1,7.3881425E-2,2.9363846E-2,-3.174469E-2,-5.7287373E-2,-1.1653699E-1,4.2078453E-3,9.617953E-2],"split_indices":[0,0,1,0,2,4,4,0,0,0,0,0,0,0,0],"split_type":[0,0,0,0,0,0,0,0,0,0,0,0,0,0,0],"sum_hessian":[5.010873E2,3.4780725E2,1.5328006E2,1.2499413E2,2.2281311E2,1.388556E2,1.4424451E1,5.170615E0,1.1982352E2,1.4416273E2,7.865037E1,8.84076E1,5.0448E1,4.6606483E0,9.763803E0],"tree_param":{"num_deleted":"0","num_feature":"5","num_nodes":"15","size_leaf_vector":"1"}},{"base_weights":[-5.1627313E-3,2.601882E-1,-6.2248904E-1,6.0951185E-1,7.057266E-2,-7.608676E-1,6.4950603E-1,-1.3499574E-1,7.036125E-2,8.580672E-2,-2.7936732E-3,-5.3798433E-2,-1.1506033E-1,1.098777E-1,1.9057343E-2],"categories":[],"categories_nodes":[],"categories_segments":[],"categories_sizes":[],"default_left":[0,0,0,0,0,0,0,0,0,0,0,0,0,0,0],"id":22,"left_children":[1,3,5,7,9,11,13,-1,-1,-1,-1,-1,-1,-1,-1],"loss_changes":[7.958998E1,2.2465944E1,2.620338E1,2.2971127E1,1.7198744E1,1.0863838E1,2.8566232E0,0E0,0E0,0E0,0E0,0E0,0E0,0E0,0E0],"parents":[2147483647,0,0,1,1,2,2,3,3,4,4,5,5,6,6],"right_children":[2,4,6,8,10,12,14,-1,-1,-1,-1,-1,-1,-1,-1],"split_conditions":[7E0,2E0,5.5E1,1E0,-5E0,5E-1,5.7E1,-1.3499574E-1,7.036125E-2,8.580672E-2,-2.7936732E-3,-5.3798433E-2,-1.1506033E-1,1.098777E-1,1.9057343E-2],"split_indices":[0,0,1,0,4,4,1,0,0,0,0,0,0,0,0],"split_type":[0,0,0,0,0,0,0,0,0,0,0,0,0,0,0],"sum_hessian":[4.8388455E2,3.3882352E2,1.4506104E2,1.18429504E2,2.2039401E2,1.3119081E2,1.3870233E1,4.8152404E0,1.13614265E2,2.3646986E1,1.9674702E2,8.497527E1,4.6215527E1,6.3043766E0,7.565856E0],"tree_param":{"num_deleted":"0","num_feature":"5","num_nodes":"15","size_leaf_vector":"1"}},{"base_weights":[-5.066164E-3,-5.723875E-1,2.5516498E-1,-2.7749383E-1,-1.0439979E-1,6.459933E-1,7.326431E-2,1.3446643E-4,-1.17857434E-1,9.91556E-2,5.4993816E-2,2.0167482E-1,1.7930294E-3],"categories":[],"categories_nodes":[],"categories_segments":[],"categories_sizes":[],"default_left":[0,0,0,0,0,0,0,0,0,0,0,0,0],"id":23,"left_children":[1,3,5,7,-1,9,11,-1,-1,-1,-1,-1,-1],"loss_changes":[6.976754E1,2.0376919E1,2.2984951E1,2.3316175E1,0E0,2.8659248E0,2.3860474E1,0E0,0E0,0E0,0E0,0E0,0E0],"parents":[2147483647,0,0,1,1,2,2,3,3,5,5,6,6],"right_children":[2,4,6,8,-1,10,12,-1,-1,-1,-1,-1,-1],"split_conditions":[2.3E1,1.1E1,2E0,1.3E1,-1.0439979E-1,6.1E1,2.9E1,1.3446643E-4,-1.17857434E-1,9.91556E-2,5.4993816E-2,2.0167482E-1,1.7930294E-3],"split_indices":[1,0,0,1,0,3,3,0,0,0,0,0,0],"split_type":[0,0,0,0,0,0,0,0,0,0,0,0,0],"sum_hessian":[4.705795E2,1.4760065E2,3.2297885E2,9.1792206E1,5.5808434E1,1.0176886E2,2.2120999E2,7.086241E1,2.0929798E1,2.0107708E1,8.166115E1,5.142551E0,2.1606743E2],"tree_param":{"num_deleted":"0","num_feature":"5","num_nodes":"13","size_leaf_vector":"1"}},{"base_weights":[-4.913843E-3,-3.3050135E-1,4.2141175E-1,-1.1987113E-1,-1.06006935E-1,4.519779E-1,-1.5116073E-1,3.6429383E-2,-2.404052E-2,9.9378936E-2,3.5019506E-2],"categories":[],"categories_nodes":[],"categories_segments":[],"categories_sizes":[],"default_left":[0,0,0,0,0,0,0,0,0,0,0],"id":24,"left_children":[1,3,5,7,-1,9,-1,-1,-1,-1,-1],"loss_changes":[6.4073364E1,4.0090385E1,1.2493385E1,1.2004996E1,0E0,1.054591E1,0E0,0E0,0E0,0E0,0E0],"parents":[2147483647,0,0,1,1,2,2,3,3,5,5],"right_children":[2,4,6,8,-1,10,-1,-1,-1,-1,-1],"split_conditions":[4.3E1,1.1E1,1.5E1,2E0,-1.06006935E-1,-1.6666666E0,-1.5116073E-1,3.6429383E-2,-2.404052E-2,9.9378936E-2,3.5019506E-2],"split_indices":[1,0,0,0,0,4,0,0,0,0,0],"split_type":[0,0,0,0,0,0,0,0,0,0,0],"sum_hessian":[4.5959937E2,2.607147E2,1.9888466E2,2.0321092E2,5.750378E1,1.9654298E2,2.3416843E0,4.0102726E1,1.6310818E2,2.9696812E1,1.6684616E2],"tree_param":{"num_deleted":"0","num_feature":"5","num_nodes":"11","size_leaf_vector":"1"}},{"base_weights":[-5.0765206E-3,-3.9206925E-1,3.0459294E-1,-1.6734685E-1,-1.0401662E-1,1.7018218E-1,7.6079315E-1,2.7143846E-3,-9.2351824E-2,-1.122957E-2,6.8873875E-2,-6.739133E-2,8.2135126E-2],"categories":[],"categories_nodes":[],"categories_segments":[],"categories_sizes":[],"default_left":[0,0,0,0,0,0,0,0,0,0,0,0,0],"id":25,"left_children":[1,3,5,7,-1,9,11,-1,-1,-1,-1,-1,-1],"loss_changes":[5.381535E1,2.8896591E1,1.516699E1,2.1997665E1,0E0,2.8491175E1,5.461014E0,0E0,0E0,0E0,0E0,0E0,0E0],"parents":[2147483647,0,0,1,1,2,2,3,3,5,5,6,6],"right_children":[2,4,6,8,-1,10,12,-1,-1,-1,-1,-1,-1],"split_conditions":[3.4E1,1.1E1,6.6E1,1E0,-1.0401662E-1,4.3333335E0,9.3E1,2.7143846E-3,-9.2351824E-2,-1.122957E-2,6.8873875E-2,-6.739133E-2,8.2135126E-2],"split_indices":[1,0,1,4,0,2,3,0,0,0,0,0,0],"split_type":[0,0,0,0,0,0,0,0,0,0,0,0,0],"sum_hessian":[4.4706415E2,1.9860373E2,2.4846042E2,1.4840404E2,5.0199696E1,1.9297656E2,5.548385E1,1.1880973E2,2.9594296E1,1.2543222E2,6.754435E1,1.8368937E0,5.3646954E1],"tree_param":{"num_deleted":"0","num_feature":"5","num_nodes":"13","size_leaf_vector":"1"}},{"base_weights":[-5.1522255E-3,3.0561408E-1,-3.627767E-1,7.305169E-1,1.4170833E-1,-1.07386224E-1,-1.7173922E-1,1.1810126E-1,6.538128E-2,-1.2074836E-1,2.1814361E-2,3.288825E-1,-3.677917E-2],"categories":[],"categories_nodes":[],"categories_segments":[],"categories_sizes":[],"default_left":[0,0,0,0,0,0,0,0,0,0,0,0,0],"id":26,"left_children":[1,3,5,7,9,-1,11,-1,-1,-1,-1,-1,-1],"loss_changes":[4.8847416E1,1.6275114E1,2.7574999E1,1.481678E0,1.7892916E1,0E0,1.1129835E2,0E0,0E0,0E0,0E0,0E0,0E0],"parents":[2147483647,0,0,1,1,2,2,3,3,4,4,6,6],"right_children":[2,4,6,8,10,-1,12,-1,-1,-1,-1,-1,-1],"split_conditions":[4E0,2E0,7E0,2.55E1,3.5E1,-1.07386224E-1,8E0,1.1810126E-1,6.538128E-2,-1.2074836E-1,2.1814361E-2,3.288825E-1,-3.677917E-2],"split_indices":[0,2,3,1,3,0,3,0,0,0,0,0,0],"split_type":[0,0,0,0,0,0,0,0,0,0,0,0,0],"sum_hessian":[4.3752423E2,2.3417645E2,2.033478E2,6.422505E1,1.699514E2,4.2083202E1,1.6126459E2,7.24965E0,5.69754E1,8.318609E0,1.616328E2,7.8005304E0,1.5346405E2],"tree_param":{"num_deleted":"0","num_feature":"5","num_nodes":"13","size_leaf_vector":"1"}},{"base_weights":[-5.1498646E-3,-2.8669065E-1,3.6030835E-1,-1.0844743E-1,-1.0414117E-1,3.9008144E-1,-1.4022873E-1,-4.7059655E-3,-1.0923331E-1,9.253982E-2,2.9198414E-2],"categories":[],"categories_nodes":[],"categories_segments":[],"categories_sizes":[],"default_left":[0,0,0,0,0,0,0,0,0,0,0],"id":27,"left_children":[1,3,5,7,-1,9,-1,-1,-1,-1,-1],"loss_changes":[4.426374E1,3.2574768E1,1.0371223E1,1.1888262E1,0E0,9.438391E0,0E0,0E0,0E0,0E0,0E0],"parents":[2147483647,0,0,1,1,2,2,3,3,5,5],"right_children":[2,4,6,8,-1,10,-1,-1,-1,-1,-1],"split_conditions":[4.3E1,1.1E1,1.5E1,3.9E1,-1.0414117E-1,-1.6666666E0,-1.4022873E-1,-4.7059655E-3,-1.0923331E-1,9.253982E-2,2.9198414E-2],"split_indices":[1,0,0,1,0,4,0,0,0,0,0],"split_type":[0,0,0,0,0,0,0,0,0,0,0],"sum_hessian":[4.2819476E2,2.419881E2,1.8620665E2,1.9668137E2,4.530674E1,1.8387932E2,2.3273308E0,1.8611676E2,1.0564591E1,2.7171429E1,1.5670789E2],"tree_param":{"num_deleted":"0","num_feature":"5","num_nodes":"11","size_leaf_vector":"1"}},{"base_weights":[-5.4929648E-3,1.7762531E-1,-4.9692914E-1,7.339255E-1,7.8170605E-2,-6.4128095E-1,5.9010696E-1,4.3165855E-2,8.000983E-2,-1.08753815E-1,1.5107329E-2,-1.8147774E-2,-9.5184326E-2,1.0592586E-1,1.2073166E-2],"categories":[],"categories_nodes":[],"categories_segments":[],"categories_sizes":[],"default_left":[0,0,0,0,0,0,0,0,0,0,0,0,0,0,0],"id":28,"left_children":[1,3,5,7,9,11,13,-1,-1,-1,-1,-1,-1,-1,-1],"loss_changes":[3.795198E1,1.6942734E1,1.834252E1,5.8436203E-1,2.2411682E1,1.4327106E1,2.9420834E0,0E0,0E0,0E0,0E0,0E0,0E0,0E0,0E0],"parents":[2147483647,0,0,1,1,2,2,3,3,4,4,5,5,6,6],"right_children":[2,4,6,8,10,12,14,-1,-1,-1,-1,-1,-1,-1,-1],"split_conditions":[7E0,1.6666666E0,5.5E1,9.3E1,1.1E1,8E0,5.7E1,4.3165855E-2,8.000983E-2,-1.08753815E-1,1.5107329E-2,-1.8147774E-2,-9.5184326E-2,1.0592586E-1,1.2073166E-2],"split_indices":[0,2,1,3,1,3,1,0,0,0,0,0,0,0,0],"split_type":[0,0,0,0,0,0,0,0,0,0,0,0,0,0,0],"sum_hessian":[4.1975027E2,3.0626776E2,1.1348251E2,4.548238E1,2.6078537E2,1.005413E2,1.2941213E1,9.51994E0,3.596244E1,1.4530237E1,2.4625513E2,4.117056E1,5.9370743E1,5.843628E0,7.0975847E0],"tree_param":{"num_deleted":"0","num_feature":"5","num_nodes":"15","size_leaf_vector":"1"}},{"base_weights":[-5.247989E-3,-2.5083575E-1,3.1603542E-1,-8.785451E-2,-1.0284978E-1,3.4390116E-1,-1.2920593E-1,-3.0138015E-3,-9.7867124E-2,2.8995642E-2,1.4188945E-1],"categories":[],"categories_nodes":[],"categories_segments":[],"categories_sizes":[],"default_left":[0,0,0,0,0,0,0,0,0,0,0],"id":29,"left_children":[1,3,5,7,-1,9,-1,-1,-1,-1,-1],"loss_changes":[3.2518208E1,2.9513058E1,8.4455185E0,9.954856E0,0E0,9.8124485E0,0E0,0E0,0E0,0E0,0E0],"parents":[2147483647,0,0,1,1,2,2,3,3,5,5],"right_children":[2,4,6,8,-1,10,-1,-1,-1,-1,-1],"split_conditions":[4.3E1,1.1E1,1.5E1,3.9E1,-1.0284978E-1,1.4E1,-1.2920593E-1,-3.0138015E-3,-9.7867124E-2,2.8995642E-2,1.4188945E-1],"split_indices":[1,0,0,1,0,0,0,0,0,0,0],"split_type":[0,0,0,0,0,0,0,0,0,0,0],"sum_hessian":[4.1012283E2,2.3256802E2,1.7755481E2,1.931921E2,3.9375935E1,1.7530322E2,2.251585E0,1.8240764E2,1.0784456E1,1.6813565E2,7.167565E0],"tree_param":{"num_deleted":"0","num_feature":"5","num_nodes":"11","size_leaf_vector":"1"}},{"base_weights":[-5.455946E-3,2.4239232E-1,-2.9741365E-1,6.501711E-1,9.8422885E-2,-1.05634265E-1,-1.2234442E-1,1.09458424E-1,5.670159E-2,-1.1711748E-1,1.6613746E-2,2.557765E-1,-3.1642947E-2],"categories":[],"categories_nodes":[],"categories_segments":[],"categories_sizes":[],"default_left":[0,0,0,0,0,0,0,0,0,0,0,0,0],"id":30,"left_children":[1,3,5,7,9,-1,11,-1,-1,-1,-1,-1,-1],"loss_changes":[2.9309464E1,1.2797852E1,2.457899E1,1.4853477E0,1.4215916E1,0E0,7.999908E1,0E0,0E0,0E0,0E0,0E0,0E0],"parents":[2147483647,0,0,1,1,2,2,3,3,4,4,6,6],"right_children":[2,4,6,8,10,-1,12,-1,-1,-1,-1,-1,-1],"split_conditions":[4E0,2E0,7E0,2.55E1,3.5E1,-1.05634265E-1,8E0,1.09458424E-1,5.670159E-2,-1.1711748E-1,1.6613746E-2,2.557765E-1,-3.1642947E-2],"split_indices":[0,2,3,1,3,0,3,0,0,0,0,0,0],"split_type":[0,0,0,0,0,0,0,0,0,0,0,0,0],"sum_hessian":[4.030476E2,2.1808284E2,1.8496477E2,5.5987606E1,1.6209525E2,3.3726368E1,1.512384E2,6.9076014E0,4.908E1,7.382531E0,1.547127E2,9.390259E0,1.4184814E2],"tree_param":{"num_deleted":"0","num_feature":"5","num_nodes":"13","size_leaf_vector":"1"}},{"base_weights":[-5.334596E-3,1.4811738E-1,-4.405994E-1,1.8486719E-1,-1.07703425E-1,-5.815905E-1,5.553851E-1,1.2303031E-2,1.7112008E-1,-1.0810568E-2,-9.087842E-2,8.081061E-2,-1.6148215E-2],"categories":[],"categories_nodes":[],"categories_segments":[],"categories_sizes":[],"default_left":[0,0,0,0,0,0,0,0,0,0,0,0,0],"id":31,"left_children":[1,3,5,7,-1,9,11,-1,-1,-1,-1,-1,-1],"loss_changes":[2.6564217E1,1.3439524E1,1.4879887E1,2.6817493E1,0E0,1.4045563E1,2.5520325E0,0E0,0E0,0E0,0E0,0E0,0E0],"parents":[2147483647,0,0,1,1,2,2,3,3,5,5,6,6],"right_children":[2,4,6,8,-1,10,12,-1,-1,-1,-1,-1,-1],"split_conditions":[7E0,1.3E1,5.5E1,1.2E1,-1.07703425E-1,8E0,1.1E1,1.2303031E-2,1.7112008E-1,-1.0810568E-2,-9.087842E-2,8.081061E-2,-1.6148215E-2],"split_indices":[0,2,1,2,0,3,0,0,0,0,0,0,0],"split_type":[0,0,0,0,0,0,0,0,0,0,0,0,0],"sum_hessian":[3.9573703E2,2.9307394E2,1.02663086E2,2.8536325E2,7.7106895E0,9.029678E1,1.2366302E1,2.752909E2,1.0072351E1,3.744304E1,5.2853745E1,9.048953E0,3.3173487E0],"tree_param":{"num_deleted":"0","num_feature":"5","num_nodes":"13","size_leaf_vector":"1"}},{"base_weights":[-5.2374285E-3,4.5668966E-1,-1.4687927E-1,-1.339233E-1,5.434195E-1,-3.4216145E-1,2.2258827E-1,9.90101E-2,3.7348725E-2,5.0770152E-2,-5.2116316E-2,3.1532127E-2,-1.7631616E-1],"categories":[],"categories_nodes":[],"categories_segments":[],"categories_sizes":[],"default_left":[0,0,0,0,0,0,0,0,0,0,0,0,0],"id":32,"left_children":[1,3,5,-1,7,9,11,-1,-1,-1,-1,-1,-1],"loss_changes":[2.5665186E1,1.5066578E1,2.1734463E1,0E0,6.349947E0,3.019983E1,1.9781498E1,0E0,0E0,0E0,0E0,0E0,0E0],"parents":[2147483647,0,0,1,1,2,2,4,4,5,5,6,6],"right_children":[2,4,6,-1,8,10,12,-1,-1,-1,-1,-1,-1],"split_conditions":[2E0,1E0,8.4E1,-1.339233E-1,6.1E1,-4.6666665E0,7.3333335E0,9.90101E-2,3.7348725E-2,5.0770152E-2,-5.2116316E-2,3.1532127E-2,-1.7631616E-1],"split_indices":[0,0,3,0,3,4,2,0,0,0,0,0,0],"split_type":[0,0,0,0,0,0,0,0,0,0,0,0,0],"sum_hessian":[3.9023965E2,9.105706E1,2.991826E2,3.5295203E0,8.752754E1,1.9577798E2,1.034046E2,2.2791552E1,6.473599E1,3.3741943E1,1.6203603E2,9.959481E1,3.8097932E0],"tree_param":{"num_deleted":"0","num_feature":"5","num_nodes":"13","size_leaf_vector":"1"}},{"base_weights":[-5.1454743E-3,5.498284E-2,-1.0599774E-1,-6.963396E-2,4.771788E-1,-7.5146154E-4,-1.23156145E-1,2.9585082E-2,8.332967E-2],"categories":[],"categories_nodes":[],"categories_segments":[],"categories_sizes":[],"default_left":[0,0,0,0,0,0,0,0,0],"id":33,"left_children":[1,3,-1,5,7,-1,-1,-1,-1],"loss_changes":[2.4357178E1,1.9152725E1,0E0,2.0305695E1,5.109583E0,0E0,0E0,0E0,0E0],"parents":[2147483647,0,0,1,1,3,3,4,4],"right_children":[2,4,-1,6,8,-1,-1,-1,-1],"split_conditions":[1.5E1,5.6E1,-1.0599774E-1,1.05E2,2.3333333E0,-7.5146154E-4,-1.23156145E-1,2.9585082E-2,8.332967E-2],"split_indices":[0,1,0,3,4,0,0,0,0],"split_type":[0,0,0,0,0,0,0,0,0],"sum_hessian":[3.8211066E2,3.624007E2,1.9709959E1,2.8045557E2,8.194515E1,2.6717807E2,1.3277494E1,5.551089E1,2.6434258E1],"tree_param":{"num_deleted":"0","num_feature":"5","num_nodes":"9","size_leaf_vector":"1"}},{"base_weights":[-4.8749154E-3,5.0136156E-2,-1.05024114E-1,-6.278767E-2,4.4804293E-1,-4.0578735E-3,-2.8012508E-1,2.7348239E-2,8.0472074E-2],"categories":[],"categories_nodes":[],"categories_segments":[],"categories_sizes":[],"default_left":[0,0,0,0,0,0,0,0,0],"id":34,"left_children":[1,3,-1,5,7,-1,-1,-1,-1],"loss_changes":[2.185611E1,1.6255562E1,0E0,1.7048561E1,4.75823E0,0E0,0E0,0E0,0E0],"parents":[2147483647,0,0,1,1,3,3,4,4],"right_children":[2,4,-1,6,8,-1,-1,-1,-1],"split_conditions":[1.5E1,5.6E1,-1.05024114E-1,5.5E1,2.3333333E0,-4.0578735E-3,-2.8012508E-1,2.7348239E-2,8.0472074E-2],"split_indices":[0,1,0,1,4,0,0,0,0],"split_type":[0,0,0,0,0,0,0,0,0],"sum_hessian":[3.781462E2,3.6014603E2,1.8000189E1,2.8118845E2,7.895758E1,2.79933E2,1.2554382E0,5.419898E1,2.47586E1],"tree_param":{"num_deleted":"0","num_feature":"5","num_nodes":"9","size_leaf_vector":"1"}},{"base_weights":[-5.1272586E-3,-7.173087E-1,6.854904E-2,5.5210096E-1,-1.0365968E-1,2.1260288E0,-3.8972895E-3,1.04002595E-1,-7.2069876E-2,-8.017861E-2,2.755271E-1,-1.05124496E-1,8.444241E-3],"categories":[],"categories_nodes":[],"categories_segments":[],"categories_sizes":[],"default_left":[0,0,0,0,0,0,0,0,0,0,0,0,0],"id":35,"left_children":[1,3,5,7,-1,9,11,-1,-1,-1,-1,-1,-1],"loss_changes":[1.9729342E1,1.4859753E1,5.0809464E1,5.554474E0,0E0,2.3569244E1,3.064181E1,0E0,0E0,0E0,0E0,0E0,0E0],"parents":[2147483647,0,0,1,1,2,2,3,3,5,5,6,6],"right_children":[2,4,6,8,-1,10,12,-1,-1,-1,-1,-1,-1],"split_conditions":[7E0,1E0,8E0,4E0,-1.0365968E-1,-1E0,1.1E1,1.04002595E-1,-7.2069876E-2,-8.017861E-2,2.755271E-1,-1.05124496E-1,8.444241E-3],"split_indices":[3,2,3,0,0,4,1,0,0,0,0,0,0],"split_type":[0,0,0,0,0,0,0,0,0,0,0,0,0],"sum_hessian":[3.7406833E2,3.42509E1,3.398174E2,6.7370214E0,2.751388E1,1.0594236E1,3.292232E2,5.0022883E0,1.7347331E0,1.8256087E0,8.768628E0,2.4760838E1,3.0446234E2],"tree_param":{"num_deleted":"0","num_feature":"5","num_nodes":"13","size_leaf_vector":"1"}},{"base_weights":[-5.7507437E-3,4.10832E-1,-1.3053262E-1,-1.3173461E-1,4.9179482E-1,-2.997147E-1,1.866894E-1,9.511046E-2,3.15623E-2,5.014633E-2,-4.7491886E-2,2.7327571E-2,-1.661648E-1],"categories":[],"categories_nodes":[],"categories_segments":[],"categories_sizes":[],"default_left":[0,0,0,0,0,0,0,0,0,0,0,0,0],"id":36,"left_children":[1,3,5,-1,7,9,11,-1,-1,-1,-1,-1,-1],"loss_changes":[1.9328417E1,1.2639991E1,1.54098835E1,0E0,6.383646E0,2.648238E1,1.6478065E1,0E0,0E0,0E0,0E0,0E0,0E0],"parents":[2147483647,0,0,1,1,2,2,4,4,5,5,6,6],"right_children":[2,4,6,-1,8,10,12,-1,-1,-1,-1,-1,-1],"split_conditions":[2E0,1E0,8.4E1,-1.3173461E-1,6.1E1,-4.6666665E0,7.3333335E0,9.511046E-2,3.15623E-2,5.014633E-2,-4.7491886E-2,2.7327571E-2,-1.661648E-1],"split_indices":[0,0,3,0,3,4,2,0,0,0,0,0,0],"split_type":[0,0,0,0,0,0,0,0,0,0,0,0,0],"sum_hessian":[3.6979758E2,8.470813E1,2.8508945E2,3.1074562E0,8.160067E1,1.8596503E2,9.9124405E1,2.1402363E1,6.0198307E1,3.3035816E1,1.5292921E2,9.5502686E1,3.62172E0],"tree_param":{"num_deleted":"0","num_feature":"5","num_nodes":"13","size_leaf_vector":"1"}},{"base_weights":[-5.6160493E-3,4.1741252E-2,-1.0421685E-1,3.8394773E-1,-6.425778E-2,-1.2865975E-1,4.6073698E-2,4.582861E-2,-1.3882631E-2],"categories":[],"categories_nodes":[],"categories_segments":[],"categories_sizes":[],"default_left":[0,0,0,0,0,0,0,0,0],"id":37,"left_children":[1,3,-1,5,7,-1,-1,-1,-1],"loss_changes":[1.7914108E1,1.268798E1,0E0,1.1202256E1,1.0482957E1,0E0,0E0,0E0,0E0],"parents":[2147483647,0,0,1,1,3,3,4,4],"right_children":[2,4,-1,6,8,-1,-1,-1,-1],"split_conditions":[1.5E1,2E0,-1.0421685E-1,1E0,-4.6666665E0,-1.2865975E-1,4.6073698E-2,4.582861E-2,-1.3882631E-2],"split_indices":[0,0,0,0,4,0,0,0,0],"split_type":[0,0,0,0,0,0,0,0,0],"sum_hessian":[3.6305008E2,3.4810577E2,1.4944289E1,8.170566E1,2.6640012E2,2.8983037E0,7.880735E1,3.2625935E1,2.337742E2],"tree_param":{"num_deleted":"0","num_feature":"5","num_nodes":"9","size_leaf_vector":"1"}},{"base_weights":[-5.587209E-3,3.7849344E-2,-1.03146985E-1,-2.889238E-2,5.7171196E-1,2.4780647E-3,-9.249948E-2,-9.740799E-2,6.581035E-2],"categories":[],"categories_nodes":[],"categories_segments":[],"categories_sizes":[],"default_left":[0,0,0,0,0,0,0,0,0],"id":38,"left_children":[1,3,-1,5,7,-1,-1,-1,-1],"loss_changes":[1.6087948E1,1.2362354E1,0E0,1.4881885E1,5.789384E0,0E0,0E0,0E0,0E0],"parents":[2147483647,0,0,1,1,3,3,4,4],"right_children":[2,4,-1,6,8,-1,-1,-1,-1],"split_conditions":[1.5E1,6.6E1,-1.03146985E-1,1.09E2,9.3E1,2.4780647E-3,-9.249948E-2,-9.740799E-2,6.581035E-2],"split_indices":[0,1,0,3,3,0,0,0,0],"split_type":[0,0,0,0,0,0,0,0,0],"sum_hessian":[3.5915753E2,3.4549225E2,1.3665268E1,3.0794046E2,3.7551807E1,2.9145575E2,1.6484713E1,1.443754E0,3.6108055E1],"tree_param":{"num_deleted":"0","num_feature":"5","num_nodes":"9","size_leaf_vector":"1"}},{"base_weights":[-5.535401E-3,3.413584E-2,-1.020427E-1,-5.937426E-2,3.818171E-1,-3.924423E-4,-1.0001423E-1,2.0442897E-2,7.588469E-2],"categories":[],"categories_nodes":[],"categories_segments":[],"categories_sizes":[],"default_left":[0,0,0,0,0,0,0,0,0],"id":39,"left_children":[1,3,-1,5,7,-1,-1,-1,-1],"loss_changes":[1.4451215E1,1.1257478E1,0E0,1.4246932E1,4.752307E0,0E0,0E0,0E0,0E0],"parents":[2147483647,0,0,1,1,3,3,4,4],"right_children":[2,4,-1,6,8,-1,-1,-1,-1],"split_conditions":[1.5E1,5.6E1,-1.020427E-1,1.05E2,2.3333333E0,-3.924423E-4,-1.0001423E-1,2.0442897E-2,7.588469E-2],"split_indices":[0,1,0,3,4,0,0,0,0],"split_type":[0,0,0,0,0,0,0,0,0],"sum_hessian":[3.5706415E2,3.445619E2,1.2502263E1,2.721858E2,7.23761E1,2.579841E2,1.4201676E1,5.0267864E1,2.2108236E1],"tree_param":{"num_deleted":"0","num_feature":"5","num_nodes":"9","size_leaf_vector":"1"}},{"base_weights":[-5.2214637E-3,-6.552597E-1,5.3651124E-2,6.003163E-1,-1.0265489E-1,1.8372846E0,-1.7111637E-2,-9.929686E-2,1.2337822E-1,-8.018019E-2,2.3144554E-1,-1.0383909E-1,6.087761E-3],"categories":[],"categories_nodes":[],"categories_segments":[],"categories_sizes":[],"default_left":[0,0,0,0,0,0,0,0,0,0,0,0,0],"id":40,"left_children":[1,3,5,7,-1,9,11,-1,-1,-1,-1,-1,-1],"loss_changes":[1.3637492E1,1.4412161E1,4.128382E1,8.67864E0,0E0,1.7573463E1,2.5181358E1,0E0,0E0,0E0,0E0,0E0,0E0],"parents":[2147483647,0,0,1,1,2,2,3,3,5,5,6,6],"right_children":[2,4,6,8,-1,10,12,-1,-1,-1,-1,-1,-1],"split_conditions":[7E0,4E0,8E0,3E0,-1.0265489E-1,8E0,1.1E1,-9.929686E-2,1.2337822E-1,-8.018019E-2,2.3144554E-1,-1.0383909E-1,6.087761E-3],"split_indices":[3,0,3,0,0,0,1,0,0,0,0,0,0],"split_type":[0,0,0,0,0,0,0,0,0,0,0,0,0],"sum_hessian":[3.5443604E2,2.8593414E1,3.2584265E2,6.384916E0,2.2208498E1,1.1481367E1,3.1436127E2,1.6549331E0,4.7299824E0,1.6538887E0,9.827478E0,2.1429157E1,2.929321E2],"tree_param":{"num_deleted":"0","num_feature":"5","num_nodes":"13","size_leaf_vector":"1"}},{"base_weights":[-5.7552494E-3,3.4954602E-1,-1.070952E-1,-1.2618932E-1,4.2131877E-1,-2.6054826E-1,1.7470375E-1,8.939469E-2,2.4174621E-2,4.4699542E-2,-4.2118754E-2,9.3362495E-2,-4.47528E-3],"categories":[],"categories_nodes":[],"categories_segments":[],"categories_sizes":[],"default_left":[0,0,0,0,0,0,0,0,0,0,0,0,0],"id":41,"left_children":[1,3,5,-1,7,9,11,-1,-1,-1,-1,-1,-1],"loss_changes":[1.2711333E1,9.593445E0,1.1921829E1,0E0,6.213642E0,2.0444065E1,1.626822E1,0E0,0E0,0E0,0E0,0E0,0E0],"parents":[2147483647,0,0,1,1,2,2,4,4,5,5,6,6],"right_children":[2,4,6,-1,8,10,12,-1,-1,-1,-1,-1,-1],"split_conditions":[2E0,1E0,8.4E1,-1.2618932E-1,6.1E1,-4.6666665E0,3.6E1,8.939469E-2,2.4174621E-2,4.4699542E-2,-4.2118754E-2,9.3362495E-2,-4.47528E-3],"split_indices":[0,0,3,0,3,4,1,0,0,0,0,0,0],"split_type":[0,0,0,0,0,0,0,0,0,0,0,0,0],"sum_hessian":[3.50992E2,7.7350235E1,2.7364175E2,2.5911877E0,7.475905E1,1.7721506E2,9.6426704E1,1.9488327E1,5.5270718E1,3.246014E1,1.4475491E2,2.0899193E1,7.552751E1],"tree_param":{"num_deleted":"0","num_feature":"5","num_nodes":"13","size_leaf_vector":"1"}},{"base_weights":[-4.9589477E-3,2.9341578E-2,-1.0081976E-1,-1.7543496E-1,1.6602686E-1,1.3339947E-3,-8.409037E-2,-3.237328E-3,6.3654885E-2],"categories":[],"categories_nodes":[],"categories_segments":[],"categories_sizes":[],"default_left":[0,0,0,0,0,0,0,0,0],"id":42,"left_children":[1,3,-1,5,7,-1,-1,-1,-1],"loss_changes":[1.2004594E1,9.4746275E0,0E0,1.7042011E1,1.8960787E1,0E0,0E0,0E0,0E0],"parents":[2147483647,0,0,1,1,3,3,4,4],"right_children":[2,4,-1,6,8,-1,-1,-1,-1],"split_conditions":[1.5E1,3.4E1,-1.0081976E-1,5E-1,4.3333335E0,1.3339947E-3,-8.409037E-2,-3.237328E-3,6.3654885E-2],"split_indices":[0,1,0,4,2,0,0,0,0],"split_type":[0,0,0,0,0,0,0,0,0],"sum_hessian":[3.4699335E2,3.3646057E2,1.0532765E1,1.3456982E2,2.0189075E2,1.0559532E2,2.8974497E1,1.4266562E2,5.9225136E1],"tree_param":{"num_deleted":"0","num_feature":"5","num_nodes":"9","size_leaf_vector":"1"}},{"base_weights":[-4.9949237E-3,2.6499607E-2,-9.9575035E-2,4.9455708E-1,-3.523193E-2,1.9064559E-2,6.1326932E-2,-1.0091324E-1,1.868843E-3],"categories":[],"categories_nodes":[],"categories_segments":[],"categories_sizes":[],"default_left":[0,0,0,0,0,0,0,0,0],"id":43,"left_children":[1,3,-1,5,7,-1,-1,-1,-1],"loss_changes":[1.0792027E1,9.707277E0,0E0,1.2952833E0,1.5626623E1,0E0,0E0,0E0,0E0],"parents":[2147483647,0,0,1,1,3,3,4,4],"right_children":[2,4,-1,6,8,-1,-1,-1,-1],"split_conditions":[1.5E1,1.6666666E0,-9.9575035E-2,3.3333334E-1,7E0,1.9064559E-2,6.1326932E-2,-1.0091324E-1,1.868843E-3],"split_indices":[0,2,0,4,3,0,0,0,0],"split_type":[0,0,0,0,0,0,0,0,0],"sum_hessian":[3.4401523E2,3.3435974E2,9.655509E0,3.814295E1,2.962168E2,1.1446097E1,2.6696852E1,1.4610429E1,2.8160635E2],"tree_param":{"num_deleted":"0","num_feature":"5","num_nodes":"9","size_leaf_vector":"1"}},{"base_weights":[-5.0636707E-3,3.1788608E-1,-9.5420815E-2,-1.2236501E-1,3.8361466E-1,7.003573E-2,-2.8947917E-1,8.555284E-2,2.0798465E-2,-1.607582E-2,7.337322E-2,-1.7916237E-1,-1.5901087E-2],"categories":[],"categories_nodes":[],"categories_segments":[],"categories_sizes":[],"default_left":[0,0,0,0,0,0,0,0,0,0,0,0,0],"id":44,"left_children":[1,3,5,-1,7,9,11,-1,-1,-1,-1,-1,-1],"loss_changes":[9.993725E0,8.056039E0,8.611171E0,0E0,5.8372383E0,2.2363655E1,2.3885998E1,0E0,0E0,0E0,0E0,0E0,0E0],"parents":[2147483647,0,0,1,1,2,2,4,4,5,5,6,6],"right_children":[2,4,6,-1,8,10,12,-1,-1,-1,-1,-1,-1],"split_conditions":[2E0,1E0,5.3333335E0,-1.2236501E-1,6.1E1,4.3333335E0,6.3333335E0,8.555284E-2,2.0798465E-2,-1.607582E-2,7.337322E-2,-1.7916237E-1,-1.5901087E-2],"split_indices":[0,0,2,0,3,2,2,0,0,0,0,0,0],"split_type":[0,0,0,0,0,0,0,0,0,0,0,0,0],"sum_hessian":[3.4043634E2,7.387568E1,2.6656067E2,2.300693E0,7.157499E1,1.4422864E2,1.2233203E2,1.8362955E1,5.3212036E1,1.0757742E2,3.6651215E1,8.758536E0,1.13573494E2],"tree_param":{"num_deleted":"0","num_feature":"5","num_nodes":"13","size_leaf_vector":"1"}},{"base_weights":[-4.9899155E-3,-1.598033E-1,1.8593664E-1,-6.873242E-2,-9.7963445E-2,9.713385E-1,9.825204E-2,4.1580338E-2,-2.9601565E-2,1.3195853E-1,-1.7249085E-1,2.8704647E-2,-5.7758987E-2],"categories":[],"categories_nodes":[],"categories_segments":[],"categories_sizes":[],"default_left":[0,0,0,0,0,0,0,0,0,0,0,0,0],"id":45,"left_children":[1,3,5,7,-1,9,11,-1,-1,-1,-1,-1,-1],"loss_changes":[1.0039526E1,1.39356E1,1.0379396E1,1.8830736E1,0E0,1.6513657E1,1.7765999E1,0E0,0E0,0E0,0E0,0E0,0E0],"parents":[2147483647,0,0,1,1,2,2,3,3,5,5,6,6],"right_children":[2,4,6,8,-1,10,12,-1,-1,-1,-1,-1,-1],"split_conditions":[4.3E1,1.1E1,6.15E1,2.9E1,-9.7963445E-2,4.5E1,4E0,4.1580338E-2,-2.9601565E-2,1.3195853E-1,-1.7249085E-1,2.8704647E-2,-5.7758987E-2],"split_indices":[1,0,3,3,0,1,0,0,0,0,0,0,0],"split_type":[0,0,0,0,0,0,0,0,0,0,0,0,0],"sum_hessian":[3.3765002E2,1.8654912E2,1.511009E2,1.6887364E2,1.7675478E1,1.4163053E1,1.3693787E2,5.3656372E1,1.1521727E2,1.2995181E1,1.1678711E0,1.0748697E2,2.9450888E1],"tree_param":{"num_deleted":"0","num_feature":"5","num_nodes":"13","size_leaf_vector":"1"}},{"base_weights":[-5.011579E-3,-8.725433E-2,3.123628E-1,-4.8997883E-2,-1.3308114E0,1.3359438E-1,7.9404974E-1,8.225111E-2,-1.1346663E-2,-3.0082837E-2,-2.961708E-1,-4.8685852E-2,4.7467317E-2,8.899751E-2,-3.160231E-2],"categories":[],"categories_nodes":[],"categories_segments":[],"categories_sizes":[],"default_left":[0,0,0,0,0,0,0,0,0,0,0,0,0,0,0],"id":46,"left_children":[1,3,5,7,9,11,13,-1,-1,-1,-1,-1,-1,-1,-1],"loss_changes":[8.808463E0,1.2683073E1,5.8747487E0,1.47580595E1,1.2479199E1,1.1205427E1,2.2615938E0,0E0,0E0,0E0,0E0,0E0,0E0,0E0,0E0],"parents":[2147483647,0,0,1,1,2,2,3,3,4,4,5,5,6,6],"right_children":[2,4,6,8,10,12,14,-1,-1,-1,-1,-1,-1,-1,-1],"split_conditions":[5.6E1,5.3E1,2.3333333E0,2.5E0,3.3333334E-1,6.6E1,1.09E2,8.225111E-2,-1.1346663E-2,-3.0082837E-2,-2.961708E-1,-4.8685852E-2,4.7467317E-2,8.899751E-2,-3.160231E-2],"split_indices":[1,1,2,2,4,1,3,0,0,0,0,0,0,0,0],"split_type":[0,0,0,0,0,0,0,0,0,0,0,0,0,0,0],"sum_hessian":[3.3542227E2,2.6696692E2,6.845535E1,2.6000754E2,6.9593987E0,5.0857838E1,1.7597517E1,1.7099035E1,2.429085E2,4.9915013E0,1.9678974E0,1.7888906E1,3.2968933E1,1.6380308E1,1.2172077E0],"tree_param":{"num_deleted":"0","num_feature":"5","num_nodes":"15","size_leaf_vector":"1"}},{"base_weights":[-4.6882075E-3,-5.9667057E-1,4.008491E-2,5.828901E-1,-1.0060685E-1,1.6065639E0,-2.9022919E-2,-1.000777E-1,1.1258631E-1,-7.9121724E-2,2.0400798E-1,-1.0252183E-1,3.9176513E-3],"categories":[],"categories_nodes":[],"categories_segments":[],"categories_sizes":[],"default_left":[0,0,0,0,0,0,0,0,0,0,0,0,0],"id":47,"left_children":[1,3,5,7,-1,9,11,-1,-1,-1,-1,-1,-1],"loss_changes":[8.8960705E0,1.1982978E1,3.383728E1,6.8997545E0,0E0,1.5341824E1,2.0417414E1,0E0,0E0,0E0,0E0,0E0,0E0],"parents":[2147483647,0,0,1,1,2,2,3,3,5,5,6,6],"right_children":[2,4,6,8,-1,10,12,-1,-1,-1,-1,-1,-1],"split_conditions":[7E0,4E0,8E0,3E0,-1.0060685E-1,-1E0,1.1E1,-1.000777E-1,1.1258631E-1,-7.9121724E-2,2.0400798E-1,-1.0252183E-1,3.9176513E-3],"split_indices":[3,0,3,0,0,4,1,0,0,0,0,0,0],"split_type":[0,0,0,0,0,0,0,0,0,0,0,0,0],"sum_hessian":[3.337364E2,2.259976E1,3.1113663E2,5.7136807E0,1.688608E1,1.2206335E1,2.989303E2,1.243544E0,4.4701366E0,1.7426431E0,1.0463692E1,1.8254374E1,2.8067593E2],"tree_param":{"num_deleted":"0","num_feature":"5","num_nodes":"13","size_leaf_vector":"1"}},{"base_weights":[-5.1766783E-3,2.02359E-2,-9.673349E-2,-5.4221313E-2,3.079408E-1,-7.55061E-4,-1.07119404E-1,1.4395024E-2,7.6307654E-2],"categories":[],"categories_nodes":[],"categories_segments":[],"categories_sizes":[],"default_left":[0,0,0,0,0,0,0,0,0],"id":48,"left_children":[1,3,-1,5,7,-1,-1,-1,-1],"loss_changes":[8.136752E0,6.966227E0,0E0,1.2264319E1,4.879443E0,0E0,0E0,0E0,0E0],"parents":[2147483647,0,0,1,1,3,3,4,4],"right_children":[2,4,-1,6,8,-1,-1,-1,-1],"split_conditions":[1.5E1,5.6E1,-9.673349E-2,1.08E2,2.3333333E0,-7.55061E-4,-1.07119404E-1,1.4395024E-2,7.6307654E-2],"split_indices":[0,1,0,3,2,0,0,0,0],"split_type":[0,0,0,0,0,0,0,0,0],"sum_hessian":[3.3097842E2,3.234153E2,7.5630965E0,2.575688E2,6.584653E1,2.4723036E2,1.033842E1,4.937311E1,1.6473417E1],"tree_param":{"num_deleted":"0","num_feature":"5","num_nodes":"9","size_leaf_vector":"1"}},{"base_weights":[-4.9236743E-3,2.8853536E-1,-8.591875E-2,-1.1828613E-1,3.5013732E-1,-2.172255E-1,1.4405127E-1,8.348086E-2,1.6883874E-2,-8.5967E-3,-9.972707E-2,2.2493852E-2,-1.5637791E-1],"categories":[],"categories_nodes":[],"categories_segments":[],"categories_sizes":[],"default_left":[0,0,0,0,0,0,0,0,0,0,0,0,0],"id":49,"left_children":[1,3,5,-1,7,9,11,-1,-1,-1,-1,-1,-1],"loss_changes":[7.873876E0,6.9093294E0,7.869402E0,0E0,5.9704504E0,1.6872408E1,1.3467232E1,0E0,0E0,0E0,0E0,0E0,0E0],"parents":[2147483647,0,0,1,1,2,2,4,4,5,5,6,6],"right_children":[2,4,6,-1,8,10,12,-1,-1,-1,-1,-1,-1],"split_conditions":[2E0,1E0,8.4E1,-1.1828613E-1,6.1E1,7.2E1,7.3333335E0,8.348086E-2,1.6883874E-2,-8.5967E-3,-9.972707E-2,2.2493852E-2,-1.5637791E-1],"split_indices":[0,0,3,0,3,3,2,0,0,0,0,0,0],"split_type":[0,0,0,0,0,0,0,0,0,0,0,0,0],"sum_hessian":[3.2922733E2,7.0658195E1,2.5856912E2,2.1079113E0,6.8550285E1,1.6462694E2,9.394219E1,1.768032E1,5.0869965E1,1.418654E2,2.2761541E1,9.052308E1,3.4191165E0],"tree_param":{"num_deleted":"0","num_feature":"5","num_nodes":"13","size_leaf_vector":"1"}},{"base_weights":[-5.093242E-3,-5.7203525E-1,3.460297E-2,5.653494E-1,-9.93975E-2,1.3805046E0,-2.9450534E-2,-9.785617E-2,1.0681354E-1,-8.011713E-2,1.7371689E-1,-1.0123811E-1,3.2559447E-3],"categories":[],"categories_nodes":[],"categories_segments":[],"categories_sizes":[],"default_left":[0,0,0,0,0,0,0,0,0,0,0,0,0],"id":50,"left_children":[1,3,5,7,-1,9,11,-1,-1,-1,-1,-1,-1],"loss_changes":[7.381854E0,1.0862116E1,2.6477781E1,6.048283E0,0E0,1.2248423E1,1.7934925E1,0E0,0E0,0E0,0E0,0E0,0E0],"parents":[2147483647,0,0,1,1,2,2,3,3,5,5,6,6],"right_children":[2,4,6,8,-1,10,12,-1,-1,-1,-1,-1,-1],"split_conditions":[7E0,4E0,8E0,3E0,-9.93975E-2,8E0,1.1E1,-9.785617E-2,1.0681354E-1,-8.011713E-2,1.7371689E-1,-1.0123811E-1,3.2559447E-3],"split_indices":[3,0,3,0,0,0,1,0,0,0,0,0,0],"split_type":[0,0,0,0,0,0,0,0,0,0,0,0,0],"sum_hessian":[3.261234E2,2.0462812E1,3.056606E2,5.4450917E0,1.5017722E1,1.2952313E1,2.9270828E2,1.105166E0,4.339926E0,1.644823E0,1.130749E1,1.646071E1,2.762476E2],"tree_param":{"num_deleted":"0","num_feature":"5","num_nodes":"13","size_leaf_vector":"1"}},{"base_weights":[-5.512012E-3,1.7071432E-2,-9.520534E-2,-2.8796721E-2,4.3765888E-1,2.0019345E-3,-7.4661985E-2,-1.0610254E-1,5.400238E-2],"categories":[],"categories_nodes":[],"categories_segments":[],"categories_sizes":[],"default_left":[0,0,0,0,0,0,0,0,0],"id":51,"left_children":[1,3,-1,5,7,-1,-1,-1,-1],"loss_changes":[6.954353E0,6.1471424E0,0E0,1.0094922E1,5.3795266E0,0E0,0E0,0E0,0E0],"parents":[2147483647,0,0,1,1,3,3,4,4],"right_children":[2,4,-1,6,8,-1,-1,-1,-1],"split_conditions":[1.5E1,6.6E1,-9.520534E-2,1.09E2,9.3E1,2.0019345E-3,-7.4661985E-2,-1.0610254E-1,5.400238E-2],"split_indices":[0,1,0,3,3,0,0,0,0],"split_type":[0,0,0,0,0,0,0,0,0],"sum_hessian":[3.2357175E2,3.1699066E2,6.581087E0,2.8665985E2,3.0330832E1,2.6931686E2,1.7342972E1,1.340467E0,2.8990364E1],"tree_param":{"num_deleted":"0","num_feature":"5","num_nodes":"9","size_leaf_vector":"1"}},{"base_weights":[-5.516182E-3,2.6726872E-1,-8.002968E-2,-1.1495856E-1,3.246234E-1,4.085118E-1,-1.5033014E-1,8.004346E-2,1.5377848E-2,-1.942498E-1,6.0506262E-2,-1.1830145E-1,-6.079655E-3],"categories":[],"categories_nodes":[],"categories_segments":[],"categories_sizes":[],"default_left":[0,0,0,0,0,0,0,0,0,0,0,0,0],"id":52,"left_children":[1,3,5,-1,7,9,11,-1,-1,-1,-1,-1,-1],"loss_changes":[6.597598E0,6.032787E0,8.8154955E0,0E0,5.381501E0,1.6116268E1,2.059803E1,0E0,0E0,0E0,0E0,0E0,0E0],"parents":[2147483647,0,0,1,1,2,2,4,4,5,5,6,6],"right_children":[2,4,6,-1,8,10,12,-1,-1,-1,-1,-1,-1],"split_conditions":[2E0,1E0,-4.6666665E0,-1.1495856E-1,6.1E1,3E0,-3E0,8.004346E-2,1.5377848E-2,-1.942498E-1,6.0506262E-2,-1.1830145E-1,-6.079655E-3],"split_indices":[0,0,4,0,3,0,4,0,0,0,0,0,0],"split_type":[0,0,0,0,0,0,0,0,0,0,0,0,0],"sum_hessian":[3.225343E2,6.864531E1,2.5388899E2,1.9297807E0,6.671553E1,3.133319E1,2.225558E2,1.6652468E1,5.006306E1,1.732095E0,2.9601095E1,1.6781713E1,2.057741E2],"tree_param":{"num_deleted":"0","num_feature":"5","num_nodes":"13","size_leaf_vector":"1"}},{"base_weights":[-5.8164154E-3,1.4903211E-2,-9.367075E-2,-8.432368E-3,7.802964E-1,3.8499676E-3,-1.0394982E-1,1.7522196E-1,-8.379229E-2],"categories":[],"categories_nodes":[],"categories_segments":[],"categories_sizes":[],"default_left":[0,0,0,0,0,0,0,0,0],"id":53,"left_children":[1,3,-1,5,7,-1,-1,-1,-1],"loss_changes":[6.222937E0,5.648636E0,0E0,1.4921509E1,1.6184265E1,0E0,0E0,0E0,0E0],"parents":[2147483647,0,0,1,1,3,3,4,4],"right_children":[2,4,-1,6,8,-1,-1,-1,-1],"split_conditions":[1.5E1,1.6E1,-9.367075E-2,1.3E1,1.6333334E1,3.8499676E-3,-1.0394982E-1,1.7522196E-1,-8.379229E-2],"split_indices":[0,2,0,2,2,0,0,0,0],"split_type":[0,0,0,0,0,0,0,0,0],"sum_hessian":[3.2091354E2,3.148888E2,6.024755E0,3.0653214E2,8.356677E0,2.941076E2,1.2424527E1,5.169189E0,3.187488E0],"tree_param":{"num_deleted":"0","num_feature":"5","num_nodes":"9","size_leaf_vector":"1"}},{"base_weights":[-5.913339E-3,-1.16583414E-1,1.6287096E-1,4.6973407E-2,-5.068124E-1,-2.161492E-2,6.008178E-1,1.9209867E-2,-1.4163342E-1,-8.1601225E-2,4.2385142E-2,-2.807856E-1,1.37501275E-2,9.073975E-2,-1.0545363E-1],"categories":[],"categories_nodes":[],"categories_segments":[],"categories_sizes":[],"default_left":[0,0,0,0,0,0,0,0,0,0,0,0,0,0,0],"id":54,"left_children":[1,3,5,7,9,11,13,-1,-1,-1,-1,-1,-1,-1,-1],"loss_changes":[5.998613E0,1.2401171E1,1.0289417E1,2.9486353E1,1.685186E1,4.048928E1,2.0106613E1,0E0,0E0,0E0,0E0,0E0,0E0,0E0,0E0],"parents":[2147483647,0,0,1,1,2,2,3,3,4,4,5,5,6,6],"right_children":[2,4,6,8,10,12,14,-1,-1,-1,-1,-1,-1,-1,-1],"split_conditions":[8.4E1,5E-1,4.3333335E0,7.4E1,7.65E1,4.45E1,7.3333335E0,1.9209867E-2,-1.4163342E-1,-8.1601225E-2,4.2385142E-2,-2.807856E-1,1.37501275E-2,9.073975E-2,-1.0545363E-1],"split_indices":[3,4,2,3,3,1,2,0,0,0,0,0,0,0,0],"split_type":[0,0,0,0,0,0,0,0,0,0,0,0,0,0,0],"sum_hessian":[3.1911917E2,1.9292775E2,1.2619141E2,1.365677E2,5.636005E1,8.9457794E1,3.6733612E1,1.2503585E2,1.1531856E1,4.239733E1,1.3962719E1,3.9334598E0,8.552434E1,3.1374704E1,5.3589067E0],"tree_param":{"num_deleted":"0","num_feature":"5","num_nodes":"15","size_leaf_vector":"1"}},{"base_weights":[-6.464555E-3,2.4833152E-1,-7.5159386E-2,3.027249E-1,-1.1133987E-1,-3.5511967E-2,-9.507186E-1,7.6526E-2,1.4404177E-2,-1.8447218E-2,2.5622545E-2,-3.2184923E-1,3.571447E-2],"categories":[],"categories_nodes":[],"categories_segments":[],"categories_sizes":[],"default_left":[0,0,0,0,0,0,0,0,0,0,0,0,0],"id":55,"left_children":[1,3,5,7,-1,9,11,-1,-1,-1,-1,-1,-1],"loss_changes":[5.5856385E0,5.3569274E0,8.689166E0,4.730706E0,0E0,1.0539387E1,3.3320786E1,0E0,0E0,0E0,0E0,0E0,0E0],"parents":[2147483647,0,0,1,1,2,2,3,3,5,5,6,6],"right_children":[2,4,6,8,-1,10,12,-1,-1,-1,-1,-1,-1],"split_conditions":[2E0,9.333333E0,1.16E2,6.1E1,-1.1133987E-1,8.4E1,6.6E1,7.6526E-2,1.4404177E-2,-1.8447218E-2,2.5622545E-2,-3.2184923E-1,3.571447E-2],"split_indices":[0,2,3,3,0,3,1,0,0,0,0,0,0],"split_type":[0,0,0,0,0,0,0,0,0,0,0,0,0],"sum_hessian":[3.1705515E2,6.677286E1,2.5028227E2,6.495593E1,1.8169286E0,2.4043535E2,9.84693E0,1.5615821E1,4.9340107E1,1.5940918E2,8.102616E1,3.0673718E0,6.7795577E0],"tree_param":{"num_deleted":"0","num_feature":"5","num_nodes":"13","size_leaf_vector":"1"}},{"base_weights":[-6.5295417E-3,1.1960259E-2,-9.122824E-2,-1.0744517E-2,7.879965E-1,2.353207E-3,-1.1434205E-1,-6.4977944E-2,1.2135364E-1],"categories":[],"categories_nodes":[],"categories_segments":[],"categories_sizes":[],"default_left":[0,0,0,0,0,0,0,0,0],"id":56,"left_children":[1,3,-1,5,7,-1,-1,-1,-1],"loss_changes":[5.285505E0,5.464244E0,0E0,1.1745044E1,6.1819415E0,0E0,0E0,0E0,0E0],"parents":[2147483647,0,0,1,1,3,3,4,4],"right_children":[2,4,-1,6,8,-1,-1,-1,-1],"split_conditions":[1.5E1,1.4E1,-9.122824E-2,1.1E1,3.6E1,2.353207E-3,-1.1434205E-1,-6.4977944E-2,1.2135364E-1],"split_indices":[0,0,0,0,1,0,0,0,0],"split_type":[0,0,0,0,0,0,0,0,0],"sum_hessian":[3.1395398E2,3.086403E2,5.313706E0,3.0082507E2,7.8151946E0,2.9293948E2,7.885593E0,1.6644725E0,6.1507225E0],"tree_param":{"num_deleted":"0","num_feature":"5","num_nodes":"9","size_leaf_vector":"1"}},{"base_weights":[-6.502941E-3,-5.1251966E-1,2.4415864E-2,5.6655195E-2,-9.749147E-2,1.193007E0,-3.483138E-2,-7.510509E-2,1.4940847E-1,-9.953537E-2,1.858636E-3],"categories":[],"categories_nodes":[],"categories_segments":[],"categories_sizes":[],"default_left":[0,0,0,0,0,0,0,0,0,0,0],"id":57,"left_children":[1,3,5,-1,-1,7,9,-1,-1,-1,-1],"loss_changes":[4.9137874E0,9.575918E0,2.0548298E1,0E0,0E0,9.504023E0,1.45320835E1,0E0,0E0,0E0,0E0],"parents":[2147483647,0,0,1,1,2,2,5,5,6,6],"right_children":[2,4,6,-1,-1,8,10,-1,-1,-1,-1],"split_conditions":[7E0,4E0,8E0,5.6655195E-2,-9.749147E-2,-1E0,1.1E1,-7.510509E-2,1.4940847E-1,-9.953537E-2,1.858636E-3],"split_indices":[3,0,3,0,0,4,1,0,0,0,0],"split_type":[0,0,0,0,0,0,0,0,0,0,0],"sum_hessian":[3.1227185E2,1.7084866E1,2.9518698E2,5.0573916E0,1.2027474E1,1.3320365E1,2.8186664E2,1.5858692E0,1.1734495E1,1.3920686E1,2.6794592E2],"tree_param":{"num_deleted":"0","num_feature":"5","num_nodes":"11","size_leaf_vector":"1"}},{"base_weights":[-6.5543964E-3,-2.762527E-2,7.3648834E-1,2.3357682E-1,-8.8355415E-2,5.2321986E-3,8.240479E-2,-3.326141E-4,2.6608583E-1,4.408441E-3,-5.9869636E-2],"categories":[],"categories_nodes":[],"categories_segments":[],"categories_sizes":[],"default_left":[0,0,0,0,0,0,0,0,0,0,0],"id":58,"left_children":[1,3,5,7,9,-1,-1,-1,-1,-1,-1],"loss_changes":[4.8924427E0,4.8360944E0,4.7310543E-1,3.3096313E1,1.6722883E1,0E0,0E0,0E0,0E0,0E0,0E0],"parents":[2147483647,0,0,1,1,2,2,3,3,4,4],"right_children":[2,4,6,8,10,-1,-1,-1,-1,-1,-1],"split_conditions":[7.7E1,2.9E1,3.3333334E-1,2.5E1,5E0,5.2321986E-3,8.240479E-2,-3.326141E-4,2.6608583E-1,4.408441E-3,-5.9869636E-2],"split_indices":[1,3,4,1,0,0,0,0,0,0,0],"split_type":[0,0,0,0,0,0,0,0,0,0,0],"sum_hessian":[3.1018567E2,3.025684E2,7.6172776E0,5.6540394E1,2.4602798E2,1.04551E0,6.571768E0,5.2422573E1,4.1178193E0,1.9606126E2,4.996672E1],"tree_param":{"num_deleted":"0","num_feature":"5","num_nodes":"11","size_leaf_vector":"1"}},{"base_weights":[-5.2157673E-3,-1.6140744E-1,9.50053E-2,2.1345383E-1,-4.9573493E-1,-9.804299E-2,5.4612184E-1,-3.0003497E-4,2.2398613E-1,-1.3152244E-2,-1.1050718E-1,-2.0044756E-1,2.4290436E-3,2.4385018E-2,1.08849846E-1],"categories":[],"categories_nodes":[],"categories_segments":[],"categories_sizes":[],"default_left":[0,0,0,0,0,0,0,0,0,0,0,0,0,0,0],"id":59,"left_children":[1,3,5,7,9,11,13,-1,-1,-1,-1,-1,-1,-1,-1],"loss_changes":[4.869559E0,1.5342506E1,1.6558743E1,2.5452496E1,1.418308E1,3.1200954E1,9.071316E0,0E0,0E0,0E0,0E0,0E0,0E0,0E0,0E0],"parents":[2147483647,0,0,1,1,2,2,3,3,4,4,5,5,6,6],"right_children":[2,4,6,8,10,12,14,-1,-1,-1,-1,-1,-1,-1,-1],"split_conditions":[3.4E1,2.9E1,4.3333335E0,2.5E1,4E0,4.05E1,1E0,-3.0003497E-4,2.2398613E-1,-1.3152244E-2,-1.1050718E-1,-2.0044756E-1,2.4290436E-3,2.4385018E-2,1.08849846E-1],"split_indices":[1,3,2,1,0,1,4,0,0,0,0,0,0,0,0],"split_type":[0,0,0,0,0,0,0,0,0,0,0,0,0,0,0],"sum_hessian":[3.0910086E2,1.20576035E2,1.8852481E2,5.7012688E1,6.3563347E1,1.3257436E2,5.5950462E1,5.241266E1,4.600029E0,4.054478E1,2.3018562E1,7.06643E0,1.2550792E2,3.685848E1,1.9091984E1],"tree_param":{"num_deleted":"0","num_feature":"5","num_nodes":"15","size_leaf_vector":"1"}},{"base_weights":[-5.066583E-3,3.3054435E-1,-5.060248E-2,6.434572E-1,-9.178393E-1,-1.0502703E0,2.340885E-2,-9.209468E-2,1.00259915E-1,-2.1049039E-1,-7.014571E-4,-1.7184825E-1,3.6119256E-2,6.522783E-2,-5.115885E-3],"categories":[],"categories_nodes":[],"categories_segments":[],"categories_sizes":[],"default_left":[0,0,0,0,0,0,0,0,0,0,0,0,0,0,0],"id":60,"left_children":[1,3,5,7,9,11,13,-1,-1,-1,-1,-1,-1,-1,-1],"loss_changes":[4.7182813E0,1.5000145E1,2.013113E1,1.782494E1,8.424136E0,1.8309412E1,1.1944462E1,0E0,0E0,0E0,0E0,0E0,0E0,0E0,0E0],"parents":[2147483647,0,0,1,1,2,2,3,3,4,4,5,5,6,6],"right_children":[2,4,6,8,10,12,14,-1,-1,-1,-1,-1,-1,-1,-1],"split_conditions":[-4.6666665E0,6.15E1,-3E0,1.2E1,3E0,4.2E1,-2E0,-9.209468E-2,1.00259915E-1,-2.1049039E-1,-7.014571E-4,-1.7184825E-1,3.6119256E-2,6.522783E-2,-5.115885E-3],"split_indices":[4,3,4,1,0,1,4,0,0,0,0,0,0,0,0],"split_type":[0,0,0,0,0,0,0,0,0,0,0,0,0,0,0],"sum_hessian":[3.0664618E2,3.5887486E1,2.707587E2,2.9082417E1,6.805068E0,1.7754793E1,2.530039E2,5.1378613E0,2.3944555E1,2.3853238E0,4.4197445E0,1.1902443E1,5.852351E0,2.5998358E1,2.2700554E2],"tree_param":{"num_deleted":"0","num_feature":"5","num_nodes":"15","size_leaf_vector":"1"}},{"base_weights":[-5.5669774E-3,-2.3841066E-2,8.3368234E-2,6.894766E-3,-1.0201969E0,-2.5038973E-3,1.0245267E-1,-1.7943542E-1,3.5234746E-2],"categories":[],"categories_nodes":[],"categories_segments":[],"categories_sizes":[],"default_left":[0,0,0,0,0,0,0,0,0],"id":61,"left_children":[1,3,-1,5,7,-1,-1,-1,-1],"loss_changes":[4.718053E0,9.218169E0,0E0,9.539921E0,1.0203487E1,0E0,0E0,0E0,0E0],"parents":[2147483647,0,0,1,1,3,3,4,4],"right_children":[2,4,-1,6,8,-1,-1,-1,-1],"split_conditions":[7.3333335E0,4.6666665E0,8.3368234E-2,4.3333335E0,5.9E1,-2.5038973E-3,1.0245267E-1,-1.7943542E-1,3.5234746E-2],"split_indices":[4,4,0,4,1,0,0,0,0],"split_type":[0,0,0,0,0,0,0,0,0],"sum_hessian":[3.0533923E2,2.9978326E2,5.555987E0,2.9177557E2,8.007685E0,2.8384384E2,7.9317493E0,4.923411E0,3.0842743E0],"tree_param":{"num_deleted":"0","num_feature":"5","num_nodes":"9","size_leaf_vector":"1"}},{"base_weights":[-4.893428E-3,2.232519E-1,-6.6734314E-2,2.7323478E-1,-1.0474066E-1,2.45467E-1,-1.6156648E-1,7.232528E-2,1.2804463E-2,5.3912816E-3,1.8054329E-1,-2.1583447E-3,-1.0705381E-1],"categories":[],"categories_nodes":[],"categories_segments":[],"categories_sizes":[],"default_left":[0,0,0,0,0,0,0,0,0,0,0,0,0],"id":62,"left_children":[1,3,5,7,-1,9,11,-1,-1,-1,-1,-1,-1],"loss_changes":[4.3276486E0,4.440947E0,7.182644E0,4.07172E0,0E0,1.6817883E1,2.359976E1,0E0,0E0,0E0,0E0,0E0,0E0],"parents":[2147483647,0,0,1,1,2,2,3,3,5,5,6,6],"right_children":[2,4,6,8,-1,10,12,-1,-1,-1,-1,-1,-1],"split_conditions":[2E0,9.333333E0,2.9E1,6.1E1,-1.0474066E-1,2.5E1,7.6666665E0,7.232528E-2,1.2804463E-2,5.3912816E-3,1.8054329E-1,-2.1583447E-3,-1.0705381E-1],"split_indices":[0,2,3,3,0,1,2,0,0,0,0,0,0],"split_type":[0,0,0,0,0,0,0,0,0,0,0,0,0],"sum_hessian":[3.0468E2,6.4417786E1,2.4026222E2,6.2734997E1,1.68279E0,5.5607098E1,1.8465512E2,1.4331862E1,4.8403133E1,5.044707E1,5.1600294E0,1.6090001E2,2.3755108E1],"tree_param":{"num_deleted":"0","num_feature":"5","num_nodes":"13","size_leaf_vector":"1"}},{"base_weights":[-4.399887E-3,3.290406E-1,-4.8849583E-2,6.266643E-1,-7.9669255E-1,-9.900072E-1,1.729736E-2,-8.980516E-2,9.579655E-2,-1.7836711E-1,3.8368814E-3,-1.6471584E-1,3.3938553E-2,6.3755396E-3,-8.18462E-2],"categories":[],"categories_nodes":[],"categories_segments":[],"categories_sizes":[],"default_left":[0,0,0,0,0,0,0,0,0,0,0,0,0,0,0],"id":63,"left_children":[1,3,5,7,9,11,13,-1,-1,-1,-1,-1,-1,-1,-1],"loss_changes":[4.5220475E0,1.2523975E1,1.6771715E1,1.5481596E1,6.616474E0,1.6013382E1,9.853836E0,0E0,0E0,0E0,0E0,0E0,0E0,0E0,0E0],"parents":[2147483647,0,0,1,1,2,2,3,3,4,4,5,5,6,6],"right_children":[2,4,6,8,10,12,14,-1,-1,-1,-1,-1,-1,-1,-1],"split_conditions":[-4.6666665E0,6.15E1,-3E0,1.2E1,3E0,4.2E1,1.1E1,-8.980516E-2,9.579655E-2,-1.7836711E-1,3.8368814E-3,-1.6471584E-1,3.3938553E-2,6.3755396E-3,-8.18462E-2],"split_indices":[4,3,4,1,0,1,0,0,0,0,0,0,0,0,0],"split_type":[0,0,0,0,0,0,0,0,0,0,0,0,0,0,0],"sum_hessian":[3.030196E2,3.4889866E1,2.6812973E2,2.7945028E1,6.9448376E0,1.6690187E1,2.5143954E2,4.682861E0,2.3262169E1,2.6622665E0,4.2825713E0,1.1009093E1,5.681093E0,2.3907368E2,1.2365868E1],"tree_param":{"num_deleted":"0","num_feature":"5","num_nodes":"15","size_leaf_vector":"1"}},{"base_weights":[-5.3928536E-3,-2.474773E-2,7.032886E-1,-4.640871E-2,6.32367E-1,5.0246646E-3,7.931548E-1,-7.6244416E-4,-9.9303834E-2,1.4078654E-1,-7.919898E-2,8.861839E-2,3.0268705E-2],"categories":[],"categories_nodes":[],"categories_segments":[],"categories_sizes":[],"default_left":[0,0,0,0,0,0,0,0,0,0,0,0,0],"id":64,"left_children":[1,3,5,7,9,-1,11,-1,-1,-1,-1,-1,-1],"loss_changes":[4.153884E0,4.221465E0,4.3264675E-1,1.049466E1,1.1572168E1,0E0,5.1600933E-2,0E0,0E0,0E0,0E0,0E0,0E0],"parents":[2147483647,0,0,1,1,2,2,3,3,4,4,6,6],"right_children":[2,4,6,8,10,-1,12,-1,-1,-1,-1,-1,-1],"split_conditions":[7.7E1,1.6E1,3.3333334E-1,1.3E1,1.6333334E1,5.0246646E-3,7E0,-7.6244416E-4,-9.9303834E-2,1.4078654E-1,-7.919898E-2,8.861839E-2,3.0268705E-2],"split_indices":[1,2,4,2,2,0,0,0,0,0,0,0,0],"split_type":[0,0,0,0,0,0,0,0,0,0,0,0,0],"sum_hessian":[3.0057086E2,2.935196E2,7.051266E0,2.8505258E2,8.467032E0,1.0415592E0,6.009707E0,2.7480176E2,1.025082E1,5.4897094E0,2.9773228E0,4.3733764E0,1.6363308E0],"tree_param":{"num_deleted":"0","num_feature":"5","num_nodes":"13","size_leaf_vector":"1"}},{"base_weights":[-4.7333036E-3,-2.1579865E-2,7.936966E-2,7.272836E-3,-9.855149E-1,-2.2308072E-3,9.590345E-2,-1.7390446E-1,3.2800894E-2],"categories":[],"categories_nodes":[],"categories_segments":[],"categories_sizes":[],"default_left":[0,0,0,0,0,0,0,0,0],"id":65,"left_children":[1,3,-1,5,7,-1,-1,-1,-1],"loss_changes":[4.05683E0,8.214509E0,0E0,8.116105E0,9.066285E0,0E0,0E0,0E0,0E0],"parents":[2147483647,0,0,1,1,3,3,4,4],"right_children":[2,4,-1,6,8,-1,-1,-1,-1],"split_conditions":[7.3333335E0,4.6666665E0,7.936966E-2,4.3333335E0,5.9E1,-2.2308072E-3,9.590345E-2,-1.7390446E-1,3.2800894E-2],"split_indices":[4,4,0,4,1,0,0,0,0],"split_type":[0,0,0,0,0,0,0,0,0],"sum_hessian":[2.9933176E2,2.9409937E2,5.23241E0,2.8651575E2,7.583594E0,2.7882635E2,7.6894073E0,4.6131897E0,2.970404E0],"tree_param":{"num_deleted":"0","num_feature":"5","num_nodes":"9","size_leaf_vector":"1"}},{"base_weights":[-4.15862E-3,3.1188303E-1,-4.5843285E-2,6.0073566E-1,-7.091807E-1,-9.4195473E-1,1.4107633E-2,-8.669933E-2,8.9041255E-2,1.5838701E-2,-1.6151933E-1,-1.598532E-1,3.2021575E-2,5.8068313E-2,-5.3074583E-3],"categories":[],"categories_nodes":[],"categories_segments":[],"categories_sizes":[],"default_left":[0,0,0,0,0,0,0,0,0,0,0,0,0,0,0],"id":66,"left_children":[1,3,5,7,9,11,13,-1,-1,-1,-1,-1,-1,-1,-1],"loss_changes":[3.9630136E0,1.0765076E1,1.428625E1,1.2619866E1,6.692355E0,1.4330163E1,9.546921E0,0E0,0E0,0E0,0E0,0E0,0E0,0E0,0E0],"parents":[2147483647,0,0,1,1,2,2,3,3,4,4,5,5,6,6],"right_children":[2,4,6,8,10,12,14,-1,-1,-1,-1,-1,-1,-1,-1],"split_conditions":[-4.6666665E0,6.15E1,-3E0,1.2E1,7.6666665E0,4.2E1,-2E0,-8.669933E-2,8.9041255E-2,1.5838701E-2,-1.6151933E-1,-1.598532E-1,3.2021575E-2,5.8068313E-2,-5.3074583E-3],"split_indices":[4,3,4,1,2,1,4,0,0,0,0,0,0,0,0],"split_type":[0,0,0,0,0,0,0,0,0,0,0,0,0,0,0],"sum_hessian":[2.987335E2,3.4055103E1,2.646784E2,2.6866419E1,7.188686E0,1.5674404E1,2.4900398E2,4.099943E0,2.2766476E1,4.09379E0,3.0948963E0,1.0135469E1,5.538935E0,2.5585707E1,2.2341827E2],"tree_param":{"num_deleted":"0","num_feature":"5","num_nodes":"15","size_leaf_vector":"1"}},{"base_weights":[-4.665343E-3,-2.2473345E-2,6.765123E-1,-4.2907253E-2,6.060825E-1,5.1472574E-3,7.677526E-1,-8.500672E-4,-9.733718E-2,1.2722482E-1,-7.6279305E-2,8.69364E-2,2.548483E-2],"categories":[],"categories_nodes":[],"categories_segments":[],"categories_sizes":[],"default_left":[0,0,0,0,0,0,0,0,0,0,0,0,0],"id":67,"left_children":[1,3,5,7,9,-1,11,-1,-1,-1,-1,-1,-1],"loss_changes":[3.633223E0,3.7716494E0,3.9566326E-1,9.063916E0,9.403939E0,0E0,1.2173867E-1,0E0,0E0,0E0,0E0,0E0,0E0],"parents":[2147483647,0,0,1,1,2,2,3,3,4,4,6,6],"right_children":[2,4,6,8,10,-1,12,-1,-1,-1,-1,-1,-1],"split_conditions":[7.7E1,1.6E1,3.3333334E-1,1.3E1,1.6333334E1,5.1472574E-3,7E0,-8.500672E-4,-9.733718E-2,1.2722482E-1,-7.6279305E-2,8.69364E-2,2.548483E-2],"split_indices":[1,2,4,2,2,0,0,0,0,0,0,0,0],"split_type":[0,0,0,0,0,0,0,0,0,0,0,0,0],"sum_hessian":[2.9726022E2,2.906293E2,6.6309037E0,2.8238104E2,8.248272E0,1.0438913E0,5.5870123E0,2.732847E2,9.096346E0,5.5957026E0,2.6525695E0,4.0831223E0,1.5038897E0],"tree_param":{"num_deleted":"0","num_feature":"5","num_nodes":"13","size_leaf_vector":"1"}},{"base_weights":[-4.093962E-3,-2.0538915E-2,7.248475E-1,6.927108E-3,-1.037134E0,9.03258E-2,2.3264369E-2,-2.049964E-3,9.024251E-2,-1.6853341E-1,2.2710495E-2],"categories":[],"categories_nodes":[],"categories_segments":[],"categories_sizes":[],"default_left":[0,0,0,0,0,0,0,0,0,0,0],"id":68,"left_children":[1,3,5,7,9,-1,-1,-1,-1,-1,-1],"loss_changes":[3.576895E0,8.148142E0,3.679688E-1,7.015464E0,6.6736813E0,0E0,0E0,0E0,0E0,0E0,0E0],"parents":[2147483647,0,0,1,1,2,2,3,3,4,4],"right_children":[2,4,6,8,10,-1,-1,-1,-1,-1,-1],"split_conditions":[7E0,4.6666665E0,3E0,4.3333335E0,5.9E1,9.03258E-2,2.3264369E-2,-2.049964E-3,9.024251E-2,-1.6853341E-1,2.2710495E-2],"split_indices":[4,4,0,4,1,0,0,0,0,0,0],"split_type":[0,0,0,0,0,0,0,0,0,0,0],"sum_hessian":[2.9614575E2,2.9056247E2,5.5832796E0,2.8388574E2,6.6767426E0,3.4849494E0,2.0983303E0,2.7639752E2,7.48822E0,4.1935472E0,2.483195E0],"tree_param":{"num_deleted":"0","num_feature":"5","num_nodes":"11","size_leaf_vector":"1"}},{"base_weights":[-3.486992E-3,2.0675343E-1,-6.0196348E-2,-9.826839E-2,2.6193482E-1,-2.1094661E-2,-8.808051E-1,-9.4601594E-2,3.0455858E-2,-1.4816028E-2,2.1872334E-2,-2.6997516E-1,3.132988E-2],"categories":[],"categories_nodes":[],"categories_segments":[],"categories_sizes":[],"default_left":[0,0,0,0,0,0,0,0,0,0,0,0,0],"id":69,"left_children":[1,3,5,-1,7,9,11,-1,-1,-1,-1,-1,-1],"loss_changes":[3.54894E0,4.408015E0,7.502111E0,0E0,3.4403772E0,6.8810444E0,2.3946823E1,0E0,0E0,0E0,0E0,0E0,0E0],"parents":[2147483647,0,0,1,1,2,2,4,4,5,5,6,6],"right_children":[2,4,6,-1,8,10,12,-1,-1,-1,-1,-1,-1],"split_conditions":[2E0,-5E0,1.16E2,-9.826839E-2,1E0,8.4E1,6.6E1,-9.4601594E-2,3.0455858E-2,-1.4816028E-2,2.1872334E-2,-2.6997516E-1,3.132988E-2],"split_indices":[0,4,3,0,0,3,1,0,0,0,0,0,0],"split_type":[0,0,0,0,0,0,0,0,0,0,0,0,0],"sum_hessian":[2.9562106E2,6.2238056E1,2.3338301E2,2.0141737E0,6.0223885E1,2.2374725E2,9.635763E0,1.3302504E0,5.8893635E1,1.4650497E2,7.724227E1,3.3190467E0,6.316716E0],"tree_param":{"num_deleted":"0","num_feature":"5","num_nodes":"13","size_leaf_vector":"1"}},{"base_weights":[-4.286239E-3,2.3813121E-1,-5.9256546E-2,4.6979037E-1,-9.4903275E-2,3.1642348E-2,-5.871156E-1,2.761953E-2,1.697645E-1,-5.545189E-2,1.1494226E-2,-1.4834083E-2,-1.4799123E-1],"categories":[],"categories_nodes":[],"categories_segments":[],"categories_sizes":[],"default_left":[0,0,0,0,0,0,0,0,0,0,0,0,0],"id":70,"left_children":[1,3,5,7,-1,9,11,-1,-1,-1,-1,-1,-1],"loss_changes":[3.9319623E0,1.5446517E1,1.155635E1,1.0538732E1,0E0,1.0126294E1,1.3638629E1,0E0,0E0,0E0,0E0,0E0,0E0],"parents":[2147483647,0,0,1,1,2,2,3,3,5,5,6,6],"right_children":[2,4,6,8,-1,10,12,-1,-1,-1,-1,-1,-1],"split_conditions":[2.9E1,5E-1,7.6666665E0,2.5E1,-9.4903275E-2,5.95E1,6.1E1,2.761953E-2,1.697645E-1,-5.545189E-2,1.1494226E-2,-1.4834083E-2,-1.4799123E-1],"split_indices":[3,4,2,1,0,3,3,0,0,0,0,0,0],"split_type":[0,0,0,0,0,0,0,0,0,0,0,0,0],"sum_hessian":[2.9300583E2,5.3544434E1,2.3946138E2,4.530755E1,8.236887E0,2.0508517E2,3.4376217E1,4.0194973E1,5.1125755E0,2.4814522E1,1.8027065E2,2.3830572E1,1.0545646E1],"tree_param":{"num_deleted":"0","num_feature":"5","num_nodes":"13","size_leaf_vector":"1"}},{"base_weights":[-4.4290605E-3,3.250198E-1,-4.742553E-2,-6.5530354E-1,6.133683E-1,-8.9777166E-1,6.745118E-3,-1.4341496E-1,2.6737316E-2,-8.3174065E-2,8.672852E-2,-1.5252794E-1,2.801247E-2,2.187202E-2,-1.5136204E-2],"categories":[],"categories_nodes":[],"categories_segments":[],"categories_sizes":[],"default_left":[0,0,0,0,0,0,0,0,0,0,0,0,0,0,0],"id":71,"left_children":[1,3,5,7,9,11,13,-1,-1,-1,-1,-1,-1,-1,-1],"loss_changes":[4.1610637E0,9.988502E0,1.1971217E1,6.270065E0,1.0526748E1,1.1931048E1,8.250533E0,0E0,0E0,0E0,0E0,0E0,0E0,0E0,0E0],"parents":[2147483647,0,0,1,1,2,2,3,3,4,4,5,5,6,6],"right_children":[2,4,6,8,10,12,14,-1,-1,-1,-1,-1,-1,-1,-1],"split_conditions":[-4.6666665E0,3E0,-3E0,-5E0,1.2E1,4.2E1,3E0,-1.4341496E-1,2.6737316E-2,-8.3174065E-2,8.672852E-2,-1.5252794E-1,2.801247E-2,2.187202E-2,-1.5136204E-2],"split_indices":[4,0,4,4,1,1,0,0,0,0,0,0,0,0,0],"split_type":[0,0,0,0,0,0,0,0,0,0,0,0,0,0,0],"sum_hessian":[2.9166568E2,3.291375E1,2.5875195E2,7.1915164E0,2.5722233E1,1.4563754E1,2.4418819E2,3.5991127E0,3.5924037E0,3.5040584E0,2.2218174E1,9.309389E0,5.2543645E0,1.041587E2,1.400295E2],"tree_param":{"num_deleted":"0","num_feature":"5","num_nodes":"15","size_leaf_vector":"1"}},{"base_weights":[-4.865569E-3,2.3228222E-1,-5.8738474E-2,4.405043E-1,-9.337016E-2,-4.096284E-1,5.412184E-2,-2.930117E-2,6.885167E-2,-6.925177E-3,-1.07823506E-1,-1.1819379E-2,4.7112275E-2],"categories":[],"categories_nodes":[],"categories_segments":[],"categories_sizes":[],"default_left":[0,0,0,0,0,0,0,0,0,0,0,0,0],"id":72,"left_children":[1,3,5,7,-1,9,11,-1,-1,-1,-1,-1,-1],"loss_changes":[3.7153878E0,1.3482456E1,9.40405E0,8.635681E0,0E0,1.3072841E1,1.2999459E1,0E0,0E0,0E0,0E0,0E0,0E0],"parents":[2147483647,0,0,1,1,2,2,3,3,5,5,6,6],"right_children":[2,4,6,8,-1,10,12,-1,-1,-1,-1,-1,-1],"split_conditions":[2.9E1,5E-1,3.4E1,7E0,-9.337016E-2,4E0,4.3333335E0,-2.930117E-2,6.885167E-2,-6.925177E-3,-1.07823506E-1,-1.1819379E-2,4.7112275E-2],"split_indices":[3,4,1,3,0,0,2,0,0,0,0,0,0],"split_type":[0,0,0,0,0,0,0,0,0,0,0,0,0],"sum_hessian":[2.8874564E2,5.283871E1,2.3590694E2,4.536042E1,7.4782877E0,5.677143E1,1.7913551E2,1.1415816E1,3.3944607E1,3.8351097E1,1.8420334E1,1.2726349E2,5.1872025E1],"tree_param":{"num_deleted":"0","num_feature":"5","num_nodes":"13","size_leaf_vector":"1"}},{"base_weights":[-5.256766E-3,3.3685708E-1,-4.0740833E-2,-3.71934E-1,1.0344797E0,-9.9174015E-2,1.5579187E-3,6.0990658E-2,-9.368747E-2,-7.321615E-2,1.2846218E-1,1.7027067E-1,-4.189278E-3],"categories":[],"categories_nodes":[],"categories_segments":[],"categories_sizes":[],"default_left":[0,0,0,0,0,0,0,0,0,0,0,0,0],"id":73,"left_children":[1,3,5,7,9,-1,11,-1,-1,-1,-1,-1,-1],"loss_changes":[3.5155792E0,1.3842182E1,1.0550824E1,8.467545E0,7.118675E0,0E0,1.8704138E1,0E0,0E0,0E0,0E0,0E0,0E0],"parents":[2147483647,0,0,1,1,2,2,3,3,4,4,6,6],"right_children":[2,4,6,8,10,-1,12,-1,-1,-1,-1,-1,-1],"split_conditions":[8E0,7E0,2E1,4E0,8E0,-9.9174015E-2,2.1E1,6.0990658E-2,-9.368747E-2,-7.321615E-2,1.2846218E-1,1.7027067E-1,-4.189278E-3],"split_indices":[3,3,3,0,0,0,3,0,0,0,0,0,0],"split_type":[0,0,0,0,0,0,0,0,0,0,0,0,0],"sum_hessian":[2.8746567E2,2.6215923E1,2.6124976E2,1.3235445E1,1.2980479E1,1.0169251E1,2.510805E2,4.804994E0,8.43045E0,1.3709664E0,1.1609512E1,5.302287E0,2.4577821E2],"tree_param":{"num_deleted":"0","num_feature":"5","num_nodes":"13","size_leaf_vector":"1"}},{"base_weights":[-4.80296E-3,-2.0767733E-2,7.2120005E-1,3.085634E-2,-5.4487E-1,8.775592E-2,2.597695E-2,-1.7572189E-3,5.0707083E-2,-1.785004E-1,1.8089394E-3],"categories":[],"categories_nodes":[],"categories_segments":[],"categories_sizes":[],"default_left":[0,0,0,0,0,0,0,0,0,0,0],"id":74,"left_children":[1,3,5,7,9,-1,-1,-1,-1,-1,-1],"loss_changes":[3.3485029E0,7.657311E0,2.2054434E-1,5.959405E0,1.7747791E1,0E0,0E0,0E0,0E0,0E0,0E0],"parents":[2147483647,0,0,1,1,2,2,3,3,4,4],"right_children":[2,4,6,8,10,-1,-1,-1,-1,-1,-1],"split_conditions":[7E0,3E0,3E0,2.3333333E0,4E0,8.775592E-2,2.597695E-2,-1.7572189E-3,5.0707083E-2,-1.785004E-1,1.8089394E-3],"split_indices":[4,4,0,4,4,0,0,0,0,0,0],"split_type":[0,0,0,0,0,0,0,0,0,0,0],"sum_hessian":[2.8660904E2,2.813926E2,5.2164164E0,2.5701752E2,2.43751E1,3.2225943E0,1.9938222E0,2.3416705E2,2.2850464E1,6.932612E0,1.7442488E1],"tree_param":{"num_deleted":"0","num_feature":"5","num_nodes":"11","size_leaf_vector":"1"}},{"base_weights":[-4.4106487E-3,7.987739E-2,-1.8491082E-2,-1.2792528E-1,2.1341178E-3,7.482799E-2,-2.453258E-3],"categories":[],"categories_nodes":[],"categories_segments":[],"categories_sizes":[],"default_left":[0,0,0,0,0,0,0],"id":75,"left_children":[1,-1,3,-1,5,-1,-1],"loss_changes":[3.2577593E0,0E0,7.356352E0,0E0,5.574472E0,0E0,0E0],"parents":[2147483647,0,0,2,2,4,4],"right_children":[2,-1,4,-1,6,-1,-1],"split_conditions":[-9.666667E0,7.987739E-2,-6.3333335E0,-1.2792528E-1,-5.6666665E0,7.482799E-2,-2.453258E-3],"split_indices":[4,0,4,0,4,0,0],"split_type":[0,0,0,0,0,0,0],"sum_hessian":[2.8575705E2,3.963084E0,2.8179395E2,3.5535161E0,2.7824045E2,8.667226E0,2.695732E2],"tree_param":{"num_deleted":"0","num_feature":"5","num_nodes":"7","size_leaf_vector":"1"}},{"base_weights":[-3.93134E-3,-2.0394571E-2,6.438883E-1,3.195829E-1,-5.5509906E-2,3.4041211E-3,7.390089E-1,-3.5234824E-2,9.3744606E-2,-9.7533755E-2,-1.6816417E-3,8.48045E-2,2.2013132E-2],"categories":[],"categories_nodes":[],"categories_segments":[],"categories_sizes":[],"default_left":[0,0,0,0,0,0,0,0,0,0,0,0,0],"id":76,"left_children":[1,3,5,7,9,-1,11,-1,-1,-1,-1,-1,-1],"loss_changes":[3.070601E0,3.3669631E0,3.8876987E-1,1.1295405E1,9.064012E0,0E0,1.5981913E-1,0E0,0E0,0E0,0E0,0E0,0E0],"parents":[2147483647,0,0,1,1,2,2,3,3,4,4,6,6],"right_children":[2,4,6,8,10,-1,12,-1,-1,-1,-1,-1,-1],"split_conditions":[7.7E1,8E0,3.3333334E-1,7E0,2E1,3.4041211E-3,7E0,-3.5234824E-2,9.3744606E-2,-9.7533755E-2,-1.6816417E-3,8.48045E-2,2.2013132E-2],"split_indices":[1,3,4,3,3,0,0,0,0,0,0,0,0],"split_type":[0,0,0,0,0,0,0,0,0,0,0,0,0],"sum_hessian":[2.8567706E2,2.795415E2,6.1355524E0,2.5411646E1,2.5412985E2,1.011081E0,5.124471E0,1.2379054E1,1.3032591E1,9.281513E0,2.4484834E2,3.7103927E0,1.4140786E0],"tree_param":{"num_deleted":"0","num_feature":"5","num_nodes":"13","size_leaf_vector":"1"}},{"base_weights":[-3.432075E-3,-1.8271325E-2,6.9413394E-1,6.6852598E-3,-9.7287923E-1,8.556322E-2,2.3871629E-2,-1.8639261E-3,8.427318E-2,-1.6175695E-1,2.09007E-2],"categories":[],"categories_nodes":[],"categories_segments":[],"categories_sizes":[],"default_left":[0,0,0,0,0,0,0,0,0,0,0],"id":77,"left_children":[1,3,5,7,9,-1,-1,-1,-1,-1,-1],"loss_changes":[2.9703288E0,6.694979E0,2.3536801E-1,5.829431E0,5.7932763E0,0E0,0E0,0E0,0E0,0E0,0E0],"parents":[2147483647,0,0,1,1,2,2,3,3,4,4],"right_children":[2,4,6,8,10,-1,-1,-1,-1,-1,-1],"split_conditions":[7E0,4.6666665E0,3E0,4.3333335E0,5.9E1,8.556322E-2,2.3871629E-2,-1.8639261E-3,8.427318E-2,-1.6175695E-1,2.09007E-2],"split_indices":[4,4,0,4,1,0,0,0,0,0,0],"split_type":[0,0,0,0,0,0,0,0,0,0,0],"sum_hessian":[2.8472546E2,2.797482E2,4.9772477E0,2.735887E2,6.15951E0,3.025553E0,1.9516945E0,2.6649408E2,7.094614E0,3.7469862E0,2.4125237E0],"tree_param":{"num_deleted":"0","num_feature":"5","num_nodes":"11","size_leaf_vector":"1"}},{"base_weights":[-2.8966772E-3,1.9104467E-1,-5.5428255E-2,5.9509987E-1,6.0899377E-2,-1.785889E-2,-8.1328857E-1,7.61861E-2,-1.444606E-3,-2.5637224E-1,1.818851E-2,1.2057576E-2,-2.0148505E-2,-2.3613067E-1,2.8698971E-2],"categories":[],"categories_nodes":[],"categories_segments":[],"categories_sizes":[],"default_left":[0,0,0,0,0,0,0,0,0,0,0,0,0,0,0],"id":78,"left_children":[1,3,5,7,9,11,13,-1,-1,-1,-1,-1,-1,-1,-1],"loss_changes":[2.916848E0,3.1727402E0,6.398526E0,1.510623E0,1.5476714E1,5.5054574E0,1.8759186E1,0E0,0E0,0E0,0E0,0E0,0E0,0E0,0E0],"parents":[2147483647,0,0,1,1,2,2,3,3,4,4,5,5,6,6],"right_children":[2,4,6,8,10,12,14,-1,-1,-1,-1,-1,-1,-1,-1],"split_conditions":[2E0,6.1E1,1.16E2,0E0,6.9E1,5.3333335E0,6.6E1,7.61861E-2,-1.444606E-3,-2.5637224E-1,1.818851E-2,1.2057576E-2,-2.0148505E-2,-2.3613067E-1,2.8698971E-2],"split_indices":[0,3,3,4,3,2,1,0,0,0,0,0,0,0,0],"split_type":[0,0,0,0,0,0,0,0,0,0,0,0,0,0,0],"sum_hessian":[2.8426166E2,6.002363E1,2.2423802E2,1.3752961E1,4.6270668E1,2.1462213E2,9.615886E0,1.0602437E1,3.150524E0,1.1492369E0,4.512143E1,1.22564705E2,9.2057434E1,3.5189118E0,6.0969734E0],"tree_param":{"num_deleted":"0","num_feature":"5","num_nodes":"15","size_leaf_vector":"1"}},{"base_weights":[-3.7857313E-3,2.2132033E-1,-5.3335786E-2,4.682431E-2,1.4261936E-1,2.7112812E-2,-5.3960043E-1,1.170276E-1,-1.654346E-2,-4.963542E-2,9.954031E-3,2.140717E-2,-9.90983E-2],"categories":[],"categories_nodes":[],"categories_segments":[],"categories_sizes":[],"default_left":[0,0,0,0,0,0,0,0,0,0,0,0,0],"id":79,"left_children":[1,3,5,7,-1,9,11,-1,-1,-1,-1,-1,-1],"loss_changes":[3.1686614E0,1.0709127E1,9.120443E0,1.1116152E1,0E0,7.657839E0,1.1469547E1,0E0,0E0,0E0,0E0,0E0,0E0],"parents":[2147483647,0,0,1,1,2,2,3,3,5,5,6,6],"right_children":[2,4,6,8,-1,10,12,-1,-1,-1,-1,-1,-1],"split_conditions":[2.9E1,2.5E1,7.6666665E0,-5.6666665E0,1.4261936E-1,5.95E1,2E0,1.170276E-1,-1.654346E-2,-4.963542E-2,9.954031E-3,2.140717E-2,-9.90983E-2],"split_indices":[3,1,2,4,0,3,0,0,0,0,0,0,0],"split_type":[0,0,0,0,0,0,0,0,0,0,0,0,0],"sum_hessian":[2.8202423E2,5.0253914E1,2.317703E2,4.4804024E1,5.4498906E0,1.9967921E2,3.2091087E1,6.4026113E0,3.8401413E1,2.3558428E1,1.7612079E2,1.2217426E1,1.987366E1],"tree_param":{"num_deleted":"0","num_feature":"5","num_nodes":"13","size_leaf_vector":"1"}},{"base_weights":[-3.1530655E-3,8.117359E-2,-1.79933E-2,-1.2491258E-1,9.7639795E-4,4.0558465E-2,-4.0011765E-3],"categories":[],"categories_nodes":[],"categories_segments":[],"categories_sizes":[],"default_left":[0,0,0,0,0,0,0],"id":80,"left_children":[1,-1,3,-1,5,-1,-1],"loss_changes":[3.4157026E0,0E0,6.4747715E0,0E0,4.5600014E0,0E0,0E0],"parents":[2147483647,0,0,2,2,4,4],"right_children":[2,-1,4,-1,6,-1,-1],"split_conditions":[-9.666667E0,8.117359E-2,-6.3333335E0,-1.2491258E-1,-4.6666665E0,4.0558465E-2,-4.0011765E-3],"split_indices":[4,0,4,0,4,0,0],"split_type":[0,0,0,0,0,0,0],"sum_hessian":[2.802418E2,4.0518737E0,2.761899E2,3.2070038E0,2.729829E2,2.4292097E1,2.4869081E2],"tree_param":{"num_deleted":"0","num_feature":"5","num_nodes":"7","size_leaf_vector":"1"}},{"base_weights":[-2.878869E-3,3.2162848E-1,-3.6044817E-2,-8.995356E-2,6.4728117E-1,-9.593608E-2,-1.2591438E-3,9.08086E-2,-7.8810856E-2,1.3401361E-1,-3.7926638E-3],"categories":[],"categories_nodes":[],"categories_segments":[],"categories_sizes":[],"default_left":[0,0,0,0,0,0,0,0,0,0,0],"id":81,"left_children":[1,3,5,-1,7,-1,9,-1,-1,-1,-1],"loss_changes":[3.0358675E0,1.0984213E1,8.21596E0,0E0,8.663865E0,0E0,1.2226929E1,0E0,0E0,0E0,0E0],"parents":[2147483647,0,0,1,1,2,2,4,4,6,6],"right_children":[2,4,6,-1,8,-1,10,-1,-1,-1,-1],"split_conditions":[8E0,-1E0,2E1,-8.995356E-2,5E-1,-9.593608E-2,2.1E1,9.08086E-2,-7.8810856E-2,1.3401361E-1,-3.7926638E-3],"split_indices":[3,4,3,0,4,0,3,0,0,0,0],"split_type":[0,0,0,0,0,0,0,0,0,0,0],"sum_hessian":[2.7999866E2,2.5156918E1,2.5484174E2,4.9252987E0,2.0231619E1,8.287498E0,2.4655423E2,1.7431704E1,2.7999148E0,5.614445E0,2.4093979E2],"tree_param":{"num_deleted":"0","num_feature":"5","num_nodes":"11","size_leaf_vector":"1"}},{"base_weights":[-2.9798092E-3,7.685792E-2,-1.676866E-2,-1.215681E-1,5.3063384E-4,3.5352603E-2,-3.4838778E-3],"categories":[],"categories_nodes":[],"categories_segments":[],"categories_sizes":[],"default_left":[0,0,0,0,0,0,0],"id":82,"left_children":[1,-1,3,-1,5,-1,-1],"loss_changes":[2.9942515E0,0E0,5.7310004E0,0E0,3.425282E0,0E0,0E0],"parents":[2147483647,0,0,2,2,4,4],"right_children":[2,-1,4,-1,6,-1,-1],"split_conditions":[-9.666667E0,7.685792E-2,-6.3333335E0,-1.215681E-1,-4.6666665E0,3.5352603E-2,-3.4838778E-3],"split_indices":[4,0,4,0,4,0,0],"split_type":[0,0,0,0,0,0,0],"sum_hessian":[2.7923196E2,3.941563E0,2.752904E2,2.9303687E0,2.7236005E2,2.398533E1,2.4837471E2],"tree_param":{"num_deleted":"0","num_feature":"5","num_nodes":"7","size_leaf_vector":"1"}},{"base_weights":[-2.741919E-3,3.0393612E-2,-2.911528E-1,-1.5198089E-2,4.8266855E-1,-1.7036547E-1,1.8919589E-1,2.665911E-2,-8.728052E-3,-6.89106E-2,9.219118E-2,-9.5720306E-2,3.9394703E-2],"categories":[],"categories_nodes":[],"categories_segments":[],"categories_sizes":[],"default_left":[0,0,0,0,0,0,0,0,0,0,0,0,0],"id":83,"left_children":[1,3,5,7,9,-1,11,-1,-1,-1,-1,-1,-1],"loss_changes":[2.6847236E0,5.2046547E0,1.9963903E1,4.693831E0,1.25309105E1,0E0,5.6590247E0,0E0,0E0,0E0,0E0,0E0,0E0],"parents":[2147483647,0,0,1,1,2,2,3,3,4,4,6,6],"right_children":[2,4,6,8,10,-1,12,-1,-1,-1,-1,-1,-1],"split_conditions":[3E0,2.3333333E0,4E0,2.9E1,8.3E1,-1.7036547E-1,6.2E1,2.665911E-2,-8.728052E-3,-6.89106E-2,9.219118E-2,-9.5720306E-2,3.9394703E-2],"split_indices":[4,4,4,3,3,0,3,0,0,0,0,0,0],"split_type":[0,0,0,0,0,0,0,0,0,0,0,0,0],"sum_hessian":[2.7900134E2,2.5105254E2,2.7948812E1,2.2894052E2,2.2112015E1,6.4462934E0,2.150252E1,4.6084732E1,1.8285579E2,5.873734E0,1.6238281E1,2.7015603E0,1.880096E1],"tree_param":{"num_deleted":"0","num_feature":"5","num_nodes":"13","size_leaf_vector":"1"}},{"base_weights":[-3.1048348E-3,7.274264E-2,-1.5959399E-2,-1.18192434E-1,1.5157269E-4,2.115965E-2,-5.77422E-3],"categories":[],"categories_nodes":[],"categories_segments":[],"categories_sizes":[],"default_left":[0,0,0,0,0,0,0],"id":84,"left_children":[1,-1,3,-1,5,-1,-1],"loss_changes":[2.6350906E0,0E0,5.1757555E0,0E0,3.351212E0,0E0,0E0],"parents":[2147483647,0,0,2,2,4,4],"right_children":[2,-1,4,-1,6,-1,-1],"split_conditions":[-9.666667E0,7.274264E-2,-6.3333335E0,-1.18192434E-1,2E0,2.115965E-2,-5.77422E-3],"split_indices":[4,0,4,0,0,0,0],"split_type":[0,0,0,0,0,0,0],"sum_hessian":[2.783713E2,3.852333E0,2.7451895E2,2.755283E0,2.7176367E2,5.7844345E1,2.1391933E2],"tree_param":{"num_deleted":"0","num_feature":"5","num_nodes":"7","size_leaf_vector":"1"}},{"base_weights":[-2.8975639E-3,-1.8103115E-2,6.136882E-1,2.846589E-1,-4.914967E-2,3.5127585E-3,7.1011055E-1,-8.8356115E-2,5.8286022E-2,1.6975753E-3,-5.046576E-2,8.284042E-2,1.7700857E-2],"categories":[],"categories_nodes":[],"categories_segments":[],"categories_sizes":[],"default_left":[0,0,0,0,0,0,0,0,0,0,0,0,0],"id":85,"left_children":[1,3,5,7,9,-1,11,-1,-1,-1,-1,-1,-1],"loss_changes":[2.6207175E0,2.5764942E0,3.5036397E-1,9.399113E0,7.4818797E0,0E0,2.137382E-1,0E0,0E0,0E0,0E0,0E0,0E0],"parents":[2147483647,0,0,1,1,2,2,3,3,4,4,6,6],"right_children":[2,4,6,8,10,-1,12,-1,-1,-1,-1,-1,-1],"split_conditions":[7.7E1,8E0,3.3333334E-1,-1E0,7E0,3.5127585E-3,7E0,-8.8356115E-2,5.8286022E-2,1.6975753E-3,-5.046576E-2,8.284042E-2,1.7700857E-2],"split_indices":[1,3,4,4,0,0,0,0,0,0,0,0,0],"split_type":[0,0,0,0,0,0,0,0,0,0,0,0,0],"sum_hessian":[2.7734253E2,2.716149E2,5.727625E0,2.450235E1,2.4711256E2,1.0130941E0,4.714531E0,4.5834527E0,1.9918896E1,2.1662776E2,3.0484806E1,3.405033E0,1.3094978E0],"tree_param":{"num_deleted":"0","num_feature":"5","num_nodes":"13","size_leaf_vector":"1"}},{"base_weights":[-2.599309E-3,-1.5635602E-2,6.966343E-2,2.8103683E-2,-4.7163764E-1,-1.334532E-3,4.5698736E-2,-1.6211952E-1,1.4680084E-3],"categories":[],"categories_nodes":[],"categories_segments":[],"categories_sizes":[],"default_left":[0,0,0,0,0,0,0,0,0],"id":86,"left_children":[1,3,-1,5,7,-1,-1,-1,-1],"loss_changes":[2.538012E0,5.461084E0,0E0,4.4534516E0,1.34200325E1,0E0,0E0,0E0,0E0],"parents":[2147483647,0,0,1,1,3,3,4,4],"right_children":[2,4,-1,6,8,-1,-1,-1,-1],"split_conditions":[7.3333335E0,3E0,6.966343E-2,2.3333333E0,4E0,-1.334532E-3,4.5698736E-2,-1.6211952E-1,1.4680084E-3],"split_indices":[4,4,0,4,4,0,0,0,0],"split_type":[0,0,0,0,0,0,0,0,0],"sum_hessian":[2.7623587E2,2.7213983E2,4.0960517E0,2.4917734E2,2.2962486E1,2.281016E2,2.107575E1,6.132611E0,1.6829876E1],"tree_param":{"num_deleted":"0","num_feature":"5","num_nodes":"9","size_leaf_vector":"1"}},{"base_weights":[-2.5475628E-3,8.689677E-3,-8.0009215E-2,-1.3469642E-2,7.9681534E-1,9.9297E-4,-1.0836535E-1,1.0149479E-1,3.337891E-2],"categories":[],"categories_nodes":[],"categories_segments":[],"categories_sizes":[],"default_left":[0,0,0,0,0,0,0,0,0],"id":87,"left_children":[1,3,-1,5,7,-1,-1,-1,-1],"loss_changes":[2.4849017E0,4.7896132E0,0E0,6.7002897E0,4.187212E-1,0E0,0E0,0E0,0E0],"parents":[2147483647,0,0,1,1,3,3,4,4],"right_children":[2,4,-1,6,8,-1,-1,-1,-1],"split_conditions":[1.5E1,1.4E1,-8.0009215E-2,1.1E1,-4.6666665E0,9.9297E-4,-1.0836535E-1,1.0149479E-1,3.337891E-2],"split_indices":[0,0,0,0,4,0,0,0,0],"split_type":[0,0,0,0,0,0,0,0,0],"sum_hessian":[2.7548892E2,2.7263663E2,2.85229E0,2.661367E2,6.499918E0,2.614117E2,4.7249904E0,3.6081326E0,2.8917856E0],"tree_param":{"num_deleted":"0","num_feature":"5","num_nodes":"9","size_leaf_vector":"1"}},{"base_weights":[-2.5556935E-3,6.90076E-2,-1.4610039E-2,-1.1509229E-1,3.5315155E-4,-1.7163543E-3,6.1151035E-2],"categories":[],"categories_nodes":[],"categories_segments":[],"categories_sizes":[],"default_left":[0,0,0,0,0,0,0],"id":88,"left_children":[1,-1,3,-1,5,-1,-1],"loss_changes":[2.311586E0,0E0,4.623805E0,0E0,2.894378E0,0E0,0E0],"parents":[2147483647,0,0,2,2,4,4],"right_children":[2,-1,4,-1,6,-1,-1],"split_conditions":[-9.666667E0,6.90076E-2,-6.3333335E0,-1.1509229E-1,1.6E1,-1.7163543E-3,6.1151035E-2],"split_indices":[4,0,4,0,2,0,0],"split_type":[0,0,0,0,0,0,0],"sum_hessian":[2.746549E2,3.7360797E0,2.7091882E2,2.5344486E0,2.6838437E2,2.6185123E2,6.5331383E0],"tree_param":{"num_deleted":"0","num_feature":"5","num_nodes":"7","size_leaf_vector":"1"}},{"base_weights":[-2.2773407E-3,8.257369E-3,-7.832253E-2,-1.2288622E-2,7.5666505E-1,9.289365E-4,-1.0636728E-1,9.7594276E-2,3.1055568E-2],"categories":[],"categories_nodes":[],"categories_segments":[],"categories_sizes":[],"default_left":[0,0,0,0,0,0,0,0,0],"id":89,"left_children":[1,3,-1,5,7,-1,-1,-1,-1],"loss_changes":[2.2738638E0,4.2059836E0,0E0,6.0585146E0,4.1183043E-1,0E0,0E0,0E0,0E0],"parents":[2147483647,0,0,1,1,3,3,4,4],"right_children":[2,4,-1,6,8,-1,-1,-1,-1],"split_conditions":[1.5E1,1.4E1,-7.832253E-2,1.1E1,-4.6666665E0,9.289365E-4,-1.0636728E-1,9.7594276E-2,3.1055568E-2],"split_indices":[0,0,0,0,4,0,0,0,0],"split_type":[0,0,0,0,0,0,0,0,0],"sum_hessian":[2.746023E2,2.7192355E2,2.6787255E0,2.656152E2,6.3083377E0,2.6124475E2,4.370468E0,3.433153E0,2.875185E0],"tree_param":{"num_deleted":"0","num_feature":"5","num_nodes":"9","size_leaf_vector":"1"}},{"base_weights":[-2.3135508E-3,-1.6243486E-2,5.85561E-1,1.8472622E-1,-6.0237058E-2,3.3965856E-3,6.829418E-1,1.287383E-3,1.2974662E-1,3.5614842E-3,-4.923311E-2,8.1006624E-2,1.3663714E-2],"categories":[],"categories_nodes":[],"categories_segments":[],"categories_sizes":[],"default_left":[0,0,0,0,0,0,0,0,0,0,0,0,0],"id":90,"left_children":[1,3,5,7,9,-1,11,-1,-1,-1,-1,-1,-1],"loss_changes":[2.2600975E0,2.393349E0,3.1995678E-1,9.283689E0,9.204031E0,0E0,2.6277423E-1,0E0,0E0,0E0,0E0,0E0,0E0],"parents":[2147483647,0,0,1,1,2,2,3,3,4,4,6,6],"right_children":[2,4,6,8,10,-1,12,-1,-1,-1,-1,-1,-1],"split_conditions":[7.7E1,2.9E1,3.3333334E-1,2.5E1,5E0,3.3965856E-3,7E0,1.287383E-3,1.2974662E-1,3.5614842E-3,-4.923311E-2,8.1006624E-2,1.3663714E-2],"split_indices":[1,3,4,1,0,0,0,0,0,0,0,0,0],"split_type":[0,0,0,0,0,0,0,0,0,0,0,0,0],"sum_hessian":[2.7382858E2,2.6844016E2,5.388433E0,4.7635334E1,2.2080481E2,1.0109415E0,4.3774915E0,4.2138935E1,5.4963994E0,1.814673E2,3.9337517E1,3.1594753E0,1.2180163E0],"tree_param":{"num_deleted":"0","num_feature":"5","num_nodes":"13","size_leaf_vector":"1"}},{"base_weights":[-1.4213324E-3,-7.437054E-2,1.1294926E-1,3.938465E-1,-1.65567E-1,2.3365399E-1,-3.0292186E-1,-1.9468365E-2,9.642359E-2,-1.3979349E-1,-8.400931E-3,2.8667545E-2,-5.36956E-2,-2.1573494E-1,4.523619E-2],"categories":[],"categories_nodes":[],"categories_segments":[],"categories_sizes":[],"default_left":[0,0,0,0,0,0,0,0,0,0,0,0,0,0,0],"id":91,"left_children":[1,3,5,7,9,11,13,-1,-1,-1,-1,-1,-1,-1,-1],"loss_changes":[2.2941601E0,7.2334757E0,5.446401E0,9.474083E0,1.4075724E1,3.5682492E0,3.5326874E1,0E0,0E0,0E0,0E0,0E0,0E0,0E0,0E0],"parents":[2147483647,0,0,1,1,2,2,3,3,4,4,5,5,6,6],"right_children":[2,4,6,8,10,12,14,-1,-1,-1,-1,-1,-1,-1,-1],"split_conditions":[8.5E1,2.5E0,4E0,2.3333333E0,3.3333333E0,3E0,6E0,-1.9468365E-2,9.642359E-2,-1.3979349E-1,-8.400931E-3,2.8667545E-2,-5.36956E-2,-2.1573494E-1,4.523619E-2],"split_indices":[3,2,0,2,2,4,0,0,0,0,0,0,0,0,0],"split_type":[0,0,0,0,0,0,0,0,0,0,0,0,0,0,0],"sum_hessian":[2.7296536E2,1.6687616E2,1.060892E2,2.6663395E1,1.4021277E2,8.256364E1,2.3525568E1,1.34472E1,1.3216195E1,7.7013893E0,1.3251138E2,7.783614E1,4.7274914E0,6.2713504E0,1.7254217E1],"tree_param":{"num_deleted":"0","num_feature":"5","num_nodes":"15","size_leaf_vector":"1"}},{"base_weights":[-1.975355E-3,-1.4701714E-2,6.3873327E-1,8.017474E-3,-9.0112436E-1,8.062484E-2,1.7735422E-2,-1.5939508E-3,7.957885E-2,-1.5260617E-1,1.8739324E-2],"categories":[],"categories_nodes":[],"categories_segments":[],"categories_sizes":[],"default_left":[0,0,0,0,0,0,0,0,0,0,0],"id":92,"left_children":[1,3,5,7,9,-1,-1,-1,-1,-1,-1],"loss_changes":[2.227158E0,5.397761E0,2.681632E-1,4.956769E0,4.8421826E0,0E0,0E0,0E0,0E0,0E0,0E0],"parents":[2147483647,0,0,1,1,2,2,3,3,4,4],"right_children":[2,4,6,8,10,-1,-1,-1,-1,-1,-1],"split_conditions":[7E0,4.6666665E0,3E0,4.3333335E0,5.9E1,8.062484E-2,1.7735422E-2,-1.5939508E-3,7.957885E-2,-1.5260617E-1,1.8739324E-2],"split_indices":[4,4,0,4,1,0,0,0,0,0,0],"split_type":[0,0,0,0,0,0,0,0,0,0,0],"sum_hessian":[2.7098892E2,2.6666916E2,4.3197803E0,2.6097134E2,5.6977925E0,2.62077E0,1.6990104E0,2.5422002E2,6.751344E0,3.3643157E0,2.333477E0],"tree_param":{"num_deleted":"0","num_feature":"5","num_nodes":"11","size_leaf_vector":"1"}},{"base_weights":[-1.6069481E-3,2.7559692E-1,-2.93765E-2,-3.3951658E-1,8.116858E-1,-9.2365496E-2,3.2955608E-3,5.3122323E-2,-9.108645E-2,-7.32901E-2,1.03664555E-1,-4.4164397E-3,1.0702961E-1],"categories":[],"categories_nodes":[],"categories_segments":[],"categories_sizes":[],"default_left":[0,0,0,0,0,0,0,0,0,0,0,0,0],"id":93,"left_children":[1,3,5,7,9,-1,11,-1,-1,-1,-1,-1,-1],"loss_changes":[2.0985658E0,8.461419E0,7.2415566E0,6.585669E0,5.471075E0,0E0,1.2201152E1,0E0,0E0,0E0,0E0,0E0,0E0],"parents":[2147483647,0,0,1,1,2,2,3,3,4,4,6,6],"right_children":[2,4,6,8,10,-1,12,-1,-1,-1,-1,-1,-1],"split_conditions":[8E0,7E0,1.1E1,4E0,8E0,-9.2365496E-2,1.2E1,5.3122323E-2,-9.108645E-2,-7.32901E-2,1.03664555E-1,-4.4164397E-3,1.0702961E-1],"split_indices":[3,3,1,0,0,0,2,0,0,0,0,0,0],"split_type":[0,0,0,0,0,0,0,0,0,0,0,0,0],"sum_hessian":[2.705662E2,2.382396E1,2.4674223E2,1.1265032E1,1.2558927E1,7.735682E0,2.3900656E2,4.490973E0,6.7740593E0,1.3095505E0,1.1249376E1,2.2974611E2,9.26045E0],"tree_param":{"num_deleted":"0","num_feature":"5","num_nodes":"13","size_leaf_vector":"1"}},{"base_weights":[-1.6110542E-3,-1.3092479E-2,6.472547E-1,7.373759E-3,-7.788288E-1,7.663524E-2,2.4340509E-2,-1.4730468E-3,7.495126E-2,-1.4421089E-1,2.4472158E-2],"categories":[],"categories_nodes":[],"categories_segments":[],"categories_sizes":[],"default_left":[0,0,0,0,0,0,0,0,0,0,0],"id":94,"left_children":[1,3,5,7,9,-1,-1,-1,-1,-1,-1],"loss_changes":[2.023727E0,4.186715E0,4.063666E-2,4.2897997E0,5.0741525E0,0E0,0E0,0E0,0E0,0E0,0E0],"parents":[2147483647,0,0,1,1,2,2,3,3,4,4],"right_children":[2,4,6,8,10,-1,-1,-1,-1,-1,-1],"split_conditions":[7.3333335E0,4.6666665E0,3E0,4.3333335E0,5.9E1,7.663524E-2,2.4340509E-2,-1.4730468E-3,7.495126E-2,-1.4421089E-1,2.4472158E-2],